<?xml version="1.0"?>
<!-- DTD for the XMLBIF 0.3 format -->
<!DOCTYPE BIF [
	<!ELEMENT BIF ( NETWORK )*>
	      <!ATTLIST BIF VERSION CDATA #REQUIRED>
	<!ELEMENT NETWORK ( NAME, ( PROPERTY | VARIABLE | DEFINITION )* )>
	<!ELEMENT NAME (#PCDATA)>
	<!ELEMENT VARIABLE ( NAME, ( OUTCOME |  PROPERTY )* ) >
	      <!ATTLIST VARIABLE TYPE (nature|decision|utility) "nature">
	<!ELEMENT OUTCOME (#PCDATA)>
	<!ELEMENT DEFINITION ( FOR | GIVEN | TABLE | PROPERTY )* >
	<!ELEMENT FOR (#PCDATA)>
	<!ELEMENT GIVEN (#PCDATA)>
	<!ELEMENT TABLE (#PCDATA)>
	<!ELEMENT PROPERTY (#PCDATA)>
]>


<BIF VERSION="0.3">
<NETWORK>
<NAME>unimib5class-weka.filters.supervised.attribute.Discretize-Rfirst-last-precision6-weka.filters.unsupervised.attribute.Remove-V-R1,3,5-9,12,14-17,19-20,22-weka.filters.unsupervised.attribute.ReplaceMissingValues</NAME>
<VARIABLE TYPE="nature">
	<NAME>F1</NAME>
	<OUTCOME>&apos;(-inf--1.012865]&apos;</OUTCOME>
	<OUTCOME>&apos;(-1.012865-inf)&apos;</OUTCOME>
	<PROPERTY>position = (0,90)</PROPERTY>
</VARIABLE>
<VARIABLE TYPE="nature">
	<NAME>F3</NAME>
	<OUTCOME>&apos;(-inf--0.337975]&apos;</OUTCOME>
	<OUTCOME>&apos;(-0.337975-0.6643]&apos;</OUTCOME>
	<OUTCOME>&apos;(0.6643-inf)&apos;</OUTCOME>
	<PROPERTY>position = (45,90)</PROPERTY>
</VARIABLE>
<VARIABLE TYPE="nature">
	<NAME>F5</NAME>
	<OUTCOME>&apos;(-inf-0.24502]&apos;</OUTCOME>
	<OUTCOME>&apos;(0.24502-3.5167]&apos;</OUTCOME>
	<OUTCOME>&apos;(3.5167-6.5992]&apos;</OUTCOME>
	<OUTCOME>&apos;(6.5992-inf)&apos;</OUTCOME>
	<PROPERTY>position = (90,90)</PROPERTY>
</VARIABLE>
<VARIABLE TYPE="nature">
	<NAME>F6</NAME>
	<OUTCOME>&apos;(-inf-0.42684]&apos;</OUTCOME>
	<OUTCOME>&apos;(0.42684-2.11815]&apos;</OUTCOME>
	<OUTCOME>&apos;(2.11815-2.66425]&apos;</OUTCOME>
	<OUTCOME>&apos;(2.66425-2.8481]&apos;</OUTCOME>
	<OUTCOME>&apos;(2.8481-inf)&apos;</OUTCOME>
	<PROPERTY>position = (135,90)</PROPERTY>
</VARIABLE>
<VARIABLE TYPE="nature">
	<NAME>F7</NAME>
	<OUTCOME>&apos;(-inf--1.201]&apos;</OUTCOME>
	<OUTCOME>&apos;(-1.201-inf)&apos;</OUTCOME>
	<PROPERTY>position = (180,90)</PROPERTY>
</VARIABLE>
<VARIABLE TYPE="nature">
	<NAME>F8</NAME>
	<OUTCOME>&apos;(-inf--10.3305]&apos;</OUTCOME>
	<OUTCOME>&apos;(-10.3305--10.049]&apos;</OUTCOME>
	<OUTCOME>&apos;(-10.049--9.54195]&apos;</OUTCOME>
	<OUTCOME>&apos;(-9.54195-inf)&apos;</OUTCOME>
	<PROPERTY>position = (225,90)</PROPERTY>
</VARIABLE>
<VARIABLE TYPE="nature">
	<NAME>F9</NAME>
	<OUTCOME>&apos;(-inf--0.68336]&apos;</OUTCOME>
	<OUTCOME>&apos;(-0.68336-0.482105]&apos;</OUTCOME>
	<OUTCOME>&apos;(0.482105-inf)&apos;</OUTCOME>
	<PROPERTY>position = (270,90)</PROPERTY>
</VARIABLE>
<VARIABLE TYPE="nature">
	<NAME>F12</NAME>
	<OUTCOME>&apos;(-inf-2.69]&apos;</OUTCOME>
	<OUTCOME>&apos;(2.69-5.1829]&apos;</OUTCOME>
	<OUTCOME>&apos;(5.1829-inf)&apos;</OUTCOME>
	<PROPERTY>position = (315,90)</PROPERTY>
</VARIABLE>
<VARIABLE TYPE="nature">
	<NAME>F14</NAME>
	<OUTCOME>&apos;(-inf--0.346855]&apos;</OUTCOME>
	<OUTCOME>&apos;(-0.346855-0.33416]&apos;</OUTCOME>
	<OUTCOME>&apos;(0.33416-inf)&apos;</OUTCOME>
	<PROPERTY>position = (360,90)</PROPERTY>
</VARIABLE>
<VARIABLE TYPE="nature">
	<NAME>F15</NAME>
	<OUTCOME>&apos;(-inf--0.764245]&apos;</OUTCOME>
	<OUTCOME>&apos;(-0.764245-inf)&apos;</OUTCOME>
	<PROPERTY>position = (405,90)</PROPERTY>
</VARIABLE>
<VARIABLE TYPE="nature">
	<NAME>F16</NAME>
	<OUTCOME>&apos;(-inf--9.15795]&apos;</OUTCOME>
	<OUTCOME>&apos;(-9.15795--5.9582]&apos;</OUTCOME>
	<OUTCOME>&apos;(-5.9582--4.0595]&apos;</OUTCOME>
	<OUTCOME>&apos;(-4.0595--1.2505]&apos;</OUTCOME>
	<OUTCOME>&apos;(-1.2505-inf)&apos;</OUTCOME>
	<PROPERTY>position = (450,90)</PROPERTY>
</VARIABLE>
<VARIABLE TYPE="nature">
	<NAME>F17</NAME>
	<OUTCOME>&apos;(-inf--19.5745]&apos;</OUTCOME>
	<OUTCOME>&apos;(-19.5745--18.8355]&apos;</OUTCOME>
	<OUTCOME>&apos;(-18.8355--10.652]&apos;</OUTCOME>
	<OUTCOME>&apos;(-10.652-inf)&apos;</OUTCOME>
	<PROPERTY>position = (495,90)</PROPERTY>
</VARIABLE>
<VARIABLE TYPE="nature">
	<NAME>F19</NAME>
	<OUTCOME>&apos;(-inf-0.67165]&apos;</OUTCOME>
	<OUTCOME>&apos;(0.67165-2.2266]&apos;</OUTCOME>
	<OUTCOME>&apos;(2.2266-3.5181]&apos;</OUTCOME>
	<OUTCOME>&apos;(3.5181-inf)&apos;</OUTCOME>
	<PROPERTY>position = (540,90)</PROPERTY>
</VARIABLE>
<VARIABLE TYPE="nature">
	<NAME>F20</NAME>
	<OUTCOME>&apos;(-inf--9.4132]&apos;</OUTCOME>
	<OUTCOME>&apos;(-9.4132--3.40725]&apos;</OUTCOME>
	<OUTCOME>&apos;(-3.40725-2.181695]&apos;</OUTCOME>
	<OUTCOME>&apos;(2.181695-inf)&apos;</OUTCOME>
	<PROPERTY>position = (585,90)</PROPERTY>
</VARIABLE>
<VARIABLE TYPE="nature">
	<NAME>Class</NAME>
	<OUTCOME>1</OUTCOME>
	<OUTCOME>2</OUTCOME>
	<OUTCOME>3</OUTCOME>
	<OUTCOME>4</OUTCOME>
	<OUTCOME>5</OUTCOME>
	<PROPERTY>position = (270,0)</PROPERTY>
</VARIABLE>
<DEFINITION>
<FOR>F1</FOR>
	<GIVEN>Class</GIVEN>
<TABLE>
0.05813953488372093 0.9418604651162791 
0.8636363636363636 0.13636363636363635 
0.8157894736842105 0.18421052631578946 
0.8157894736842105 0.18421052631578946 
0.3541666666666667 0.6458333333333334 
</TABLE>
</DEFINITION>
<DEFINITION>
<FOR>F3</FOR>
	<GIVEN>Class</GIVEN>
<TABLE>
0.034482758620689655 0.9080459770114943 0.05747126436781609 
0.6119402985074627 0.34328358208955223 0.04477611940298507 
0.3333333333333333 0.23076923076923078 0.4358974358974359 
0.02564102564102564 0.28205128205128205 0.6923076923076923 
0.5102040816326531 0.42857142857142855 0.061224489795918366 
</TABLE>
</DEFINITION>
<DEFINITION>
<FOR>F5</FOR>
	<GIVEN>Class</GIVEN>
<TABLE>
0.011363636363636364 0.9659090909090909 0.011363636363636364 0.011363636363636364 
0.014705882352941176 0.04411764705882353 0.9264705882352942 0.014705882352941176 
0.025 0.925 0.025 0.025 
0.075 0.875 0.025 0.025 
0.5 0.1 0.18 0.22 
</TABLE>
</DEFINITION>
<DEFINITION>
<FOR>F6</FOR>
	<GIVEN>Class</GIVEN>
<TABLE>
0.011235955056179775 0.9550561797752809 0.011235955056179775 0.011235955056179775 0.011235955056179775 
0.014492753623188406 0.043478260869565216 0.014492753623188406 0.014492753623188406 0.9130434782608695 
0.024390243902439025 0.5121951219512195 0.4146341463414634 0.024390243902439025 0.024390243902439025 
0.07317073170731707 0.8536585365853658 0.024390243902439025 0.024390243902439025 0.024390243902439025 
0.4117647058823529 0.29411764705882354 0.0196078431372549 0.09803921568627451 0.17647058823529413 
</TABLE>
</DEFINITION>
<DEFINITION>
<FOR>F7</FOR>
	<GIVEN>Class</GIVEN>
<TABLE>
0.011627906976744186 0.9883720930232558 
0.7424242424242424 0.25757575757575757 
0.8157894736842105 0.18421052631578946 
0.8157894736842105 0.18421052631578946 
0.10416666666666667 0.8958333333333334 
</TABLE>
</DEFINITION>
<DEFINITION>
<FOR>F8</FOR>
	<GIVEN>Class</GIVEN>
<TABLE>
0.03409090909090909 0.2159090909090909 0.7159090909090909 0.03409090909090909 
0.39705882352941174 0.04411764705882353 0.22058823529411764 0.3382352941176471 
0.075 0.225 0.425 0.275 
0.025 0.125 0.225 0.625 
0.02 0.74 0.1 0.14 
</TABLE>
</DEFINITION>
<DEFINITION>
<FOR>F9</FOR>
	<GIVEN>Class</GIVEN>
<TABLE>
0.011494252873563218 0.8390804597701149 0.14942528735632185 
0.13432835820895522 0.6119402985074627 0.2537313432835821 
0.28205128205128205 0.48717948717948717 0.23076923076923078 
0.02564102564102564 0.1282051282051282 0.8461538461538461 
0.5102040816326531 0.42857142857142855 0.061224489795918366 
</TABLE>
</DEFINITION>
<DEFINITION>
<FOR>F12</FOR>
	<GIVEN>Class</GIVEN>
<TABLE>
0.05747126436781609 0.9080459770114943 0.034482758620689655 
0.04477611940298507 0.6119402985074627 0.34328358208955223 
0.5384615384615384 0.4358974358974359 0.02564102564102564 
0.5384615384615384 0.38461538461538464 0.07692307692307693 
0.14285714285714285 0.42857142857142855 0.42857142857142855 
</TABLE>
</DEFINITION>
<DEFINITION>
<FOR>F14</FOR>
	<GIVEN>Class</GIVEN>
<TABLE>
0.7241379310344828 0.26436781609195403 0.011494252873563218 
0.014925373134328358 0.9701492537313433 0.014925373134328358 
0.4358974358974359 0.48717948717948717 0.07692307692307693 
0.8461538461538461 0.1282051282051282 0.02564102564102564 
0.14285714285714285 0.46938775510204084 0.3877551020408163 
</TABLE>
</DEFINITION>
<DEFINITION>
<FOR>F15</FOR>
	<GIVEN>Class</GIVEN>
<TABLE>
0.08139534883720931 0.9186046511627907 
0.8636363636363636 0.13636363636363635 
0.02631578947368421 0.9736842105263158 
0.2894736842105263 0.7105263157894737 
0.0625 0.9375 
</TABLE>
</DEFINITION>
<DEFINITION>
<FOR>F16</FOR>
	<GIVEN>Class</GIVEN>
<TABLE>
0.011235955056179775 0.011235955056179775 0.033707865168539325 0.9101123595505618 0.033707865168539325 
0.014492753623188406 0.36231884057971014 0.5072463768115942 0.10144927536231885 0.014492753623188406 
0.024390243902439025 0.3170731707317073 0.07317073170731707 0.5121951219512195 0.07317073170731707 
0.024390243902439025 0.024390243902439025 0.6585365853658537 0.21951219512195122 0.07317073170731707 
0.21568627450980393 0.09803921568627451 0.09803921568627451 0.13725490196078433 0.45098039215686275 
</TABLE>
</DEFINITION>
<DEFINITION>
<FOR>F17</FOR>
	<GIVEN>Class</GIVEN>
<TABLE>
0.011363636363636364 0.011363636363636364 0.9659090909090909 0.011363636363636364 
0.27941176470588236 0.6617647058823529 0.04411764705882353 0.014705882352941176 
0.025 0.025 0.925 0.025 
0.075 0.125 0.725 0.075 
0.38 0.02 0.06 0.54 
</TABLE>
</DEFINITION>
<DEFINITION>
<FOR>F19</FOR>
	<GIVEN>Class</GIVEN>
<TABLE>
0.011363636363636364 0.6931818181818182 0.2840909090909091 0.011363636363636364 
0.04411764705882353 0.014705882352941176 0.22058823529411764 0.7205882352941176 
0.475 0.425 0.075 0.025 
0.575 0.325 0.025 0.075 
0.7 0.06 0.14 0.1 
</TABLE>
</DEFINITION>
<DEFINITION>
<FOR>F20</FOR>
	<GIVEN>Class</GIVEN>
<TABLE>
0.011363636363636364 0.9659090909090909 0.011363636363636364 0.011363636363636364 
0.014705882352941176 0.04411764705882353 0.9264705882352942 0.014705882352941176 
0.125 0.825 0.025 0.025 
0.075 0.875 0.025 0.025 
0.46 0.22 0.02 0.3 
</TABLE>
</DEFINITION>
<DEFINITION>
<FOR>Class</FOR>
<TABLE>
0.31365313653136534 0.23985239852398524 0.13653136531365315 0.13653136531365315 0.17343173431734318 
</TABLE>
</DEFINITION>
</NETWORK>
</BIF>
