<?xml version="1.0"?>
<!-- DTD for the XMLBIF 0.3 format -->
<!DOCTYPE BIF [
	<!ELEMENT BIF ( NETWORK )*>
	      <!ATTLIST BIF VERSION CDATA #REQUIRED>
	<!ELEMENT NETWORK ( NAME, ( PROPERTY | VARIABLE | DEFINITION )* )>
	<!ELEMENT NAME (#PCDATA)>
	<!ELEMENT VARIABLE ( NAME, ( OUTCOME |  PROPERTY )* ) >
	      <!ATTLIST VARIABLE TYPE (nature|decision|utility) "nature">
	<!ELEMENT OUTCOME (#PCDATA)>
	<!ELEMENT DEFINITION ( FOR | GIVEN | TABLE | PROPERTY )* >
	<!ELEMENT FOR (#PCDATA)>
	<!ELEMENT GIVEN (#PCDATA)>
	<!ELEMENT TABLE (#PCDATA)>
	<!ELEMENT PROPERTY (#PCDATA)>
]>


<BIF VERSION="0.3">
<NETWORK>
<NAME>unimib5class-weka.filters.supervised.attribute.Discretize-Rfirst-last-precision6-weka.filters.unsupervised.attribute.Remove-V-R1,3,5-9,12,14-17,19-20,22-weka.filters.unsupervised.attribute.ReplaceMissingValues</NAME>
<VARIABLE TYPE="nature">
	<NAME>F1</NAME>
	<OUTCOME>&apos;(-inf--1.012865]&apos;</OUTCOME>
	<OUTCOME>&apos;(-1.012865-inf)&apos;</OUTCOME>
	<PROPERTY>position = (45,270)</PROPERTY>
</VARIABLE>
<VARIABLE TYPE="nature">
	<NAME>F3</NAME>
	<OUTCOME>&apos;(-inf--0.337975]&apos;</OUTCOME>
	<OUTCOME>&apos;(-0.337975-0.6643]&apos;</OUTCOME>
	<OUTCOME>&apos;(0.6643-inf)&apos;</OUTCOME>
	<PROPERTY>position = (180,270)</PROPERTY>
</VARIABLE>
<VARIABLE TYPE="nature">
	<NAME>F5</NAME>
	<OUTCOME>&apos;(-inf-0.24502]&apos;</OUTCOME>
	<OUTCOME>&apos;(0.24502-3.5167]&apos;</OUTCOME>
	<OUTCOME>&apos;(3.5167-6.5992]&apos;</OUTCOME>
	<OUTCOME>&apos;(6.5992-inf)&apos;</OUTCOME>
	<PROPERTY>position = (405,180)</PROPERTY>
</VARIABLE>
<VARIABLE TYPE="nature">
	<NAME>F6</NAME>
	<OUTCOME>&apos;(-inf-0.42684]&apos;</OUTCOME>
	<OUTCOME>&apos;(0.42684-2.11815]&apos;</OUTCOME>
	<OUTCOME>&apos;(2.11815-2.66425]&apos;</OUTCOME>
	<OUTCOME>&apos;(2.66425-2.8481]&apos;</OUTCOME>
	<OUTCOME>&apos;(2.8481-inf)&apos;</OUTCOME>
	<PROPERTY>position = (270,180)</PROPERTY>
</VARIABLE>
<VARIABLE TYPE="nature">
	<NAME>F7</NAME>
	<OUTCOME>&apos;(-inf--1.201]&apos;</OUTCOME>
	<OUTCOME>&apos;(-1.201-inf)&apos;</OUTCOME>
	<PROPERTY>position = (0,360)</PROPERTY>
</VARIABLE>
<VARIABLE TYPE="nature">
	<NAME>F8</NAME>
	<OUTCOME>&apos;(-inf--10.3305]&apos;</OUTCOME>
	<OUTCOME>&apos;(-10.3305--10.049]&apos;</OUTCOME>
	<OUTCOME>&apos;(-10.049--9.54195]&apos;</OUTCOME>
	<OUTCOME>&apos;(-9.54195-inf)&apos;</OUTCOME>
	<PROPERTY>position = (135,270)</PROPERTY>
</VARIABLE>
<VARIABLE TYPE="nature">
	<NAME>F9</NAME>
	<OUTCOME>&apos;(-inf--0.68336]&apos;</OUTCOME>
	<OUTCOME>&apos;(-0.68336-0.482105]&apos;</OUTCOME>
	<OUTCOME>&apos;(0.482105-inf)&apos;</OUTCOME>
	<PROPERTY>position = (315,360)</PROPERTY>
</VARIABLE>
<VARIABLE TYPE="nature">
	<NAME>F12</NAME>
	<OUTCOME>&apos;(-inf-2.69]&apos;</OUTCOME>
	<OUTCOME>&apos;(2.69-5.1829]&apos;</OUTCOME>
	<OUTCOME>&apos;(5.1829-inf)&apos;</OUTCOME>
	<PROPERTY>position = (540,270)</PROPERTY>
</VARIABLE>
<VARIABLE TYPE="nature">
	<NAME>F14</NAME>
	<OUTCOME>&apos;(-inf--0.346855]&apos;</OUTCOME>
	<OUTCOME>&apos;(-0.346855-0.33416]&apos;</OUTCOME>
	<OUTCOME>&apos;(0.33416-inf)&apos;</OUTCOME>
	<PROPERTY>position = (225,270)</PROPERTY>
</VARIABLE>
<VARIABLE TYPE="nature">
	<NAME>F15</NAME>
	<OUTCOME>&apos;(-inf--0.764245]&apos;</OUTCOME>
	<OUTCOME>&apos;(-0.764245-inf)&apos;</OUTCOME>
	<PROPERTY>position = (540,360)</PROPERTY>
</VARIABLE>
<VARIABLE TYPE="nature">
	<NAME>F16</NAME>
	<OUTCOME>&apos;(-inf--9.15795]&apos;</OUTCOME>
	<OUTCOME>&apos;(-9.15795--5.9582]&apos;</OUTCOME>
	<OUTCOME>&apos;(-5.9582--4.0595]&apos;</OUTCOME>
	<OUTCOME>&apos;(-4.0595--1.2505]&apos;</OUTCOME>
	<OUTCOME>&apos;(-1.2505-inf)&apos;</OUTCOME>
	<PROPERTY>position = (270,90)</PROPERTY>
</VARIABLE>
<VARIABLE TYPE="nature">
	<NAME>F17</NAME>
	<OUTCOME>&apos;(-inf--19.5745]&apos;</OUTCOME>
	<OUTCOME>&apos;(-19.5745--18.8355]&apos;</OUTCOME>
	<OUTCOME>&apos;(-18.8355--10.652]&apos;</OUTCOME>
	<OUTCOME>&apos;(-10.652-inf)&apos;</OUTCOME>
	<PROPERTY>position = (405,270)</PROPERTY>
</VARIABLE>
<VARIABLE TYPE="nature">
	<NAME>F19</NAME>
	<OUTCOME>&apos;(-inf-0.67165]&apos;</OUTCOME>
	<OUTCOME>&apos;(0.67165-2.2266]&apos;</OUTCOME>
	<OUTCOME>&apos;(2.2266-3.5181]&apos;</OUTCOME>
	<OUTCOME>&apos;(3.5181-inf)&apos;</OUTCOME>
	<PROPERTY>position = (360,270)</PROPERTY>
</VARIABLE>
<VARIABLE TYPE="nature">
	<NAME>F20</NAME>
	<OUTCOME>&apos;(-inf--9.4132]&apos;</OUTCOME>
	<OUTCOME>&apos;(-9.4132--3.40725]&apos;</OUTCOME>
	<OUTCOME>&apos;(-3.40725-2.181695]&apos;</OUTCOME>
	<OUTCOME>&apos;(2.181695-inf)&apos;</OUTCOME>
	<PROPERTY>position = (90,180)</PROPERTY>
</VARIABLE>
<VARIABLE TYPE="nature">
	<NAME>Class</NAME>
	<OUTCOME>1</OUTCOME>
	<OUTCOME>2</OUTCOME>
	<OUTCOME>3</OUTCOME>
	<OUTCOME>4</OUTCOME>
	<OUTCOME>5</OUTCOME>
	<PROPERTY>position = (270,0)</PROPERTY>
</VARIABLE>
<DEFINITION>
<FOR>F1</FOR>
	<GIVEN>Class</GIVEN>
	<GIVEN>F20</GIVEN>
<TABLE>
0.5 0.5 
0.05813953488372093 0.9418604651162791 
0.5 0.5 
0.5 0.5 
0.5 0.5 
0.75 0.25 
0.859375 0.140625 
0.5 0.5 
0.16666666666666666 0.8333333333333334 
0.9117647058823529 0.08823529411764706 
0.5 0.5 
0.5 0.5 
0.25 0.75 
0.8611111111111112 0.1388888888888889 
0.5 0.5 
0.5 0.5 
0.041666666666666664 0.9583333333333334 
0.4166666666666667 0.5833333333333334 
0.5 0.5 
0.8125 0.1875 
</TABLE>
</DEFINITION>
<DEFINITION>
<FOR>F3</FOR>
	<GIVEN>Class</GIVEN>
	<GIVEN>F6</GIVEN>
<TABLE>
0.3333333333333333 0.3333333333333333 0.3333333333333333 
0.034482758620689655 0.9080459770114943 0.05747126436781609 
0.3333333333333333 0.3333333333333333 0.3333333333333333 
0.3333333333333333 0.3333333333333333 0.3333333333333333 
0.3333333333333333 0.3333333333333333 0.3333333333333333 
0.3333333333333333 0.3333333333333333 0.3333333333333333 
0.2 0.2 0.6 
0.3333333333333333 0.3333333333333333 0.3333333333333333 
0.3333333333333333 0.3333333333333333 0.3333333333333333 
0.6307692307692307 0.35384615384615387 0.015384615384615385 
0.3333333333333333 0.3333333333333333 0.3333333333333333 
0.5652173913043478 0.391304347826087 0.043478260869565216 
0.05263157894736842 0.05263157894736842 0.8947368421052632 
0.3333333333333333 0.3333333333333333 0.3333333333333333 
0.3333333333333333 0.3333333333333333 0.3333333333333333 
0.2 0.6 0.2 
0.02702702702702703 0.24324324324324326 0.7297297297297297 
0.3333333333333333 0.3333333333333333 0.3333333333333333 
0.3333333333333333 0.3333333333333333 0.3333333333333333 
0.3333333333333333 0.3333333333333333 0.3333333333333333 
0.8260869565217391 0.13043478260869565 0.043478260869565216 
0.4117647058823529 0.5294117647058824 0.058823529411764705 
0.3333333333333333 0.3333333333333333 0.3333333333333333 
0.14285714285714285 0.7142857142857143 0.14285714285714285 
0.09090909090909091 0.6363636363636364 0.2727272727272727 
</TABLE>
</DEFINITION>
<DEFINITION>
<FOR>F5</FOR>
	<GIVEN>Class</GIVEN>
	<GIVEN>F16</GIVEN>
<TABLE>
0.25 0.25 0.25 0.25 
0.25 0.25 0.25 0.25 
0.16666666666666666 0.5 0.16666666666666666 0.16666666666666666 
0.011904761904761904 0.9642857142857143 0.011904761904761904 0.011904761904761904 
0.16666666666666666 0.5 0.16666666666666666 0.16666666666666666 
0.25 0.25 0.25 0.25 
0.03571428571428571 0.03571428571428571 0.8928571428571429 0.03571428571428571 
0.02631578947368421 0.02631578947368421 0.9210526315789473 0.02631578947368421 
0.1 0.3 0.5 0.1 
0.25 0.25 0.25 0.25 
0.25 0.25 0.25 0.25 
0.0625 0.8125 0.0625 0.0625 
0.16666666666666666 0.5 0.16666666666666666 0.16666666666666666 
0.041666666666666664 0.875 0.041666666666666664 0.041666666666666664 
0.16666666666666666 0.5 0.16666666666666666 0.16666666666666666 
0.25 0.25 0.25 0.25 
0.25 0.25 0.25 0.25 
0.03333333333333333 0.9 0.03333333333333333 0.03333333333333333 
0.08333333333333333 0.75 0.08333333333333333 0.08333333333333333 
0.5 0.16666666666666666 0.16666666666666666 0.16666666666666666 
0.07142857142857142 0.07142857142857142 0.07142857142857142 0.7857142857142857 
0.125 0.125 0.625 0.125 
0.125 0.125 0.625 0.125 
0.3 0.5 0.1 0.1 
0.8846153846153846 0.038461538461538464 0.038461538461538464 0.038461538461538464 
</TABLE>
</DEFINITION>
<DEFINITION>
<FOR>F6</FOR>
	<GIVEN>Class</GIVEN>
	<GIVEN>F16</GIVEN>
<TABLE>
0.2 0.2 0.2 0.2 0.2 
0.2 0.2 0.2 0.2 0.2 
0.14285714285714285 0.42857142857142855 0.14285714285714285 0.14285714285714285 0.14285714285714285 
0.011764705882352941 0.9529411764705882 0.011764705882352941 0.011764705882352941 0.011764705882352941 
0.14285714285714285 0.42857142857142855 0.14285714285714285 0.14285714285714285 0.14285714285714285 
0.2 0.2 0.2 0.2 0.2 
0.034482758620689655 0.034482758620689655 0.034482758620689655 0.034482758620689655 0.8620689655172413 
0.02564102564102564 0.02564102564102564 0.02564102564102564 0.02564102564102564 0.8974358974358975 
0.09090909090909091 0.2727272727272727 0.09090909090909091 0.09090909090909091 0.45454545454545453 
0.2 0.2 0.2 0.2 0.2 
0.2 0.2 0.2 0.2 0.2 
0.058823529411764705 0.058823529411764705 0.7647058823529411 0.058823529411764705 0.058823529411764705 
0.14285714285714285 0.42857142857142855 0.14285714285714285 0.14285714285714285 0.14285714285714285 
0.04 0.68 0.2 0.04 0.04 
0.14285714285714285 0.42857142857142855 0.14285714285714285 0.14285714285714285 0.14285714285714285 
0.2 0.2 0.2 0.2 0.2 
0.2 0.2 0.2 0.2 0.2 
0.03225806451612903 0.8709677419354839 0.03225806451612903 0.03225806451612903 0.03225806451612903 
0.07692307692307693 0.6923076923076923 0.07692307692307693 0.07692307692307693 0.07692307692307693 
0.42857142857142855 0.14285714285714285 0.14285714285714285 0.14285714285714285 0.14285714285714285 
0.06666666666666667 0.06666666666666667 0.06666666666666667 0.2 0.6 
0.1111111111111111 0.3333333333333333 0.1111111111111111 0.3333333333333333 0.1111111111111111 
0.1111111111111111 0.5555555555555556 0.1111111111111111 0.1111111111111111 0.1111111111111111 
0.2727272727272727 0.45454545454545453 0.09090909090909091 0.09090909090909091 0.09090909090909091 
0.7037037037037037 0.18518518518518517 0.037037037037037035 0.037037037037037035 0.037037037037037035 
</TABLE>
</DEFINITION>
<DEFINITION>
<FOR>F7</FOR>
	<GIVEN>Class</GIVEN>
	<GIVEN>F1</GIVEN>
<TABLE>
0.16666666666666666 0.8333333333333334 
0.012195121951219513 0.9878048780487805 
0.8103448275862069 0.1896551724137931 
0.3 0.7 
0.96875 0.03125 
0.125 0.875 
0.96875 0.03125 
0.125 0.875 
0.2777777777777778 0.7222222222222222 
0.03125 0.96875 
</TABLE>
</DEFINITION>
<DEFINITION>
<FOR>F8</FOR>
	<GIVEN>Class</GIVEN>
	<GIVEN>F6</GIVEN>
<TABLE>
0.25 0.25 0.25 0.25 
0.03409090909090909 0.2159090909090909 0.7159090909090909 0.03409090909090909 
0.25 0.25 0.25 0.25 
0.25 0.25 0.25 0.25 
0.25 0.25 0.25 0.25 
0.25 0.25 0.25 0.25 
0.16666666666666666 0.16666666666666666 0.5 0.16666666666666666 
0.25 0.25 0.25 0.25 
0.25 0.25 0.25 0.25 
0.4090909090909091 0.045454545454545456 0.19696969696969696 0.3484848484848485 
0.25 0.25 0.25 0.25 
0.125 0.375 0.4583333333333333 0.041666666666666664 
0.05 0.05 0.35 0.55 
0.25 0.25 0.25 0.25 
0.25 0.25 0.25 0.25 
0.16666666666666666 0.5 0.16666666666666666 0.16666666666666666 
0.02631578947368421 0.07894736842105263 0.23684210526315788 0.6578947368421053 
0.25 0.25 0.25 0.25 
0.25 0.25 0.25 0.25 
0.25 0.25 0.25 0.25 
0.041666666666666664 0.875 0.041666666666666664 0.041666666666666664 
0.05555555555555555 0.8333333333333334 0.05555555555555555 0.05555555555555555 
0.25 0.25 0.25 0.25 
0.125 0.375 0.375 0.125 
0.08333333333333333 0.08333333333333333 0.25 0.5833333333333334 
</TABLE>
</DEFINITION>
<DEFINITION>
<FOR>F9</FOR>
	<GIVEN>Class</GIVEN>
	<GIVEN>F3</GIVEN>
<TABLE>
0.2 0.6 0.2 
0.012345679012345678 0.8765432098765432 0.1111111111111111 
0.14285714285714285 0.14285714285714285 0.7142857142857143 
0.20930232558139536 0.7209302325581395 0.06976744186046512 
0.04 0.44 0.52 
0.2 0.2 0.6 
0.6 0.3333333333333333 0.06666666666666667 
0.2727272727272727 0.6363636363636364 0.09090909090909091 
0.05263157894736842 0.47368421052631576 0.47368421052631576 
0.3333333333333333 0.3333333333333333 0.3333333333333333 
0.07692307692307693 0.38461538461538464 0.5384615384615384 
0.034482758620689655 0.034482758620689655 0.9310344827586207 
0.8518518518518519 0.1111111111111111 0.037037037037037035 
0.13043478260869565 0.8260869565217391 0.043478260869565216 
0.2 0.2 0.6 
</TABLE>
</DEFINITION>
<DEFINITION>
<FOR>F12</FOR>
	<GIVEN>Class</GIVEN>
	<GIVEN>F6</GIVEN>
<TABLE>
0.3333333333333333 0.3333333333333333 0.3333333333333333 
0.05747126436781609 0.9080459770114943 0.034482758620689655 
0.3333333333333333 0.3333333333333333 0.3333333333333333 
0.3333333333333333 0.3333333333333333 0.3333333333333333 
0.3333333333333333 0.3333333333333333 0.3333333333333333 
0.3333333333333333 0.3333333333333333 0.3333333333333333 
0.6 0.2 0.2 
0.3333333333333333 0.3333333333333333 0.3333333333333333 
0.3333333333333333 0.3333333333333333 0.3333333333333333 
0.015384615384615385 0.6307692307692307 0.35384615384615387 
0.3333333333333333 0.3333333333333333 0.3333333333333333 
0.391304347826087 0.5652173913043478 0.043478260869565216 
0.6842105263157895 0.2631578947368421 0.05263157894736842 
0.3333333333333333 0.3333333333333333 0.3333333333333333 
0.3333333333333333 0.3333333333333333 0.3333333333333333 
0.2 0.6 0.2 
0.5675675675675675 0.35135135135135137 0.08108108108108109 
0.3333333333333333 0.3333333333333333 0.3333333333333333 
0.3333333333333333 0.3333333333333333 0.3333333333333333 
0.3333333333333333 0.3333333333333333 0.3333333333333333 
0.21739130434782608 0.7391304347826086 0.043478260869565216 
0.17647058823529413 0.29411764705882354 0.5294117647058824 
0.3333333333333333 0.3333333333333333 0.3333333333333333 
0.14285714285714285 0.14285714285714285 0.7142857142857143 
0.09090909090909091 0.09090909090909091 0.8181818181818182 
</TABLE>
</DEFINITION>
<DEFINITION>
<FOR>F14</FOR>
	<GIVEN>Class</GIVEN>
	<GIVEN>F6</GIVEN>
<TABLE>
0.3333333333333333 0.3333333333333333 0.3333333333333333 
0.7241379310344828 0.26436781609195403 0.011494252873563218 
0.3333333333333333 0.3333333333333333 0.3333333333333333 
0.3333333333333333 0.3333333333333333 0.3333333333333333 
0.3333333333333333 0.3333333333333333 0.3333333333333333 
0.3333333333333333 0.3333333333333333 0.3333333333333333 
0.2 0.6 0.2 
0.3333333333333333 0.3333333333333333 0.3333333333333333 
0.3333333333333333 0.3333333333333333 0.3333333333333333 
0.015384615384615385 0.9692307692307692 0.015384615384615385 
0.3333333333333333 0.3333333333333333 0.3333333333333333 
0.6521739130434783 0.21739130434782608 0.13043478260869565 
0.15789473684210525 0.7894736842105263 0.05263157894736842 
0.3333333333333333 0.3333333333333333 0.3333333333333333 
0.3333333333333333 0.3333333333333333 0.3333333333333333 
0.6 0.2 0.2 
0.8378378378378378 0.13513513513513514 0.02702702702702703 
0.3333333333333333 0.3333333333333333 0.3333333333333333 
0.3333333333333333 0.3333333333333333 0.3333333333333333 
0.3333333333333333 0.3333333333333333 0.3333333333333333 
0.043478260869565216 0.5652173913043478 0.391304347826087 
0.4117647058823529 0.058823529411764705 0.5294117647058824 
0.3333333333333333 0.3333333333333333 0.3333333333333333 
0.14285714285714285 0.42857142857142855 0.42857142857142855 
0.09090909090909091 0.8181818181818182 0.09090909090909091 
</TABLE>
</DEFINITION>
<DEFINITION>
<FOR>F15</FOR>
	<GIVEN>Class</GIVEN>
	<GIVEN>F12</GIVEN>
<TABLE>
0.16666666666666666 0.8333333333333334 
0.0625 0.9375 
0.75 0.25 
0.25 0.75 
0.8333333333333334 0.16666666666666666 
0.9583333333333334 0.041666666666666664 
0.045454545454545456 0.9545454545454546 
0.05555555555555555 0.9444444444444444 
0.5 0.5 
0.13636363636363635 0.8636363636363636 
0.4375 0.5625 
0.75 0.25 
0.125 0.875 
0.045454545454545456 0.9545454545454546 
0.13636363636363635 0.8636363636363636 
</TABLE>
</DEFINITION>
<DEFINITION>
<FOR>F16</FOR>
	<GIVEN>Class</GIVEN>
<TABLE>
0.011235955056179775 0.011235955056179775 0.033707865168539325 0.9101123595505618 0.033707865168539325 
0.014492753623188406 0.36231884057971014 0.5072463768115942 0.10144927536231885 0.014492753623188406 
0.024390243902439025 0.3170731707317073 0.07317073170731707 0.5121951219512195 0.07317073170731707 
0.024390243902439025 0.024390243902439025 0.6585365853658537 0.21951219512195122 0.07317073170731707 
0.21568627450980393 0.09803921568627451 0.09803921568627451 0.13725490196078433 0.45098039215686275 
</TABLE>
</DEFINITION>
<DEFINITION>
<FOR>F17</FOR>
	<GIVEN>Class</GIVEN>
	<GIVEN>F5</GIVEN>
<TABLE>
0.25 0.25 0.25 0.25 
0.011363636363636364 0.011363636363636364 0.9659090909090909 0.011363636363636364 
0.25 0.25 0.25 0.25 
0.25 0.25 0.25 0.25 
0.25 0.25 0.25 0.25 
0.16666666666666666 0.16666666666666666 0.5 0.16666666666666666 
0.2878787878787879 0.6818181818181818 0.015151515151515152 0.015151515151515152 
0.25 0.25 0.25 0.25 
0.25 0.25 0.25 0.25 
0.025 0.025 0.925 0.025 
0.25 0.25 0.25 0.25 
0.25 0.25 0.25 0.25 
0.16666666666666666 0.16666666666666666 0.16666666666666666 0.5 
0.07894736842105263 0.13157894736842105 0.7631578947368421 0.02631578947368421 
0.25 0.25 0.25 0.25 
0.25 0.25 0.25 0.25 
0.03571428571428571 0.03571428571428571 0.03571428571428571 0.8928571428571429 
0.125 0.125 0.375 0.375 
0.75 0.08333333333333333 0.08333333333333333 0.08333333333333333 
0.7857142857142857 0.07142857142857142 0.07142857142857142 0.07142857142857142 
</TABLE>
</DEFINITION>
<DEFINITION>
<FOR>F19</FOR>
	<GIVEN>Class</GIVEN>
	<GIVEN>F5</GIVEN>
<TABLE>
0.25 0.25 0.25 0.25 
0.011363636363636364 0.6931818181818182 0.2840909090909091 0.011363636363636364 
0.25 0.25 0.25 0.25 
0.25 0.25 0.25 0.25 
0.25 0.25 0.25 0.25 
0.5 0.16666666666666666 0.16666666666666666 0.16666666666666666 
0.015151515151515152 0.015151515151515152 0.22727272727272727 0.7424242424242424 
0.25 0.25 0.25 0.25 
0.25 0.25 0.25 0.25 
0.475 0.425 0.075 0.025 
0.25 0.25 0.25 0.25 
0.25 0.25 0.25 0.25 
0.5 0.16666666666666666 0.16666666666666666 0.16666666666666666 
0.5526315789473685 0.34210526315789475 0.02631578947368421 0.07894736842105263 
0.25 0.25 0.25 0.25 
0.25 0.25 0.25 0.25 
0.8928571428571429 0.03571428571428571 0.03571428571428571 0.03571428571428571 
0.625 0.125 0.125 0.125 
0.5833333333333334 0.08333333333333333 0.25 0.08333333333333333 
0.07142857142857142 0.21428571428571427 0.35714285714285715 0.35714285714285715 
</TABLE>
</DEFINITION>
<DEFINITION>
<FOR>F20</FOR>
	<GIVEN>Class</GIVEN>
	<GIVEN>F16</GIVEN>
<TABLE>
0.25 0.25 0.25 0.25 
0.25 0.25 0.25 0.25 
0.16666666666666666 0.5 0.16666666666666666 0.16666666666666666 
0.011904761904761904 0.9642857142857143 0.011904761904761904 0.011904761904761904 
0.16666666666666666 0.5 0.16666666666666666 0.16666666666666666 
0.25 0.25 0.25 0.25 
0.03571428571428571 0.03571428571428571 0.8928571428571429 0.03571428571428571 
0.02631578947368421 0.02631578947368421 0.9210526315789473 0.02631578947368421 
0.1 0.3 0.5 0.1 
0.25 0.25 0.25 0.25 
0.25 0.25 0.25 0.25 
0.0625 0.8125 0.0625 0.0625 
0.16666666666666666 0.5 0.16666666666666666 0.16666666666666666 
0.125 0.7916666666666666 0.041666666666666664 0.041666666666666664 
0.5 0.16666666666666666 0.16666666666666666 0.16666666666666666 
0.25 0.25 0.25 0.25 
0.25 0.25 0.25 0.25 
0.03333333333333333 0.9 0.03333333333333333 0.03333333333333333 
0.08333333333333333 0.75 0.08333333333333333 0.08333333333333333 
0.5 0.16666666666666666 0.16666666666666666 0.16666666666666666 
0.07142857142857142 0.07142857142857142 0.07142857142857142 0.7857142857142857 
0.125 0.125 0.125 0.625 
0.125 0.625 0.125 0.125 
0.3 0.5 0.1 0.1 
0.8076923076923077 0.11538461538461539 0.038461538461538464 0.038461538461538464 
</TABLE>
</DEFINITION>
<DEFINITION>
<FOR>Class</FOR>
<TABLE>
0.31365313653136534 0.23985239852398524 0.13653136531365315 0.13653136531365315 0.17343173431734318 
</TABLE>
</DEFINITION>
</NETWORK>
</BIF>
