<?xml version="1.0"?>
<!-- DTD for the XMLBIF 0.3 format -->
<!DOCTYPE BIF [
	<!ELEMENT BIF ( NETWORK )*>
	      <!ATTLIST BIF VERSION CDATA #REQUIRED>
	<!ELEMENT NETWORK ( NAME, ( PROPERTY | VARIABLE | DEFINITION )* )>
	<!ELEMENT NAME (#PCDATA)>
	<!ELEMENT VARIABLE ( NAME, ( OUTCOME |  PROPERTY )* ) >
	      <!ATTLIST VARIABLE TYPE (nature|decision|utility) "nature">
	<!ELEMENT OUTCOME (#PCDATA)>
	<!ELEMENT DEFINITION ( FOR | GIVEN | TABLE | PROPERTY )* >
	<!ELEMENT FOR (#PCDATA)>
	<!ELEMENT GIVEN (#PCDATA)>
	<!ELEMENT TABLE (#PCDATA)>
	<!ELEMENT PROPERTY (#PCDATA)>
]>


<BIF VERSION="0.3">
<NETWORK>
<NAME>R_data_frame-weka.filters.supervised.attribute.Discretize-Rfirst-last-precision6-weka.filters.supervised.attribute.AttributeSelection-Eweka.attributeSelection.CfsSubsetEval -P 1 -E 1-Sweka.attributeSelection.BestFirst -D 1 -N 5-weka.filters.supervised.attribute.AttributeSelection-Eweka.attributeSelection.CfsSubsetEval -P 1 -E 1-Sweka.attributeSelection.BestFirst -D 1 -N 5-weka.filters.supervised.attribute.AttributeSelection-Eweka.attributeSelection.CfsSubsetEval -P 1 -E 1-Sweka.attributeSelection.BestFirst -D 1 -N 5-weka.filters.supervised.attribute.Discretize-Rfirst-last-precision6-weka.filters.unsupervised.attribute.Remove-V-R2,4,8-10,14,19,22-27,36,39,42,44,46-47,49-54,56-weka.filters.unsupervised.attribute.ReplaceMissingValues</NAME>
<VARIABLE TYPE="nature">
	<NAME>V38</NAME>
	<OUTCOME>&apos;(-inf--0.824554]&apos;</OUTCOME>
	<OUTCOME>&apos;(-0.824554--0.691063]&apos;</OUTCOME>
	<OUTCOME>&apos;(-0.691063--0.513034]&apos;</OUTCOME>
	<OUTCOME>&apos;(-0.513034--0.427077]&apos;</OUTCOME>
	<OUTCOME>&apos;(-0.427077--0.287622]&apos;</OUTCOME>
	<OUTCOME>&apos;(-0.287622--0.182017]&apos;</OUTCOME>
	<OUTCOME>&apos;(-0.182017--0.114017]&apos;</OUTCOME>
	<OUTCOME>&apos;(-0.114017-0.015286]&apos;</OUTCOME>
	<OUTCOME>&apos;(0.015286-0.15521]&apos;</OUTCOME>
	<OUTCOME>&apos;(0.15521-0.283915]&apos;</OUTCOME>
	<OUTCOME>&apos;(0.283915-0.471398]&apos;</OUTCOME>
	<OUTCOME>&apos;(0.471398-0.649761]&apos;</OUTCOME>
	<OUTCOME>&apos;(0.649761-inf)&apos;</OUTCOME>
	<PROPERTY>position = (0,90)</PROPERTY>
</VARIABLE>
<VARIABLE TYPE="nature">
	<NAME>V42</NAME>
	<OUTCOME>&apos;(-inf--0.770579]&apos;</OUTCOME>
	<OUTCOME>&apos;(-0.770579--0.555192]&apos;</OUTCOME>
	<OUTCOME>&apos;(-0.555192--0.474201]&apos;</OUTCOME>
	<OUTCOME>&apos;(-0.474201--0.405546]&apos;</OUTCOME>
	<OUTCOME>&apos;(-0.405546--0.397509]&apos;</OUTCOME>
	<OUTCOME>&apos;(-0.397509--0.387955]&apos;</OUTCOME>
	<OUTCOME>&apos;(-0.387955--0.368017]&apos;</OUTCOME>
	<OUTCOME>&apos;(-0.368017--0.307538]&apos;</OUTCOME>
	<OUTCOME>&apos;(-0.307538--0.297782]&apos;</OUTCOME>
	<OUTCOME>&apos;(-0.297782--0.21139]&apos;</OUTCOME>
	<OUTCOME>&apos;(-0.21139--0.197617]&apos;</OUTCOME>
	<OUTCOME>&apos;(-0.197617--0.168935]&apos;</OUTCOME>
	<OUTCOME>&apos;(-0.168935--0.121018]&apos;</OUTCOME>
	<OUTCOME>&apos;(-0.121018--0.09182]&apos;</OUTCOME>
	<OUTCOME>&apos;(-0.09182--0.053422]&apos;</OUTCOME>
	<OUTCOME>&apos;(-0.053422--0.02805]&apos;</OUTCOME>
	<OUTCOME>&apos;(-0.02805--0.011203]&apos;</OUTCOME>
	<OUTCOME>&apos;(-0.011203-0.006552]&apos;</OUTCOME>
	<OUTCOME>&apos;(0.006552-0.059013]&apos;</OUTCOME>
	<OUTCOME>&apos;(0.059013-0.07311]&apos;</OUTCOME>
	<OUTCOME>&apos;(0.07311-0.10758]&apos;</OUTCOME>
	<OUTCOME>&apos;(0.10758-0.174447]&apos;</OUTCOME>
	<OUTCOME>&apos;(0.174447-0.17889]&apos;</OUTCOME>
	<OUTCOME>&apos;(0.17889-0.211205]&apos;</OUTCOME>
	<OUTCOME>&apos;(0.211205-0.345216]&apos;</OUTCOME>
	<OUTCOME>&apos;(0.345216-0.412068]&apos;</OUTCOME>
	<OUTCOME>&apos;(0.412068-0.546852]&apos;</OUTCOME>
	<OUTCOME>&apos;(0.546852-0.603326]&apos;</OUTCOME>
	<OUTCOME>&apos;(0.603326-0.604571]&apos;</OUTCOME>
	<OUTCOME>&apos;(0.604571-inf)&apos;</OUTCOME>
	<PROPERTY>position = (45,90)</PROPERTY>
</VARIABLE>
<VARIABLE TYPE="nature">
	<NAME>V52</NAME>
	<OUTCOME>&apos;(-inf--0.714986]&apos;</OUTCOME>
	<OUTCOME>&apos;(-0.714986--0.468976]&apos;</OUTCOME>
	<OUTCOME>&apos;(-0.468976--0.435209]&apos;</OUTCOME>
	<OUTCOME>&apos;(-0.435209--0.396041]&apos;</OUTCOME>
	<OUTCOME>&apos;(-0.396041--0.325383]&apos;</OUTCOME>
	<OUTCOME>&apos;(-0.325383--0.292793]&apos;</OUTCOME>
	<OUTCOME>&apos;(-0.292793--0.205354]&apos;</OUTCOME>
	<OUTCOME>&apos;(-0.205354--0.166529]&apos;</OUTCOME>
	<OUTCOME>&apos;(-0.166529--0.124452]&apos;</OUTCOME>
	<OUTCOME>&apos;(-0.124452--0.093122]&apos;</OUTCOME>
	<OUTCOME>&apos;(-0.093122--0.044295]&apos;</OUTCOME>
	<OUTCOME>&apos;(-0.044295--0.021805]&apos;</OUTCOME>
	<OUTCOME>&apos;(-0.021805-0.014291]&apos;</OUTCOME>
	<OUTCOME>&apos;(0.014291-0.045581]&apos;</OUTCOME>
	<OUTCOME>&apos;(0.045581-0.103363]&apos;</OUTCOME>
	<OUTCOME>&apos;(0.103363-0.153799]&apos;</OUTCOME>
	<OUTCOME>&apos;(0.153799-0.18726]&apos;</OUTCOME>
	<OUTCOME>&apos;(0.18726-0.199825]&apos;</OUTCOME>
	<OUTCOME>&apos;(0.199825-0.228695]&apos;</OUTCOME>
	<OUTCOME>&apos;(0.228695-0.288116]&apos;</OUTCOME>
	<OUTCOME>&apos;(0.288116-0.300096]&apos;</OUTCOME>
	<OUTCOME>&apos;(0.300096-0.310298]&apos;</OUTCOME>
	<OUTCOME>&apos;(0.310298-0.322007]&apos;</OUTCOME>
	<OUTCOME>&apos;(0.322007-0.325769]&apos;</OUTCOME>
	<OUTCOME>&apos;(0.325769-0.338]&apos;</OUTCOME>
	<OUTCOME>&apos;(0.338-0.34055]&apos;</OUTCOME>
	<OUTCOME>&apos;(0.34055-0.352974]&apos;</OUTCOME>
	<OUTCOME>&apos;(0.352974-0.372471]&apos;</OUTCOME>
	<OUTCOME>&apos;(0.372471-0.394315]&apos;</OUTCOME>
	<OUTCOME>&apos;(0.394315-0.459456]&apos;</OUTCOME>
	<OUTCOME>&apos;(0.459456-0.476577]&apos;</OUTCOME>
	<OUTCOME>&apos;(0.476577-0.555503]&apos;</OUTCOME>
	<OUTCOME>&apos;(0.555503-0.563905]&apos;</OUTCOME>
	<OUTCOME>&apos;(0.563905-0.647226]&apos;</OUTCOME>
	<OUTCOME>&apos;(0.647226-0.718228]&apos;</OUTCOME>
	<OUTCOME>&apos;(0.718228-inf)&apos;</OUTCOME>
	<PROPERTY>position = (90,90)</PROPERTY>
</VARIABLE>
<VARIABLE TYPE="nature">
	<NAME>V53</NAME>
	<OUTCOME>&apos;(-inf-0.096185]&apos;</OUTCOME>
	<OUTCOME>&apos;(0.096185-0.592957]&apos;</OUTCOME>
	<OUTCOME>&apos;(0.592957-0.724492]&apos;</OUTCOME>
	<OUTCOME>&apos;(0.724492-0.775403]&apos;</OUTCOME>
	<OUTCOME>&apos;(0.775403-0.802723]&apos;</OUTCOME>
	<OUTCOME>&apos;(0.802723-0.835869]&apos;</OUTCOME>
	<OUTCOME>&apos;(0.835869-0.876177]&apos;</OUTCOME>
	<OUTCOME>&apos;(0.876177-0.906963]&apos;</OUTCOME>
	<OUTCOME>&apos;(0.906963-0.915164]&apos;</OUTCOME>
	<OUTCOME>&apos;(0.915164-0.950244]&apos;</OUTCOME>
	<OUTCOME>&apos;(0.950244-0.957757]&apos;</OUTCOME>
	<OUTCOME>&apos;(0.957757-0.970552]&apos;</OUTCOME>
	<OUTCOME>&apos;(0.970552-0.978341]&apos;</OUTCOME>
	<OUTCOME>&apos;(0.978341-0.984036]&apos;</OUTCOME>
	<OUTCOME>&apos;(0.984036-inf)&apos;</OUTCOME>
	<PROPERTY>position = (135,90)</PROPERTY>
</VARIABLE>
<VARIABLE TYPE="nature">
	<NAME>V54</NAME>
	<OUTCOME>&apos;(-inf--0.760609]&apos;</OUTCOME>
	<OUTCOME>&apos;(-0.760609--0.529905]&apos;</OUTCOME>
	<OUTCOME>&apos;(-0.529905--0.440644]&apos;</OUTCOME>
	<OUTCOME>&apos;(-0.440644--0.391891]&apos;</OUTCOME>
	<OUTCOME>&apos;(-0.391891--0.373814]&apos;</OUTCOME>
	<OUTCOME>&apos;(-0.373814--0.335047]&apos;</OUTCOME>
	<OUTCOME>&apos;(-0.335047--0.281006]&apos;</OUTCOME>
	<OUTCOME>&apos;(-0.281006--0.235289]&apos;</OUTCOME>
	<OUTCOME>&apos;(-0.235289--0.207452]&apos;</OUTCOME>
	<OUTCOME>&apos;(-0.207452--0.175256]&apos;</OUTCOME>
	<OUTCOME>&apos;(-0.175256--0.145929]&apos;</OUTCOME>
	<OUTCOME>&apos;(-0.145929--0.102826]&apos;</OUTCOME>
	<OUTCOME>&apos;(-0.102826--0.058026]&apos;</OUTCOME>
	<OUTCOME>&apos;(-0.058026--0.030146]&apos;</OUTCOME>
	<OUTCOME>&apos;(-0.030146-0.026302]&apos;</OUTCOME>
	<OUTCOME>&apos;(0.026302-0.111227]&apos;</OUTCOME>
	<OUTCOME>&apos;(0.111227-0.141643]&apos;</OUTCOME>
	<OUTCOME>&apos;(0.141643-0.188938]&apos;</OUTCOME>
	<OUTCOME>&apos;(0.188938-0.196012]&apos;</OUTCOME>
	<OUTCOME>&apos;(0.196012-0.196268]&apos;</OUTCOME>
	<OUTCOME>&apos;(0.196268-0.201854]&apos;</OUTCOME>
	<OUTCOME>&apos;(0.201854-0.228067]&apos;</OUTCOME>
	<OUTCOME>&apos;(0.228067-0.364103]&apos;</OUTCOME>
	<OUTCOME>&apos;(0.364103-0.374449]&apos;</OUTCOME>
	<OUTCOME>&apos;(0.374449-0.429982]&apos;</OUTCOME>
	<OUTCOME>&apos;(0.429982-0.565103]&apos;</OUTCOME>
	<OUTCOME>&apos;(0.565103-0.620528]&apos;</OUTCOME>
	<OUTCOME>&apos;(0.620528-0.621949]&apos;</OUTCOME>
	<OUTCOME>&apos;(0.621949-inf)&apos;</OUTCOME>
	<PROPERTY>position = (180,90)</PROPERTY>
</VARIABLE>
<VARIABLE TYPE="nature">
	<NAME>V70</NAME>
	<OUTCOME>&apos;(-inf--0.822473]&apos;</OUTCOME>
	<OUTCOME>&apos;(-0.822473--0.778387]&apos;</OUTCOME>
	<OUTCOME>&apos;(-0.778387--0.682585]&apos;</OUTCOME>
	<OUTCOME>&apos;(-0.682585--0.584545]&apos;</OUTCOME>
	<OUTCOME>&apos;(-0.584545--0.446836]&apos;</OUTCOME>
	<OUTCOME>&apos;(-0.446836--0.371478]&apos;</OUTCOME>
	<OUTCOME>&apos;(-0.371478--0.241406]&apos;</OUTCOME>
	<OUTCOME>&apos;(-0.241406--0.16063]&apos;</OUTCOME>
	<OUTCOME>&apos;(-0.16063--0.036952]&apos;</OUTCOME>
	<OUTCOME>&apos;(-0.036952-0.225576]&apos;</OUTCOME>
	<OUTCOME>&apos;(0.225576-inf)&apos;</OUTCOME>
	<PROPERTY>position = (225,90)</PROPERTY>
</VARIABLE>
<VARIABLE TYPE="nature">
	<NAME>V80</NAME>
	<OUTCOME>&apos;(-inf--0.99002]&apos;</OUTCOME>
	<OUTCOME>&apos;(-0.99002--0.930246]&apos;</OUTCOME>
	<OUTCOME>&apos;(-0.930246--0.542844]&apos;</OUTCOME>
	<OUTCOME>&apos;(-0.542844-0.566474]&apos;</OUTCOME>
	<OUTCOME>&apos;(0.566474-0.914754]&apos;</OUTCOME>
	<OUTCOME>&apos;(0.914754-0.987418]&apos;</OUTCOME>
	<OUTCOME>&apos;(0.987418-inf)&apos;</OUTCOME>
	<PROPERTY>position = (270,90)</PROPERTY>
</VARIABLE>
<VARIABLE TYPE="nature">
	<NAME>V105</NAME>
	<OUTCOME>&apos;(-inf--0.069858]&apos;</OUTCOME>
	<OUTCOME>&apos;(-0.069858-0.0145]&apos;</OUTCOME>
	<OUTCOME>&apos;(0.0145-0.028745]&apos;</OUTCOME>
	<OUTCOME>&apos;(0.028745-0.128167]&apos;</OUTCOME>
	<OUTCOME>&apos;(0.128167-0.22739]&apos;</OUTCOME>
	<OUTCOME>&apos;(0.22739-0.487538]&apos;</OUTCOME>
	<OUTCOME>&apos;(0.487538-0.561432]&apos;</OUTCOME>
	<OUTCOME>&apos;(0.561432-0.732523]&apos;</OUTCOME>
	<OUTCOME>&apos;(0.732523-0.830865]&apos;</OUTCOME>
	<OUTCOME>&apos;(0.830865-inf)&apos;</OUTCOME>
	<PROPERTY>position = (315,90)</PROPERTY>
</VARIABLE>
<VARIABLE TYPE="nature">
	<NAME>V108</NAME>
	<OUTCOME>&apos;(-inf--0.251476]&apos;</OUTCOME>
	<OUTCOME>&apos;(-0.251476--0.11394]&apos;</OUTCOME>
	<OUTCOME>&apos;(-0.11394--0.001435]&apos;</OUTCOME>
	<OUTCOME>&apos;(-0.001435-0.108663]&apos;</OUTCOME>
	<OUTCOME>&apos;(0.108663-0.280502]&apos;</OUTCOME>
	<OUTCOME>&apos;(0.280502-0.419026]&apos;</OUTCOME>
	<OUTCOME>&apos;(0.419026-inf)&apos;</OUTCOME>
	<PROPERTY>position = (360,90)</PROPERTY>
</VARIABLE>
<VARIABLE TYPE="nature">
	<NAME>V121</NAME>
	<OUTCOME>&apos;(-inf--0.468524]&apos;</OUTCOME>
	<OUTCOME>&apos;(-0.468524--0.2842]&apos;</OUTCOME>
	<OUTCOME>&apos;(-0.2842--0.129685]&apos;</OUTCOME>
	<OUTCOME>&apos;(-0.129685--0.084545]&apos;</OUTCOME>
	<OUTCOME>&apos;(-0.084545--0.05211]&apos;</OUTCOME>
	<OUTCOME>&apos;(-0.05211--0.040274]&apos;</OUTCOME>
	<OUTCOME>&apos;(-0.040274--0.030297]&apos;</OUTCOME>
	<OUTCOME>&apos;(-0.030297--0.025446]&apos;</OUTCOME>
	<OUTCOME>&apos;(-0.025446--0.019981]&apos;</OUTCOME>
	<OUTCOME>&apos;(-0.019981--0.010715]&apos;</OUTCOME>
	<OUTCOME>&apos;(-0.010715-0.001687]&apos;</OUTCOME>
	<OUTCOME>&apos;(0.001687-0.067715]&apos;</OUTCOME>
	<OUTCOME>&apos;(0.067715-0.243678]&apos;</OUTCOME>
	<OUTCOME>&apos;(0.243678-0.530849]&apos;</OUTCOME>
	<OUTCOME>&apos;(0.530849-inf)&apos;</OUTCOME>
	<PROPERTY>position = (405,90)</PROPERTY>
</VARIABLE>
<VARIABLE TYPE="nature">
	<NAME>V158</NAME>
	<OUTCOME>&apos;(-inf--0.820039]&apos;</OUTCOME>
	<OUTCOME>&apos;(-0.820039--0.607864]&apos;</OUTCOME>
	<OUTCOME>&apos;(-0.607864--0.40478]&apos;</OUTCOME>
	<OUTCOME>&apos;(-0.40478-0.171113]&apos;</OUTCOME>
	<OUTCOME>&apos;(0.171113-0.425406]&apos;</OUTCOME>
	<OUTCOME>&apos;(0.425406-0.576623]&apos;</OUTCOME>
	<OUTCOME>&apos;(0.576623-0.836248]&apos;</OUTCOME>
	<OUTCOME>&apos;(0.836248-inf)&apos;</OUTCOME>
	<PROPERTY>position = (450,90)</PROPERTY>
</VARIABLE>
<VARIABLE TYPE="nature">
	<NAME>V159</NAME>
	<OUTCOME>&apos;(-inf--0.842023]&apos;</OUTCOME>
	<OUTCOME>&apos;(-0.842023--0.670343]&apos;</OUTCOME>
	<OUTCOME>&apos;(-0.670343--0.336008]&apos;</OUTCOME>
	<OUTCOME>&apos;(-0.336008--0.186046]&apos;</OUTCOME>
	<OUTCOME>&apos;(-0.186046-0.272023]&apos;</OUTCOME>
	<OUTCOME>&apos;(0.272023-0.468688]&apos;</OUTCOME>
	<OUTCOME>&apos;(0.468688-0.683871]&apos;</OUTCOME>
	<OUTCOME>&apos;(0.683871-inf)&apos;</OUTCOME>
	<PROPERTY>position = (495,90)</PROPERTY>
</VARIABLE>
<VARIABLE TYPE="nature">
	<NAME>V160</NAME>
	<OUTCOME>&apos;(-inf--0.666366]&apos;</OUTCOME>
	<OUTCOME>&apos;(-0.666366--0.569249]&apos;</OUTCOME>
	<OUTCOME>&apos;(-0.569249--0.457379]&apos;</OUTCOME>
	<OUTCOME>&apos;(-0.457379--0.349079]&apos;</OUTCOME>
	<OUTCOME>&apos;(-0.349079--0.165187]&apos;</OUTCOME>
	<OUTCOME>&apos;(-0.165187-0.09762]&apos;</OUTCOME>
	<OUTCOME>&apos;(0.09762-0.278968]&apos;</OUTCOME>
	<OUTCOME>&apos;(0.278968-0.674588]&apos;</OUTCOME>
	<OUTCOME>&apos;(0.674588-0.797172]&apos;</OUTCOME>
	<OUTCOME>&apos;(0.797172-inf)&apos;</OUTCOME>
	<PROPERTY>position = (540,90)</PROPERTY>
</VARIABLE>
<VARIABLE TYPE="nature">
	<NAME>V303</NAME>
	<OUTCOME>&apos;(-inf--0.999985]&apos;</OUTCOME>
	<OUTCOME>&apos;(-0.999985--0.999904]&apos;</OUTCOME>
	<OUTCOME>&apos;(-0.999904--0.999484]&apos;</OUTCOME>
	<OUTCOME>&apos;(-0.999484--0.979572]&apos;</OUTCOME>
	<OUTCOME>&apos;(-0.979572--0.944334]&apos;</OUTCOME>
	<OUTCOME>&apos;(-0.944334--0.897812]&apos;</OUTCOME>
	<OUTCOME>&apos;(-0.897812--0.800669]&apos;</OUTCOME>
	<OUTCOME>&apos;(-0.800669--0.716584]&apos;</OUTCOME>
	<OUTCOME>&apos;(-0.716584--0.62823]&apos;</OUTCOME>
	<OUTCOME>&apos;(-0.62823--0.486602]&apos;</OUTCOME>
	<OUTCOME>&apos;(-0.486602--0.364068]&apos;</OUTCOME>
	<OUTCOME>&apos;(-0.364068--0.222995]&apos;</OUTCOME>
	<OUTCOME>&apos;(-0.222995-inf)&apos;</OUTCOME>
	<PROPERTY>position = (585,90)</PROPERTY>
</VARIABLE>
<VARIABLE TYPE="nature">
	<NAME>V370</NAME>
	<OUTCOME>&apos;(-inf--0.94]&apos;</OUTCOME>
	<OUTCOME>&apos;(-0.94--0.9]&apos;</OUTCOME>
	<OUTCOME>&apos;(-0.9--0.86]&apos;</OUTCOME>
	<OUTCOME>&apos;(-0.86--0.82]&apos;</OUTCOME>
	<OUTCOME>&apos;(-0.82--0.78]&apos;</OUTCOME>
	<OUTCOME>&apos;(-0.78--0.74]&apos;</OUTCOME>
	<OUTCOME>&apos;(-0.74--0.66]&apos;</OUTCOME>
	<OUTCOME>&apos;(-0.66--0.62]&apos;</OUTCOME>
	<OUTCOME>&apos;(-0.62--0.54]&apos;</OUTCOME>
	<OUTCOME>&apos;(-0.54--0.5]&apos;</OUTCOME>
	<OUTCOME>&apos;(-0.5--0.46]&apos;</OUTCOME>
	<OUTCOME>&apos;(-0.46--0.22]&apos;</OUTCOME>
	<OUTCOME>&apos;(-0.22--0.1]&apos;</OUTCOME>
	<OUTCOME>&apos;(-0.1-0.06]&apos;</OUTCOME>
	<OUTCOME>&apos;(0.06-inf)&apos;</OUTCOME>
	<PROPERTY>position = (630,90)</PROPERTY>
</VARIABLE>
<VARIABLE TYPE="nature">
	<NAME>V412</NAME>
	<OUTCOME>&apos;(-inf--0.996699]&apos;</OUTCOME>
	<OUTCOME>&apos;(-0.996699--0.992717]&apos;</OUTCOME>
	<OUTCOME>&apos;(-0.992717--0.98824]&apos;</OUTCOME>
	<OUTCOME>&apos;(-0.98824--0.978641]&apos;</OUTCOME>
	<OUTCOME>&apos;(-0.978641--0.936546]&apos;</OUTCOME>
	<OUTCOME>&apos;(-0.936546--0.910638]&apos;</OUTCOME>
	<OUTCOME>&apos;(-0.910638--0.844297]&apos;</OUTCOME>
	<OUTCOME>&apos;(-0.844297--0.719001]&apos;</OUTCOME>
	<OUTCOME>&apos;(-0.719001-inf)&apos;</OUTCOME>
	<PROPERTY>position = (675,90)</PROPERTY>
</VARIABLE>
<VARIABLE TYPE="nature">
	<NAME>V449</NAME>
	<OUTCOME>&apos;(-inf--0.966666]&apos;</OUTCOME>
	<OUTCOME>&apos;(-0.966666--0.9]&apos;</OUTCOME>
	<OUTCOME>&apos;(-0.9--0.833333]&apos;</OUTCOME>
	<OUTCOME>&apos;(-0.833333--0.766667]&apos;</OUTCOME>
	<OUTCOME>&apos;(-0.766667--0.7]&apos;</OUTCOME>
	<OUTCOME>&apos;(-0.7--0.633333]&apos;</OUTCOME>
	<OUTCOME>&apos;(-0.633333--0.566666]&apos;</OUTCOME>
	<OUTCOME>&apos;(-0.566666--0.366667]&apos;</OUTCOME>
	<OUTCOME>&apos;(-0.366667--0.233333]&apos;</OUTCOME>
	<OUTCOME>&apos;(-0.233333-inf)&apos;</OUTCOME>
	<PROPERTY>position = (720,90)</PROPERTY>
</VARIABLE>
<VARIABLE TYPE="nature">
	<NAME>V451</NAME>
	<OUTCOME>&apos;(-inf--0.965517]&apos;</OUTCOME>
	<OUTCOME>&apos;(-0.965517--0.896551]&apos;</OUTCOME>
	<OUTCOME>&apos;(-0.896551--0.827586]&apos;</OUTCOME>
	<OUTCOME>&apos;(-0.827586--0.75862]&apos;</OUTCOME>
	<OUTCOME>&apos;(-0.75862--0.689655]&apos;</OUTCOME>
	<OUTCOME>&apos;(-0.689655--0.62069]&apos;</OUTCOME>
	<OUTCOME>&apos;(-0.62069--0.551724]&apos;</OUTCOME>
	<OUTCOME>&apos;(-0.551724--0.482758]&apos;</OUTCOME>
	<OUTCOME>&apos;(-0.482758--0.206897]&apos;</OUTCOME>
	<OUTCOME>&apos;(-0.206897-inf)&apos;</OUTCOME>
	<PROPERTY>position = (765,90)</PROPERTY>
</VARIABLE>
<VARIABLE TYPE="nature">
	<NAME>V452</NAME>
	<OUTCOME>&apos;(-inf--0.534893]&apos;</OUTCOME>
	<OUTCOME>&apos;(-0.534893--0.390331]&apos;</OUTCOME>
	<OUTCOME>&apos;(-0.390331--0.256123]&apos;</OUTCOME>
	<OUTCOME>&apos;(-0.256123--0.091788]&apos;</OUTCOME>
	<OUTCOME>&apos;(-0.091788-0.152538]&apos;</OUTCOME>
	<OUTCOME>&apos;(0.152538-0.329371]&apos;</OUTCOME>
	<OUTCOME>&apos;(0.329371-inf)&apos;</OUTCOME>
	<PROPERTY>position = (810,90)</PROPERTY>
</VARIABLE>
<VARIABLE TYPE="nature">
	<NAME>V505</NAME>
	<OUTCOME>&apos;(-inf--0.993097]&apos;</OUTCOME>
	<OUTCOME>&apos;(-0.993097--0.983678]&apos;</OUTCOME>
	<OUTCOME>&apos;(-0.983678--0.952534]&apos;</OUTCOME>
	<OUTCOME>&apos;(-0.952534--0.696124]&apos;</OUTCOME>
	<OUTCOME>&apos;(-0.696124--0.649411]&apos;</OUTCOME>
	<OUTCOME>&apos;(-0.649411--0.522005]&apos;</OUTCOME>
	<OUTCOME>&apos;(-0.522005--0.413836]&apos;</OUTCOME>
	<OUTCOME>&apos;(-0.413836--0.166047]&apos;</OUTCOME>
	<OUTCOME>&apos;(-0.166047--0.085113]&apos;</OUTCOME>
	<OUTCOME>&apos;(-0.085113-0.01998]&apos;</OUTCOME>
	<OUTCOME>&apos;(0.01998-0.112411]&apos;</OUTCOME>
	<OUTCOME>&apos;(0.112411-0.220837]&apos;</OUTCOME>
	<OUTCOME>&apos;(0.220837-inf)&apos;</OUTCOME>
	<PROPERTY>position = (855,90)</PROPERTY>
</VARIABLE>
<VARIABLE TYPE="nature">
	<NAME>V519</NAME>
	<OUTCOME>&apos;(-inf--0.976518]&apos;</OUTCOME>
	<OUTCOME>&apos;(-0.976518--0.865861]&apos;</OUTCOME>
	<OUTCOME>&apos;(-0.865861--0.788472]&apos;</OUTCOME>
	<OUTCOME>&apos;(-0.788472--0.71542]&apos;</OUTCOME>
	<OUTCOME>&apos;(-0.71542--0.586639]&apos;</OUTCOME>
	<OUTCOME>&apos;(-0.586639--0.487625]&apos;</OUTCOME>
	<OUTCOME>&apos;(-0.487625--0.385736]&apos;</OUTCOME>
	<OUTCOME>&apos;(-0.385736--0.304021]&apos;</OUTCOME>
	<OUTCOME>&apos;(-0.304021--0.135854]&apos;</OUTCOME>
	<OUTCOME>&apos;(-0.135854-0.414386]&apos;</OUTCOME>
	<OUTCOME>&apos;(0.414386-inf)&apos;</OUTCOME>
	<PROPERTY>position = (900,90)</PROPERTY>
</VARIABLE>
<VARIABLE TYPE="nature">
	<NAME>V538</NAME>
	<OUTCOME>&apos;(-inf--0.974359]&apos;</OUTCOME>
	<OUTCOME>&apos;(-0.974359--0.871795]&apos;</OUTCOME>
	<OUTCOME>&apos;(-0.871795--0.820513]&apos;</OUTCOME>
	<OUTCOME>&apos;(-0.820513--0.769231]&apos;</OUTCOME>
	<OUTCOME>&apos;(-0.769231--0.666667]&apos;</OUTCOME>
	<OUTCOME>&apos;(-0.666667--0.615385]&apos;</OUTCOME>
	<OUTCOME>&apos;(-0.615385--0.25641]&apos;</OUTCOME>
	<OUTCOME>&apos;(-0.25641-inf)&apos;</OUTCOME>
	<PROPERTY>position = (945,90)</PROPERTY>
</VARIABLE>
<VARIABLE TYPE="nature">
	<NAME>V557</NAME>
	<OUTCOME>&apos;(-inf--0.912737]&apos;</OUTCOME>
	<OUTCOME>&apos;(-0.912737--0.767303]&apos;</OUTCOME>
	<OUTCOME>&apos;(-0.767303--0.695176]&apos;</OUTCOME>
	<OUTCOME>&apos;(-0.695176--0.561594]&apos;</OUTCOME>
	<OUTCOME>&apos;(-0.561594--0.436628]&apos;</OUTCOME>
	<OUTCOME>&apos;(-0.436628-0.261573]&apos;</OUTCOME>
	<OUTCOME>&apos;(0.261573-0.56223]&apos;</OUTCOME>
	<OUTCOME>&apos;(0.56223-0.732136]&apos;</OUTCOME>
	<OUTCOME>&apos;(0.732136-0.868185]&apos;</OUTCOME>
	<OUTCOME>&apos;(0.868185-0.921978]&apos;</OUTCOME>
	<OUTCOME>&apos;(0.921978-inf)&apos;</OUTCOME>
	<PROPERTY>position = (990,90)</PROPERTY>
</VARIABLE>
<VARIABLE TYPE="nature">
	<NAME>V558</NAME>
	<OUTCOME>&apos;(-inf--0.588847]&apos;</OUTCOME>
	<OUTCOME>&apos;(-0.588847--0.319955]&apos;</OUTCOME>
	<OUTCOME>&apos;(-0.319955-0.397201]&apos;</OUTCOME>
	<OUTCOME>&apos;(0.397201-0.582204]&apos;</OUTCOME>
	<OUTCOME>&apos;(0.582204-inf)&apos;</OUTCOME>
	<PROPERTY>position = (1035,90)</PROPERTY>
</VARIABLE>
<VARIABLE TYPE="nature">
	<NAME>V559</NAME>
	<OUTCOME>&apos;(-inf--0.983011]&apos;</OUTCOME>
	<OUTCOME>&apos;(-0.983011--0.921426]&apos;</OUTCOME>
	<OUTCOME>&apos;(-0.921426--0.900246]&apos;</OUTCOME>
	<OUTCOME>&apos;(-0.900246--0.870258]&apos;</OUTCOME>
	<OUTCOME>&apos;(-0.870258--0.845636]&apos;</OUTCOME>
	<OUTCOME>&apos;(-0.845636--0.83465]&apos;</OUTCOME>
	<OUTCOME>&apos;(-0.83465--0.81172]&apos;</OUTCOME>
	<OUTCOME>&apos;(-0.81172--0.789106]&apos;</OUTCOME>
	<OUTCOME>&apos;(-0.789106--0.770513]&apos;</OUTCOME>
	<OUTCOME>&apos;(-0.770513--0.751937]&apos;</OUTCOME>
	<OUTCOME>&apos;(-0.751937--0.635966]&apos;</OUTCOME>
	<OUTCOME>&apos;(-0.635966--0.612389]&apos;</OUTCOME>
	<OUTCOME>&apos;(-0.612389--0.561671]&apos;</OUTCOME>
	<OUTCOME>&apos;(-0.561671--0.45801]&apos;</OUTCOME>
	<OUTCOME>&apos;(-0.45801--0.446169]&apos;</OUTCOME>
	<OUTCOME>&apos;(-0.446169--0.378555]&apos;</OUTCOME>
	<OUTCOME>&apos;(-0.378555--0.243885]&apos;</OUTCOME>
	<OUTCOME>&apos;(-0.243885-0.136399]&apos;</OUTCOME>
	<OUTCOME>&apos;(0.136399-inf)&apos;</OUTCOME>
	<PROPERTY>position = (1080,90)</PROPERTY>
</VARIABLE>
<VARIABLE TYPE="nature">
	<NAME>Class</NAME>
	<OUTCOME>1</OUTCOME>
	<OUTCOME>2</OUTCOME>
	<OUTCOME>3</OUTCOME>
	<OUTCOME>4</OUTCOME>
	<OUTCOME>5</OUTCOME>
	<OUTCOME>6</OUTCOME>
	<PROPERTY>position = (540,0)</PROPERTY>
</VARIABLE>
<DEFINITION>
<FOR>V38</FOR>
	<GIVEN>Class</GIVEN>
<TABLE>
2.892681515765114E-4 2.892681515765114E-4 8.678044547295343E-4 0.01822389354932022 0.11368238356956899 0.19525600231414522 0.1946774660109922 0.27104425802719123 0.14550188024298524 0.05409314434480764 0.0054960948799537175 2.892681515765114E-4 2.892681515765114E-4 
3.224766204450177E-4 0.0016123831022250886 0.10029022895840052 0.14479200257981295 0.3047404063205418 0.2292808771364076 0.09255079006772009 0.07384714608190907 0.03257013866494679 0.015156401160915834 0.00419219606578523 3.224766204450177E-4 3.224766204450177E-4 
0.0010619469026548673 0.07469026548672567 0.2686725663716814 0.21699115044247788 0.24106194690265487 0.10088495575221239 0.03150442477876106 0.0215929203539823 0.008141592920353982 0.014513274336283187 0.018761061946902656 0.0017699115044247787 3.5398230088495576E-4 
0.04569666386319036 0.05242500700869078 0.08270255116344268 0.05803195962994113 0.1438183347350715 0.1376506868516961 0.08887019904681806 0.11970843846369499 0.11802635267731988 0.058592654892066165 0.058592654892066165 0.020465377067563777 0.015419119708438464 
0.00130718954248366 0.0049673202614379085 0.012287581699346406 0.02065359477124183 0.0677124183006536 0.07660130718954249 0.06562091503267974 0.1649673202614379 0.17437908496732027 0.15294117647058825 0.1419607843137255 0.0677124183006536 0.04888888888888889 
0.026403486285567802 0.020763906690592155 0.035631889259164315 0.02896693155601128 0.07459625736990515 0.09971802102025122 0.05767751858497821 0.12022558318379903 0.12894129710330685 0.08536272750576775 0.10484491156113818 0.0797231479107921 0.13714432196872597 
</TABLE>
</DEFINITION>
<DEFINITION>
<FOR>V42</FOR>
	<GIVEN>Class</GIVEN>
<TABLE>
2.878526194588371E-4 2.878526194588371E-4 2.878526194588371E-4 2.878526194588371E-4 2.878526194588371E-4 8.635578583765112E-4 0.026194588370754175 0.08491652274035694 0.026194588370754175 0.3554979850316638 0.03195164075993091 0.0613126079447323 0.2299942429476108 0.06822107081174439 0.0590097869890616 0.006044905008635579 2.878526194588371E-4 2.878526194588371E-4 0.029648819804260217 8.635578583765112E-4 0.01468048359240069 2.878526194588371E-4 2.878526194588371E-4 2.878526194588371E-4 2.878526194588371E-4 2.878526194588371E-4 2.878526194588371E-4 2.878526194588371E-4 2.878526194588371E-4 2.878526194588371E-4 
3.2071840923669016E-4 3.2071840923669016E-4 0.030468248877485567 0.07280307889672867 0.01571520205259782 0.027902501603592048 0.039448364336112894 0.26972418216805644 0.04073123797305965 0.3287363694676074 0.05099422706863374 0.039448364336112894 0.029185375240538807 0.0022450288646568314 0.001603592046183451 3.2071840923669016E-4 3.2071840923669016E-4 3.2071840923669016E-4 0.0028864656831302116 0.004810776138550353 0.008017960230917255 0.026619627966645285 9.621552277100705E-4 0.004169339320076972 3.2071840923669016E-4 3.2071840923669016E-4 3.2071840923669016E-4 3.2071840923669016E-4 3.2071840923669016E-4 3.2071840923669016E-4 
3.518648838845883E-4 3.518648838845883E-4 3.518648838845883E-4 3.518648838845883E-4 0.001055594651653765 3.518648838845883E-4 0.005981703026038001 0.059465165376495425 0.006685432793807178 0.27621393384940185 0.08691062631949331 0.08691062631949331 0.1382828993666432 0.11294862772695285 0.12491203377902885 0.027093596059113302 0.015130190007037298 0.01935256861365236 0.015130190007037298 0.0031667839549612948 0.015833919774806474 3.518648838845883E-4 3.518648838845883E-4 3.518648838845883E-4 3.518648838845883E-4 3.518648838845883E-4 3.518648838845883E-4 3.518648838845883E-4 3.518648838845883E-4 3.518648838845883E-4 
2.7901785714285713E-4 0.009207589285714286 8.370535714285714E-4 0.0025111607142857145 2.7901785714285713E-4 2.7901785714285713E-4 2.7901785714285713E-4 0.0025111607142857145 0.006417410714285714 0.012555803571428572 0.001953125 0.0013950892857142857 0.04603794642857143 0.021484375 0.06501116071428571 0.08621651785714286 0.034877232142857144 0.04436383928571429 0.103515625 0.033203125 0.09626116071428571 0.08565848214285714 0.024274553571428572 0.027622767857142856 0.16713169642857142 0.04380580357142857 0.072265625 0.005301339285714286 0.004185267857142857 2.7901785714285713E-4 
2.602811035918792E-4 2.602811035918792E-4 0.0018219677251431546 0.024726704841228526 0.005465903175429464 2.602811035918792E-4 0.007027589796980739 0.0965642894325872 0.005986465382613222 0.22982821447162935 0.055960437272254034 0.1730869338885997 0.15122332118688184 0.07470067673086934 0.048672566371681415 0.019000520562207183 0.035658511192087454 0.010671525247267048 0.025767829255596043 0.01691827173347215 0.006507027589796981 0.004424778761061947 7.808433107756377E-4 0.0028630921395106715 2.602811035918792E-4 2.602811035918792E-4 2.602811035918792E-4 2.602811035918792E-4 2.602811035918792E-4 2.602811035918792E-4 
0.01403777437468096 2.5523226135783564E-4 0.002297090352220521 0.03598774885145482 2.5523226135783564E-4 2.5523226135783564E-4 0.004338948443083206 0.001276161306789178 2.5523226135783564E-4 0.0017866258295048494 2.5523226135783564E-4 0.009443593670239918 2.5523226135783564E-4 2.5523226135783564E-4 0.002297090352220521 0.002297090352220521 2.5523226135783564E-4 2.5523226135783564E-4 0.001276161306789178 7.656967840735069E-4 2.5523226135783564E-4 0.0017866258295048494 2.5523226135783564E-4 0.01761102603369066 0.020163348647269014 0.028841245533435426 0.15441551812149057 0.0737621235324145 0.0038284839203675345 0.6209800918836141 
</TABLE>
</DEFINITION>
<DEFINITION>
<FOR>V52</FOR>
	<GIVEN>Class</GIVEN>
<TABLE>
2.8735632183908046E-4 2.8735632183908046E-4 0.01695402298850575 2.8735632183908046E-4 0.03879310344827586 0.009482758620689655 0.11637931034482758 0.039942528735632185 0.10833333333333334 0.06752873563218391 0.034195402298850576 0.09166666666666666 0.06637931034482758 0.11752873563218391 0.15201149425287355 0.09224137931034483 0.021551724137931036 2.8735632183908046E-4 2.8735632183908046E-4 2.8735632183908046E-4 0.014080459770114942 0.005459770114942529 2.8735632183908046E-4 2.8735632183908046E-4 8.620689655172414E-4 2.8735632183908046E-4 2.8735632183908046E-4 2.8735632183908046E-4 0.0014367816091954023 2.8735632183908046E-4 2.8735632183908046E-4 2.8735632183908046E-4 2.8735632183908046E-4 2.8735632183908046E-4 2.8735632183908046E-4 2.8735632183908046E-4 
3.201024327784891E-4 0.04449423815620999 0.011843790012804098 0.03745198463508323 0.10339308578745199 0.06049935979513444 0.10467349551856595 0.045134443021766966 0.0675416133162612 0.019526248399487835 0.03745198463508323 0.04001280409731114 0.14052496798975672 0.08290653008962869 0.10723431498079386 0.035531370038412294 0.02528809218950064 0.0035211267605633804 0.015044814340588988 0.01056338028169014 9.603072983354673E-4 3.201024327784891E-4 3.201024327784891E-4 3.201024327784891E-4 9.603072983354673E-4 3.201024327784891E-4 3.201024327784891E-4 3.201024327784891E-4 9.603072983354673E-4 3.201024327784891E-4 3.201024327784891E-4 3.201024327784891E-4 3.201024327784891E-4 3.201024327784891E-4 3.201024327784891E-4 3.201024327784891E-4 
3.5112359550561797E-4 3.5112359550561797E-4 3.5112359550561797E-4 0.017907303370786515 0.016502808988764044 0.029845505617977528 0.06425561797752809 0.11271067415730338 0.06425561797752809 0.0488061797752809 0.09164325842696629 0.03195224719101124 0.11341292134831461 0.08813202247191011 0.10287921348314606 0.12324438202247191 0.06285112359550561 0.0017556179775280898 0.0017556179775280898 3.5112359550561797E-4 3.5112359550561797E-4 3.5112359550561797E-4 0.0059691011235955055 0.0038623595505617976 0.008075842696629214 0.0031601123595505617 3.5112359550561797E-4 0.0017556179775280898 3.5112359550561797E-4 3.5112359550561797E-4 3.5112359550561797E-4 3.5112359550561797E-4 3.5112359550561797E-4 3.5112359550561797E-4 3.5112359550561797E-4 3.5112359550561797E-4 
2.785515320334262E-4 2.785515320334262E-4 2.785515320334262E-4 0.0036211699164345403 0.011420612813370474 0.0019498607242339832 0.02200557103064067 0.0036211699164345403 0.0298050139275766 0.03871866295264624 0.07103064066852367 0.01977715877437326 0.04818941504178273 0.0403899721448468 0.11727019498607243 0.05487465181058496 0.05041782729805014 0.04428969359331476 0.0532033426183844 0.14846796657381617 0.014206128133704735 0.011977715877437326 0.02701949860724234 0.001392757660167131 0.023119777158774373 2.785515320334262E-4 0.011420612813370474 0.015877437325905294 0.03147632311977716 0.03816155988857939 0.016434540389972146 0.01309192200557103 0.009192200557103064 0.004178272980501393 0.02200557103064067 2.785515320334262E-4 
2.598752598752599E-4 2.598752598752599E-4 0.002338877338877339 0.009615384615384616 0.028846153846153848 2.598752598752599E-4 0.09485446985446985 0.057432432432432436 0.032484407484407486 0.04287941787941788 0.07458419958419958 0.05171517671517672 0.10213097713097713 0.0725051975051975 0.21803534303534303 0.11928274428274428 0.038721413721413724 0.005457380457380458 0.014293139293139294 0.009095634095634096 0.0018191268191268192 0.007536382536382537 0.0033783783783783786 2.598752598752599E-4 2.598752598752599E-4 0.0033783783783783786 0.0059771309771309775 2.598752598752599E-4 2.598752598752599E-4 2.598752598752599E-4 2.598752598752599E-4 2.598752598752599E-4 2.598752598752599E-4 2.598752598752599E-4 2.598752598752599E-4 2.598752598752599E-4 
0.026758409785932722 7.645259938837921E-4 7.645259938837921E-4 2.5484199796126404E-4 0.018603465851172275 7.645259938837921E-4 0.012996941896024464 7.645259938837921E-4 7.645259938837921E-4 0.008409785932721712 7.645259938837921E-4 0.004332313965341488 0.0028032619775739042 0.012996941896024464 0.008409785932721712 0.0028032619775739042 0.025739041794087664 7.645259938837921E-4 0.034403669724770644 0.02726809378185525 0.009938837920489297 2.5484199796126404E-4 0.007390417940876657 0.009429153924566768 7.645259938837921E-4 2.5484199796126404E-4 0.0012742099898063201 0.016564729867482163 0.005351681957186544 0.06345565749235474 0.0028032619775739042 0.04204892966360856 2.5484199796126404E-4 0.1536697247706422 0.09709480122324159 0.3983180428134557 
</TABLE>
</DEFINITION>
<DEFINITION>
<FOR>V53</FOR>
	<GIVEN>Class</GIVEN>
<TABLE>
2.891008962127783E-4 2.891008962127783E-4 2.891008962127783E-4 2.891008962127783E-4 0.017056952876553916 2.891008962127783E-4 0.036715813819022836 0.05117085862966175 0.04191962995085285 0.27146574154379877 0.09916160740098294 0.16392020815264527 0.1598727956056664 0.10205261636311072 0.055218271176640646 
3.222687721559781E-4 3.222687721559781E-4 0.04028359651949726 0.05252980986142443 0.04672897196261682 0.08733483725427006 0.1724137931034483 0.1588785046728972 0.04092813406380922 0.32968095391556557 0.042861746696745084 0.018369320012890752 0.00676764421527554 9.668063164679343E-4 0.0016113438607798904 
3.5373187124159886E-4 3.5373187124159886E-4 3.5373187124159886E-4 0.007428369296073576 0.011673151750972763 0.024407499115670323 0.03997170145030067 0.0951538733639901 0.06614785992217899 0.42483197736116024 0.11142553944110364 0.14962858153519631 0.052706048814998234 0.010258224266006368 0.005305978068623983 
2.801905295601009E-4 0.04006724572709443 0.07705239562902774 0.0047632390025217144 0.03558419725413281 0.04398991314093584 0.07144858503782572 0.08041468198374895 0.04959372373213786 0.13533202577752873 0.02269543289436817 0.05687867750070048 0.08826001681143178 0.08209582516110955 0.21154384981787616 
2.613012803762738E-4 2.613012803762738E-4 0.0018291089626339169 0.0028743140841390124 2.613012803762738E-4 0.005487326887901751 0.029527044682518943 0.08753592892605173 0.012803762738437419 0.14815782597334726 0.047295531748105565 0.1607002874314084 0.10634962111314346 0.15860987718839822 0.23804546642278548 
0.9964130156290033 2.5621316935690495E-4 2.5621316935690495E-4 2.5621316935690495E-4 2.5621316935690495E-4 2.5621316935690495E-4 2.5621316935690495E-4 2.5621316935690495E-4 2.5621316935690495E-4 2.5621316935690495E-4 2.5621316935690495E-4 2.5621316935690495E-4 2.5621316935690495E-4 2.5621316935690495E-4 2.5621316935690495E-4 
</TABLE>
</DEFINITION>
<DEFINITION>
<FOR>V54</FOR>
	<GIVEN>Class</GIVEN>
<TABLE>
2.8793550244745177E-4 2.8793550244745177E-4 2.8793550244745177E-4 2.8793550244745177E-4 2.8793550244745177E-4 0.048085228908724444 0.07169594010941549 0.17995968902965737 0.10048949035416067 0.13043478260869565 0.0739994241289951 0.20760149726461272 0.10106536135905557 0.03368845378635186 0.003743161531816873 0.04175064785488051 0.002591419522027066 2.8793550244745177E-4 2.8793550244745177E-4 2.8793550244745177E-4 2.8793550244745177E-4 2.8793550244745177E-4 2.8793550244745177E-4 2.8793550244745177E-4 2.8793550244745177E-4 2.8793550244745177E-4 2.8793550244745177E-4 2.8793550244745177E-4 2.8793550244745177E-4 
3.208213025344883E-4 3.208213025344883E-4 0.04780237407763876 0.05678537054860443 0.04523580365736285 0.0984921398780879 0.27173564324671157 0.1292909849213988 0.17741418030157202 0.08630093038177734 0.02021174205967276 0.014436958614051972 9.624639076034649E-4 3.208213025344883E-4 0.0016041065126724415 0.01700352903432788 0.004170676932948348 0.023419955085017645 3.208213025344883E-4 3.208213025344883E-4 3.208213025344883E-4 9.624639076034649E-4 3.208213025344883E-4 3.208213025344883E-4 3.208213025344883E-4 3.208213025344883E-4 3.208213025344883E-4 3.208213025344883E-4 3.208213025344883E-4 
3.5198873636043646E-4 3.5198873636043646E-4 0.0010559662090813093 0.0024639211545230554 0.0017599436818021823 0.029919042590637098 0.05103836677226329 0.11017247448081662 0.13621964097148892 0.14537134811686026 0.1003167898627244 0.1186202041534671 0.16015487504399858 0.06089405139035551 0.04611052446321718 0.029919042590637098 0.0010559662090813093 3.5198873636043646E-4 3.5198873636043646E-4 3.5198873636043646E-4 3.5198873636043646E-4 3.5198873636043646E-4 3.5198873636043646E-4 3.5198873636043646E-4 3.5198873636043646E-4 3.5198873636043646E-4 3.5198873636043646E-4 3.5198873636043646E-4 3.5198873636043646E-4 
2.7909572983533354E-4 0.009768350544236673 8.372871895060006E-4 2.7909572983533354E-4 0.003628244487859336 0.0013954786491766676 0.004186435947530003 0.006977393245883338 0.005302818866871337 0.012001116382919341 0.003628244487859336 0.048841752721183365 0.041585263745464694 0.05777281607591404 0.16271281049399944 0.16941110801004744 0.09014792073681273 0.03321239185040469 0.018141222439296677 2.7909572983533354E-4 0.025397711415015352 0.023723137036003348 0.16271281049399944 8.372871895060006E-4 0.039910689366452694 0.06837845380965671 0.004186435947530003 0.004186435947530003 2.7909572983533354E-4 
2.603488674824265E-4 7.810466024472793E-4 0.005467326217130955 0.022129653736006248 0.004946628482166103 0.016401978651392868 0.09554803436605051 0.09138245248633169 0.07055454308773756 0.12574850299401197 0.17625618328560272 0.13512106222337933 0.10804478000520698 0.030460817495443895 0.05701640197865139 0.04972663368914345 2.603488674824265E-4 0.002343139807341838 0.0018224420723769851 0.0018224420723769851 2.603488674824265E-4 0.0018224420723769851 2.603488674824265E-4 2.603488674824265E-4 2.603488674824265E-4 2.603488674824265E-4 2.603488674824265E-4 2.603488674824265E-4 2.603488674824265E-4 
0.01404135818228236 0.002297676793464386 0.005361245851416901 0.03191217768700536 0.002297676793464386 0.004340056165432729 7.658922644881287E-4 7.658922644881287E-4 2.552974214960429E-4 0.0012764871074802144 0.008935409752361501 2.552974214960429E-4 0.0033188664794485574 0.0017870819504723003 0.0017870819504723003 0.0017870819504723003 7.658922644881287E-4 0.0017870819504723003 2.552974214960429E-4 2.552974214960429E-4 0.0017870819504723003 0.019147306612203218 0.021700280827163645 0.007403625223385244 0.022721470513147816 0.16262445749297932 0.06714322185345928 0.002808271636456472 0.6104161347970386 
</TABLE>
</DEFINITION>
<DEFINITION>
<FOR>V70</FOR>
	<GIVEN>Class</GIVEN>
<TABLE>
2.894356005788712E-4 2.894356005788712E-4 2.894356005788712E-4 0.0020260492040520984 0.021128798842257598 0.04138929088277858 0.17742402315484804 0.16353111432706222 0.24746743849493488 0.3024602026049204 0.043704775687409554 
3.2268473701193933E-4 0.010648596321393998 0.08615682478218781 0.21200387221684414 0.33914165859954826 0.15908357534688608 0.13843175217812198 0.03388189738625363 0.017102291061632784 0.002904162633107454 3.2268473701193933E-4 
3.5423308537017357E-4 3.5423308537017357E-4 3.5423308537017357E-4 0.0060219624512929506 0.09599716613531704 0.1342543393552958 0.3134962805526036 0.16259298618490967 0.17463691108749557 0.10662415869642225 0.005313496280552604 
0.16521739130434782 0.020476858345021037 0.05582047685834502 0.07040673211781207 0.13604488078541374 0.08330995792426367 0.18877980364656383 0.08218793828892006 0.10294530154277699 0.08274894810659186 0.0120617110799439 
0.0761182317551661 0.03688202981951347 0.11169238817682449 0.1415119016479205 0.2341093382160607 0.1075071933036882 0.14883599267590897 0.05937745226262098 0.052053361234632486 0.02851164007324091 0.0034004708344232276 
0.08591946652987946 0.027955886124647344 0.04693511156706848 0.06181072069761477 0.1002821236214414 0.06027186458066171 0.11720954090792511 0.08797127468581688 0.14747371120800204 0.1879969222877661 0.07617337778917671 
</TABLE>
</DEFINITION>
<DEFINITION>
<FOR>V80</FOR>
	<GIVEN>Class</GIVEN>
<TABLE>
2.897710808461316E-4 0.011880614314691394 0.21008403361344538 0.5230368009272675 0.21877716603882932 0.03506230078238192 8.693132425383947E-4 
3.2310177705977385E-4 0.028756058158319872 0.20969305331179322 0.504361873990307 0.20387722132471728 0.05137318255250404 0.0016155088852988692 
3.54735721887194E-4 0.015253636041149344 0.13373536715147216 0.4714437743880809 0.28840014189428875 0.09045760908123449 3.54735721887194E-4 
0.009828699803426004 0.04577365908452682 0.13675933726481326 0.2884021342319573 0.2496489750070205 0.19348497613030047 0.07610221847795563 
0.01125949201361613 0.0384917517674784 0.12280701754385964 0.25634982979837656 0.2694422623723488 0.21654883477350093 0.08510081173081958 
0.1363286264441592 0.22413350449293967 0.26110397946084724 0.21335044929396663 0.08600770218228498 0.05468549422336329 0.024390243902439025 
</TABLE>
</DEFINITION>
<DEFINITION>
<FOR>V105</FOR>
	<GIVEN>Class</GIVEN>
<TABLE>
2.8951939779965256E-4 2.8951939779965256E-4 2.8951939779965256E-4 8.685581933989577E-4 0.00781702374059062 0.2996525767226404 0.16763173132599885 0.3506079907353793 0.11667631731325999 0.05587724377533295 
3.2278889606197545E-4 0.0035506778566817302 3.2278889606197545E-4 0.020335700451904453 0.05067785668173015 0.5225952227243383 0.18754034861200775 0.17527437056165268 0.035183989670755325 0.004196255648805681 
3.5435861091424523E-4 3.5435861091424523E-4 3.5435861091424523E-4 0.0010630758327427356 0.013819985825655563 0.385896527285613 0.2583274273564848 0.3051027639971651 0.032955350815024806 0.001771793054571226 
0.9929854096520763 8.417508417508417E-4 0.001964085297418631 0.0014029180695847362 8.417508417508417E-4 8.417508417508417E-4 2.805836139169473E-4 2.805836139169473E-4 2.805836139169473E-4 2.805836139169473E-4 
0.9882260596546311 0.005494505494505495 2.6164311878597594E-4 0.003401360544217687 0.0013082155939298796 2.6164311878597594E-4 2.6164311878597594E-4 2.6164311878597594E-4 2.6164311878597594E-4 2.6164311878597594E-4 
0.9766546947152386 0.011031298101590559 2.565418163160595E-4 0.006413545407901488 0.0012827090815802976 0.0033350436121087736 2.565418163160595E-4 2.565418163160595E-4 2.565418163160595E-4 2.565418163160595E-4 
</TABLE>
</DEFINITION>
<DEFINITION>
<FOR>V108</FOR>
	<GIVEN>Class</GIVEN>
<TABLE>
0.09475514343668502 0.1579252390611417 0.18864097363083165 0.20892494929006086 0.22283396117067517 0.10055056505360765 0.02636916835699797 
0.20323101777059774 0.22067851373182554 0.21033925686591276 0.1851373182552504 0.15605815831987077 0.022294022617124393 0.002261712439418417 
0.2543455125931181 0.2259666548421426 0.2018446257538134 0.15643845335225257 0.13302589570769777 0.025186236253990777 0.0031926214969847464 
0.02667789946644201 0.04577365908452682 0.10137601797247964 0.15922493681550126 0.34962089300758215 0.21314237573715247 0.10418421791631564 
0.024351924587588374 0.0437287247970673 0.08614820633673737 0.14689709347996857 0.32809636030374445 0.21393034825870647 0.1568473422361875 
0.03979460847240052 0.07830551989730423 0.15378690629011554 0.21489088575096277 0.3201540436456996 0.13530166880616173 0.057766367137355584 
</TABLE>
</DEFINITION>
<DEFINITION>
<FOR>V121</FOR>
	<GIVEN>Class</GIVEN>
<TABLE>
0.01879155825383059 0.021104365423532813 0.043654235328129516 0.08933217692974849 0.14252674183289968 0.0904885805145996 0.08470656259034404 0.040763226366001735 0.04885805145995953 0.0598438855160451 0.07892454466608846 0.1980341139057531 0.0557964729690662 0.026886383347788378 2.891008962127783E-4 
0.05252980986142443 0.1749919432806961 0.09893651305188528 0.0338382210763777 0.036416371253625526 0.009345794392523364 0.013857557202707057 0.0054785691266516275 0.006123106670963584 0.011279407025459234 0.013857557202707057 0.08540122462133419 0.20979697067354172 0.21108604576216564 0.03706090879793748 
0.13406437920056596 0.1616554651574107 0.1567032189600283 0.08454191722674213 0.04492394764768306 0.01874778917580474 0.020162716660771136 0.006013441811107181 0.005305978068623983 0.004598514326140785 0.016625397948355148 0.04633887513264945 0.08524938096922532 0.20198089847895295 0.013088079235939158 
2.801905295601009E-4 0.0047632390025217144 0.04511067525917624 0.021014289717007566 0.04118800784533483 0.04230876996357523 0.09778649481647521 0.5236760997478285 0.12412440459512468 0.07088820397870552 0.01316895488932474 0.010367049593723731 0.0047632390025217144 2.801905295601009E-4 2.801905295601009E-4 
2.613012803762738E-4 2.613012803762738E-4 0.00810033969166449 0.00810033969166449 0.058270185523909064 0.06454141625293965 0.19310164619806636 0.3023255813953488 0.15547426182388294 0.09223935197282467 0.054089365037888686 0.05252155735563104 0.009145544813169584 0.0013065064018813691 2.613012803762738E-4 
2.5621316935690495E-4 0.0023059185242121443 0.009479887266205482 0.009992313604919293 0.0156290033307712 0.0361260568793236 0.1965155008967461 0.42198308993082245 0.10479118626697412 0.03817576223417884 0.03971304125032027 0.06123494747630028 0.05816038944401742 0.005380476556495004 2.5621316935690495E-4 
</TABLE>
</DEFINITION>
<DEFINITION>
<FOR>V158</FOR>
	<GIVEN>Class</GIVEN>
<TABLE>
8.690614136732329E-4 0.08545770567786791 0.14223638470451913 0.6729432213209734 0.09762456546929317 2.8968713789107763E-4 2.8968713789107763E-4 2.8968713789107763E-4 
0.0029069767441860465 0.09011627906976744 0.1650516795865633 0.5306847545219638 0.13275193798449614 0.05329457364341085 0.02487080103359173 3.2299741602067185E-4 
3.546099290780142E-4 0.01879432624113475 0.11312056737588652 0.7393617021276596 0.11595744680851064 0.011702127659574468 3.546099290780142E-4 3.546099290780142E-4 
0.04576080853453116 0.12268388545760808 0.1558113419427288 0.42476137001684444 0.13279056709713644 0.05530600786075238 0.04688377316114543 0.016002245929253228 
0.017539267015706805 0.05 0.13481675392670156 0.5725130890052356 0.1505235602094241 0.04424083769633508 0.028534031413612566 0.0018324607329842932 
0.1398870636550308 0.20662217659137577 0.15682751540041068 0.313911704312115 0.0870123203285421 0.030030800821355237 0.041837782340862426 0.023870636550308008 
</TABLE>
</DEFINITION>
<DEFINITION>
<FOR>V159</FOR>
	<GIVEN>Class</GIVEN>
<TABLE>
2.8968713789107763E-4 2.8968713789107763E-4 0.07560834298957127 0.1683082271147161 0.6868482039397451 0.06460023174971032 0.0037659327925840093 2.8968713789107763E-4 
3.2299741602067185E-4 0.03972868217054264 0.25290697674418605 0.1708656330749354 0.36724806201550386 0.09270025839793282 0.06750645994832041 0.00872093023255814 
3.546099290780142E-4 3.546099290780142E-4 0.07695035460992908 0.15567375886524823 0.6223404255319149 0.11524822695035461 0.02872340425531915 3.546099290780142E-4 
0.02330151600224593 0.03790005614823133 0.12043795620437957 0.09180235822571589 0.3545760808534531 0.14233576642335766 0.1047164514317799 0.12492981471083661 
0.01387434554973822 0.04005235602094241 0.18141361256544503 0.11492146596858639 0.41596858638743456 0.12853403141361255 0.07617801047120419 0.02905759162303665 
0.019763860369609858 0.03978439425051335 0.11729979466119096 0.07828542094455852 0.3375256673511294 0.13732032854209444 0.1183264887063655 0.151694045174538 
</TABLE>
</DEFINITION>
<DEFINITION>
<FOR>V160</FOR>
	<GIVEN>Class</GIVEN>
<TABLE>
8.685581933989577E-4 0.009554140127388535 0.008396062536189925 0.018818760856977416 0.1068326577880718 0.32802547770700635 0.2423277359583092 0.28401852924145915 8.685581933989577E-4 2.8951939779965256E-4 
9.683666881859264E-4 0.008069722401549387 0.028728211749515817 0.020981278244028404 0.06681730148482892 0.23402194964493223 0.2159457714654616 0.3786313750806972 0.04551323434473854 3.2278889606197545E-4 
3.5435861091424523E-4 3.5435861091424523E-4 0.019489723600283487 0.0846917080085046 0.30155917788802267 0.44472005669737774 0.12579730687455706 0.02232459248759745 3.5435861091424523E-4 3.5435861091424523E-4 
0.23540965207631875 0.09118967452300786 0.10578002244668912 0.0872615039281706 0.14169472502805835 0.1585297418630752 0.07772166105499438 0.0760381593714927 0.010381593714927048 0.015993265993265993 
0.23103087388801674 0.10805860805860806 0.10282574568288853 0.11486132914704343 0.14364207221350078 0.1457352171637886 0.06933542647828363 0.06253270538984824 0.012297226582940869 0.00968079539508111 
0.1469984607491021 0.061826577732170346 0.07003591585428424 0.0767060030785018 0.15315546434068752 0.17008722421754746 0.112108773730118 0.14802462801436633 0.03309389430477168 0.027963057978450487 
</TABLE>
</DEFINITION>
<DEFINITION>
<FOR>V303</FOR>
	<GIVEN>Class</GIVEN>
<TABLE>
2.892681515765114E-4 2.892681515765114E-4 2.892681515765114E-4 2.892681515765114E-4 0.003181949667341626 0.04657217240381834 0.42667052357535434 0.2964998553659242 0.13855944460514896 0.06277118889210298 0.021116575065085335 0.003181949667341626 2.892681515765114E-4 
3.224766204450177E-4 3.224766204450177E-4 3.224766204450177E-4 3.224766204450177E-4 3.224766204450177E-4 0.006127055788455337 0.11383424701709126 0.3124798452112222 0.2383102225088681 0.24282489519509837 0.06159303450499839 0.017736214124475975 0.005482102547565301 
3.5398230088495576E-4 3.5398230088495576E-4 3.5398230088495576E-4 3.5398230088495576E-4 3.5398230088495576E-4 3.5398230088495576E-4 0.008849557522123894 0.04 0.08389380530973452 0.18442477876106195 0.16176991150442477 0.17168141592920355 0.3472566371681416 
0.2845528455284553 0.4269694421082142 0.18138491729744885 0.0927950658816933 0.009812167087188113 0.002523128679562658 2.803476310625175E-4 2.803476310625175E-4 2.803476310625175E-4 2.803476310625175E-4 2.803476310625175E-4 2.803476310625175E-4 2.803476310625175E-4 
0.30666666666666664 0.4196078431372549 0.1681045751633987 0.10222222222222223 0.00130718954248366 2.6143790849673205E-4 2.6143790849673205E-4 2.6143790849673205E-4 2.6143790849673205E-4 2.6143790849673205E-4 2.6143790849673205E-4 2.6143790849673205E-4 2.6143790849673205E-4 
0.07767239169443732 0.2735196103563189 0.25865162778774675 0.3504229684696232 0.01717508331197129 0.012048192771084338 0.0033324788515765188 0.0028197897974878237 0.0017944116893104333 2.563445270443476E-4 0.0017944116893104333 2.563445270443476E-4 2.563445270443476E-4 
</TABLE>
</DEFINITION>
<DEFINITION>
<FOR>V370</FOR>
	<GIVEN>Class</GIVEN>
<TABLE>
2.891008962127783E-4 2.891008962127783E-4 0.05117085862966175 0.0598438855160451 0.002023706273489448 0.03151199768719283 0.013009540329575022 0.0014455044810638912 0.03151199768719283 0.09916160740098294 0.19109569239664642 0.4518647007805724 0.05117085862966175 0.015322347499277248 2.891008962127783E-4 
3.222687721559781E-4 0.044795359329680956 0.40251369642281665 0.10538188849500484 0.0016113438607798904 0.01514663229133097 0.10087012568482114 0.017080244924266838 0.0763776990009668 0.07573316145665485 0.04092813406380922 0.09635836287463745 0.01643570737995488 0.0054785691266516275 9.668063164679343E-4 
3.5373187124159886E-4 0.0067209055535903785 0.2111779271312345 0.3434736469755925 0.04350902016271666 0.02794481782808631 0.11567032189600283 0.015210470463388751 0.0314821365405023 0.01874778917580474 0.015210470463388751 0.11850017686593563 0.030067209055535903 0.01874778917580474 0.0031835868411743897 
0.009806668534603531 2.801905295601009E-4 2.801905295601009E-4 8.405715886803026E-4 0.0025217147660409078 2.801905295601009E-4 0.021574670776127767 0.02998038666293079 0.07985430092462875 0.030540767722050995 0.03782572149061362 0.2821518632670216 0.18296441580274586 0.1919305127486691 0.1291678341272065 
0.0023517115233864646 2.613012803762738E-4 2.613012803762738E-4 2.613012803762738E-4 0.0018291089626339169 0.0018291089626339169 0.024823621635746015 0.018552390906715444 0.049385941991115755 0.029527044682518943 0.031617454925529136 0.3117324274888947 0.20407629997386986 0.21243794094591065 0.11105304415991639 
0.03253907250832693 2.5621316935690495E-4 2.5621316935690495E-4 0.0017934921854983346 0.006917755572636433 0.014091724314629772 0.10427875992826031 0.044837304637458365 0.04791186266974123 0.015116576992057392 0.02434025108890597 0.28055342044581094 0.13604919292851653 0.17960543171919036 0.11145272867025365 
</TABLE>
</DEFINITION>
<DEFINITION>
<FOR>V412</FOR>
	<GIVEN>Class</GIVEN>
<TABLE>
2.896032435563278E-4 2.896032435563278E-4 0.004923255140457573 0.01592817839559803 0.16362583260932523 0.12134375905010136 0.25977410947002605 0.28062554300608167 0.15320011584129742 
3.2289312237649337E-4 0.019696480464966096 0.051985792702615434 0.13529221827575072 0.4743299967710688 0.1262512108492089 0.12818856958346786 0.05521472392638037 0.00871811430416532 
3.544842254519674E-4 3.544842254519674E-4 3.544842254519674E-4 0.007444168734491315 0.13009571074087203 0.10740872031194612 0.25274725274725274 0.2676355902162354 0.2336051045728465 
0.9814762840303115 0.011507156890261015 0.0025259612685938817 0.0025259612685938817 8.419870895312938E-4 2.80662363177098E-4 2.80662363177098E-4 2.80662363177098E-4 2.80662363177098E-4 
0.9596964145511646 0.028003140539125882 0.007589636220884585 0.0018319811567652448 0.0018319811567652448 2.6171159382360636E-4 2.6171159382360636E-4 2.6171159382360636E-4 2.6171159382360636E-4 
0.9543238388503977 0.02745701821914293 0.010007698229407237 0.003849114703618168 0.0033358994098024123 2.5660764690787786E-4 2.5660764690787786E-4 2.5660764690787786E-4 2.5660764690787786E-4 
</TABLE>
</DEFINITION>
<DEFINITION>
<FOR>V449</FOR>
	<GIVEN>Class</GIVEN>
<TABLE>
0.01823972206137811 0.7298784018529242 0.08309206716850029 0.002026635784597568 2.8951939779965256E-4 0.004342790966994789 0.05993051534452808 0.004342790966994789 0.09293572669368848 0.004921829762594094 
0.5006455777921239 0.368947708198838 0.046158812136862494 0.022272433828276306 0.006132989025177534 0.021626856036152355 0.007424144609425436 0.012588766946417043 0.011297611362169141 0.002905100064557779 
0.566619418851878 0.1824946846208363 0.06909992912827782 0.0038979447200566974 0.00956768249468462 0.029411764705882353 0.07406094968107725 0.04287739192062367 0.00956768249468462 0.012402551381998583 
0.49130190796857465 0.10521885521885523 0.07716049382716049 0.05976430976430976 0.05415263748597082 0.07716049382716049 0.04068462401795735 0.055836139169472505 0.015432098765432098 0.023288439955106623 
0.35609628466771326 0.24934589220303505 0.163003663003663 0.08712715855572999 0.047880690737833596 0.02642595499738357 0.022239665096807953 0.04317111459968603 0.004447933019361591 2.6164311878597594E-4 
0.6082606464853771 0.0792714212416624 0.037711646998460746 0.030015392508978965 0.044894817855310416 0.0418163160595177 0.041303232426885585 0.08748075936377629 0.011544381734222679 0.017701385325808106 
</TABLE>
</DEFINITION>
<DEFINITION>
<FOR>V451</FOR>
	<GIVEN>Class</GIVEN>
<TABLE>
0.002026635784597568 0.12015055008685582 0.0055008685581933985 0.0952518818760857 0.095830920671685 0.13346844238563985 0.410828025477707 0.041401273885350316 0.016502605674580197 0.07903879559930516 
0.040348612007746934 0.6239509360877986 0.07714654615881214 0.19528728211749516 0.02420916720464816 0.010006455777921239 0.006778566817301485 0.006132989025177534 0.00936087798579729 0.006778566817301485 
0.07122608079376329 0.10595322466335932 0.03437278525868179 0.14847625797306874 0.18674698795180722 0.08823529411764706 0.13997165131112685 0.051381998582565556 0.11587526576895818 0.05776045357902197 
0.6007295173961841 0.15572390572390574 0.08389450056116723 0.04180695847362514 0.03226711560044893 0.022727272727272728 0.013748597081930415 0.013748597081930415 0.022166105499438832 0.013187429854096521 
0.4811616954474097 0.19858712715855573 0.09602302459445317 0.06776556776556776 0.04212454212454213 0.029042386185243328 0.025379382522239664 0.02119309262166405 0.028519099947671375 0.01020408163265306 
0.6097998973832734 0.07465366854797333 0.027963057978450487 0.02180605438686506 0.02539763981528989 0.0310415597742432 0.03873781426372499 0.054643406875320676 0.09363776295536172 0.022319138019497177 
</TABLE>
</DEFINITION>
<DEFINITION>
<FOR>V452</FOR>
	<GIVEN>Class</GIVEN>
<TABLE>
0.0014488554042306578 0.02578962619530571 0.10634598667053029 0.3207765864966676 0.44653723558388875 0.08664155317299334 0.012460156476383656 
0.06558966074313409 0.14248788368336027 0.19935379644588044 0.3130856219709208 0.2445880452342488 0.033925686591276254 9.693053311793214E-4 
0.028024122029088328 0.12025540971975877 0.2082298687477829 0.29123802766938633 0.29123802766938633 0.050727208229868745 0.010287335934728628 
0.009828699803426004 0.019938219601235607 0.05812973883740522 0.14181409716371807 0.4125245717495086 0.2339230553215389 0.12384161752316765 
0.13747054202670855 0.15003927729772193 0.16470280178057084 0.2327834511652265 0.23697302958889763 0.061010735794710655 0.01702016234616392 
0.029525032092426188 0.06444159178433889 0.10397946084724005 0.1774069319640565 0.3504492939666239 0.1815147625160462 0.09268292682926829 
</TABLE>
</DEFINITION>
<DEFINITION>
<FOR>V505</FOR>
	<GIVEN>Class</GIVEN>
<TABLE>
2.892681515765114E-4 2.892681515765114E-4 2.892681515765114E-4 2.892681515765114E-4 0.0037604859704946487 0.11252531096326295 0.2860862019091698 0.4966734162568701 0.06913508822678623 0.02227364767139138 0.006653167486259763 8.678044547295343E-4 8.678044547295343E-4 
3.224766204450177E-4 3.224766204450177E-4 3.224766204450177E-4 3.224766204450177E-4 9.674298613350532E-4 0.012576588197355692 0.08481135117703967 0.6317316994517898 0.14092228313447275 0.08481135117703967 0.03192518542405676 0.010641728474685586 3.224766204450177E-4 
3.5398230088495576E-4 3.5398230088495576E-4 3.5398230088495576E-4 3.5398230088495576E-4 3.5398230088495576E-4 3.5398230088495576E-4 0.0017699115044247787 0.07256637168141593 0.07610619469026549 0.1511504424778761 0.175929203539823 0.22123893805309736 0.2991150442477876 
0.1410148584244463 0.32268012335295765 0.295766750770956 0.2032520325203252 0.004765909728062798 0.012054948135688253 0.005887300252312868 0.009812167087188113 0.0019624334174376226 0.0019624334174376226 2.803476310625175E-4 2.803476310625175E-4 2.803476310625175E-4 
0.07712418300653595 0.26849673202614377 0.34013071895424835 0.301437908496732 0.0049673202614379085 0.00392156862745098 0.00130718954248366 0.00130718954248366 2.6143790849673205E-4 2.6143790849673205E-4 2.6143790849673205E-4 2.6143790849673205E-4 2.6143790849673205E-4 
0.19200205075621635 0.2294283517046911 0.35503716995642143 0.18072289156626506 0.00640861317610869 0.011535503716995642 0.003845167905665214 0.009484747500640862 0.0028197897974878237 0.005895924122019995 2.563445270443476E-4 7.690335811330429E-4 0.0017944116893104333 
</TABLE>
</DEFINITION>
<DEFINITION>
<FOR>V519</FOR>
	<GIVEN>Class</GIVEN>
<TABLE>
2.894356005788712E-4 2.894356005788712E-4 2.894356005788712E-4 8.683068017366136E-4 0.03733719247467439 0.16353111432706222 0.20868306801736614 0.143849493487699 0.24978292329956583 0.19479015918958031 2.894356005788712E-4 
3.2268473701193933E-4 3.2268473701193933E-4 0.018393030009680542 0.06744111003549533 0.30816392384640207 0.25459825750242016 0.19264278799612777 0.07518554372378186 0.06615037108744756 0.016456921587608905 3.2268473701193933E-4 
3.5423308537017357E-4 3.5423308537017357E-4 0.001771165426850868 0.003188097768331562 0.01664895501239816 0.049238398866454126 0.09316330145235566 0.10662415869642225 0.24760892667375134 0.4537725823591923 0.027275947573503365 
0.7873772791023843 0.2 0.0070126227208976155 0.0036465638148667602 2.8050490883590464E-4 2.8050490883590464E-4 2.8050490883590464E-4 2.8050490883590464E-4 2.8050490883590464E-4 2.8050490883590464E-4 2.8050490883590464E-4 
0.7101752550353125 0.2665445984828669 0.017525503531258174 0.0018310227569971226 0.0023541721161391576 2.615746795710175E-4 2.615746795710175E-4 2.615746795710175E-4 2.615746795710175E-4 2.615746795710175E-4 2.615746795710175E-4 
0.7799435752757117 0.19107463452167223 0.015132085150038471 0.006924852526288792 0.0043600923313670175 2.5647601949217746E-4 7.694280584765325E-4 7.694280584765325E-4 2.5647601949217746E-4 2.5647601949217746E-4 2.5647601949217746E-4 
</TABLE>
</DEFINITION>
<DEFINITION>
<FOR>V538</FOR>
	<GIVEN>Class</GIVEN>
<TABLE>
0.014194669756662804 0.08487833140208574 0.28707995365005795 0.2644843568945539 0.01825028968713789 0.03679026651216686 0.29055619930475085 0.0037659327925840093 
0.21027131782945738 0.2968346253229974 0.33430232558139533 0.07719638242894057 0.0377906976744186 0.01065891472868217 0.028746770025839793 0.004198966408268734 
0.32588652482269503 0.3067375886524823 0.08191489361702127 0.06205673758865248 0.10177304964539007 0.03723404255319149 0.07056737588652483 0.013829787234042552 
0.6173498034811904 0.2624929814710837 0.040707467714766986 0.022178551375631666 0.028354856822010107 0.010387422796181921 0.015440763615946098 0.0030881527231892197 
0.5620418848167539 0.29712041884816753 0.061518324607329845 0.030104712041884817 0.02643979057591623 0.006020942408376963 0.013350785340314137 0.0034031413612565444 
0.6219199178644764 0.26001026694045176 0.02335728952772074 0.016683778234086243 0.023870636550308008 0.013090349075975359 0.03311088295687885 0.00795687885010267 
</TABLE>
</DEFINITION>
<DEFINITION>
<FOR>V557</FOR>
	<GIVEN>Class</GIVEN>
<TABLE>
0.055282199710564396 0.12590448625180897 0.05412445730824891 0.06975397973950796 0.05875542691751085 0.19536903039073805 0.13111432706222864 0.09059334298118668 0.10217076700434154 0.06049204052098408 0.056439942112879886 
0.24749919328815748 0.21006776379477252 0.03452726686027751 0.031945788964181994 0.027428202646014845 0.041626331074540175 0.03130041949015812 0.03323652791222975 0.0680864795095192 0.0771216521458535 0.19716037431429492 
0.19801629472192703 0.10591569252568189 0.017357421183138506 0.02089975203684024 0.010272759475735034 0.042862203329791 0.040028338646829614 0.044987601842012045 0.1271696776478923 0.11866808359900814 0.2738221749911442 
0.001402524544179523 0.009256661991584854 0.005329593267882188 0.01767180925666199 0.05694249649368864 0.6830294530154277 0.17251051893408134 0.03506311360448808 0.015427769985974754 0.0019635343618513326 0.001402524544179523 
0.016479204812974105 0.06303949777661523 0.027988490714098875 0.060946900340047086 0.0656552445723254 0.42505885430290347 0.15145173947161913 0.08501177086058069 0.06617839393146743 0.02641904263667277 0.01177086058069579 
0.0023082841754295974 0.010002564760194921 0.013080276994101052 0.03565016670941267 0.05565529622980251 0.6004103616311874 0.21056681200307772 0.05411644011284945 0.011541420877147986 0.003847140292382662 0.0028212362144139523 
</TABLE>
</DEFINITION>
<DEFINITION>
<FOR>V558</FOR>
	<GIVEN>Class</GIVEN>
<TABLE>
0.16845462452884893 0.16613511162655842 0.41374311394607133 0.09886923746013337 0.15279791243838795 
0.1716779825412221 0.13029421273844163 0.3740704817329454 0.11283543485289363 0.21112188813449725 
0.22044728434504793 0.17003904863329783 0.36741214057507987 0.08981185658501953 0.15228966986155484 
0.05479067153694858 0.16381005900533857 0.6673222815397584 0.07221129530767069 0.041865692610283785 
0.19046371495939218 0.14330626146188105 0.35184700026198584 0.09929263819753734 0.21509038511920356 
0.0737220652453121 0.13639866426920114 0.6244541484716157 0.10249165168250707 0.06293347033136398 
</TABLE>
</DEFINITION>
<DEFINITION>
<FOR>V559</FOR>
	<GIVEN>Class</GIVEN>
<TABLE>
2.8876696505919725E-4 0.0314755991914525 0.018192318798729425 0.0626624314178458 0.1146404851285013 0.059774761767253826 0.052844354605833095 0.07074790643950332 0.05861969390701704 0.1250360958706324 0.313312157089229 0.022235056309558188 0.028587929540860525 0.029742997401097315 0.010684377707190298 2.8876696505919725E-4 2.8876696505919725E-4 2.8876696505919725E-4 2.8876696505919725E-4 
3.21853878339234E-4 3.21853878339234E-4 3.21853878339234E-4 0.003540392661731574 0.003540392661731574 0.009333762471837787 0.02413904087544255 0.03958802703572578 0.09044093981332475 0.06404892178950757 0.28355326681686516 0.057611844222722884 0.1599613775345993 0.1741229481815256 0.01126488574187319 0.0511747666559382 0.026070164145477952 3.21853878339234E-4 3.21853878339234E-4 
0.013069586718474038 0.032144118685976684 0.03779583186153303 0.09572589191098552 0.087248322147651 0.045566937477922995 0.08089014482515013 0.12610385022960086 0.09078064288237372 0.0688802543270929 0.2398445778876722 0.01942776404097492 0.0307311903920876 0.03002472624514306 3.5323207347227127E-4 3.5323207347227127E-4 3.5323207347227127E-4 3.5323207347227127E-4 3.5323207347227127E-4 
0.0019591379792891126 0.11838790931989925 0.04114189756507137 0.1015952980688497 0.08816120906801007 0.018191995521970334 0.04002239014833473 0.018191995521970334 0.02994682339770501 0.018191995521970334 0.23425692695214106 0.03162608452280996 0.06017352364959418 0.0859221942345368 8.396305625524769E-4 0.012034704729918836 0.060733277357962495 0.038343129023229776 2.79876854184159E-4 
0.009135995823544766 0.02427564604541895 0.060819629339598016 0.05090054815974941 0.09892978334638476 0.05090054815974941 0.14017227877838684 0.09527538501696685 0.047768206734534066 0.05455494648916732 0.25084834246932913 0.01331245105716523 0.08431219002871312 0.016966849386583136 7.830853563038371E-4 2.6102845210127906E-4 2.6102845210127906E-4 2.6102845210127906E-4 2.6102845210127906E-4 
2.559508574353724E-4 2.559508574353724E-4 2.559508574353724E-4 2.559508574353724E-4 2.559508574353724E-4 2.559508574353724E-4 2.559508574353724E-4 2.559508574353724E-4 2.559508574353724E-4 2.559508574353724E-4 2.559508574353724E-4 2.559508574353724E-4 2.559508574353724E-4 2.559508574353724E-4 2.559508574353724E-4 2.559508574353724E-4 2.559508574353724E-4 0.001279754287176862 0.9943690811364219 
</TABLE>
</DEFINITION>
<DEFINITION>
<FOR>Class</FOR>
<TABLE>
0.16720054358377015 0.14992234517569403 0.13652688798291593 0.17253931275480489 0.18506115317414093 0.18874975732867405 
</TABLE>
</DEFINITION>
</NETWORK>
</BIF>
