<?xml version="1.0"?>
<!-- DTD for the XMLBIF 0.3 format -->
<!DOCTYPE BIF [
	<!ELEMENT BIF ( NETWORK )*>
	      <!ATTLIST BIF VERSION CDATA #REQUIRED>
	<!ELEMENT NETWORK ( NAME, ( PROPERTY | VARIABLE | DEFINITION )* )>
	<!ELEMENT NAME (#PCDATA)>
	<!ELEMENT VARIABLE ( NAME, ( OUTCOME |  PROPERTY )* ) >
	      <!ATTLIST VARIABLE TYPE (nature|decision|utility) "nature">
	<!ELEMENT OUTCOME (#PCDATA)>
	<!ELEMENT DEFINITION ( FOR | GIVEN | TABLE | PROPERTY )* >
	<!ELEMENT FOR (#PCDATA)>
	<!ELEMENT GIVEN (#PCDATA)>
	<!ELEMENT TABLE (#PCDATA)>
	<!ELEMENT PROPERTY (#PCDATA)>
]>


<BIF VERSION="0.3">
<NETWORK>
<NAME>R_data_frame-weka.filters.supervised.attribute.Discretize-Rfirst-last-precision6-weka.filters.supervised.attribute.AttributeSelection-Eweka.attributeSelection.CfsSubsetEval -P 1 -E 1-Sweka.attributeSelection.BestFirst -D 1 -N 5-weka.filters.supervised.attribute.AttributeSelection-Eweka.attributeSelection.CfsSubsetEval -P 1 -E 1-Sweka.attributeSelection.BestFirst -D 1 -N 5-weka.filters.supervised.attribute.AttributeSelection-Eweka.attributeSelection.CfsSubsetEval -P 1 -E 1-Sweka.attributeSelection.BestFirst -D 1 -N 5-weka.filters.supervised.attribute.Discretize-Rfirst-last-precision6-weka.filters.unsupervised.attribute.Remove-V-R2,4,8-10,14,19,22-27,36,39,42,44,46-47,49-54,56-weka.filters.unsupervised.attribute.ReplaceMissingValues</NAME>
<VARIABLE TYPE="nature">
	<NAME>V38</NAME>
	<OUTCOME>&apos;(-inf--0.824554]&apos;</OUTCOME>
	<OUTCOME>&apos;(-0.824554--0.691063]&apos;</OUTCOME>
	<OUTCOME>&apos;(-0.691063--0.513034]&apos;</OUTCOME>
	<OUTCOME>&apos;(-0.513034--0.427077]&apos;</OUTCOME>
	<OUTCOME>&apos;(-0.427077--0.287622]&apos;</OUTCOME>
	<OUTCOME>&apos;(-0.287622--0.182017]&apos;</OUTCOME>
	<OUTCOME>&apos;(-0.182017--0.114017]&apos;</OUTCOME>
	<OUTCOME>&apos;(-0.114017-0.015286]&apos;</OUTCOME>
	<OUTCOME>&apos;(0.015286-0.15521]&apos;</OUTCOME>
	<OUTCOME>&apos;(0.15521-0.283915]&apos;</OUTCOME>
	<OUTCOME>&apos;(0.283915-0.471398]&apos;</OUTCOME>
	<OUTCOME>&apos;(0.471398-0.649761]&apos;</OUTCOME>
	<OUTCOME>&apos;(0.649761-inf)&apos;</OUTCOME>
	<PROPERTY>position = (360,90)</PROPERTY>
</VARIABLE>
<VARIABLE TYPE="nature">
	<NAME>V42</NAME>
	<OUTCOME>&apos;(-inf--0.770579]&apos;</OUTCOME>
	<OUTCOME>&apos;(-0.770579--0.555192]&apos;</OUTCOME>
	<OUTCOME>&apos;(-0.555192--0.474201]&apos;</OUTCOME>
	<OUTCOME>&apos;(-0.474201--0.405546]&apos;</OUTCOME>
	<OUTCOME>&apos;(-0.405546--0.397509]&apos;</OUTCOME>
	<OUTCOME>&apos;(-0.397509--0.387955]&apos;</OUTCOME>
	<OUTCOME>&apos;(-0.387955--0.368017]&apos;</OUTCOME>
	<OUTCOME>&apos;(-0.368017--0.307538]&apos;</OUTCOME>
	<OUTCOME>&apos;(-0.307538--0.297782]&apos;</OUTCOME>
	<OUTCOME>&apos;(-0.297782--0.21139]&apos;</OUTCOME>
	<OUTCOME>&apos;(-0.21139--0.197617]&apos;</OUTCOME>
	<OUTCOME>&apos;(-0.197617--0.168935]&apos;</OUTCOME>
	<OUTCOME>&apos;(-0.168935--0.121018]&apos;</OUTCOME>
	<OUTCOME>&apos;(-0.121018--0.09182]&apos;</OUTCOME>
	<OUTCOME>&apos;(-0.09182--0.053422]&apos;</OUTCOME>
	<OUTCOME>&apos;(-0.053422--0.02805]&apos;</OUTCOME>
	<OUTCOME>&apos;(-0.02805--0.011203]&apos;</OUTCOME>
	<OUTCOME>&apos;(-0.011203-0.006552]&apos;</OUTCOME>
	<OUTCOME>&apos;(0.006552-0.059013]&apos;</OUTCOME>
	<OUTCOME>&apos;(0.059013-0.07311]&apos;</OUTCOME>
	<OUTCOME>&apos;(0.07311-0.10758]&apos;</OUTCOME>
	<OUTCOME>&apos;(0.10758-0.174447]&apos;</OUTCOME>
	<OUTCOME>&apos;(0.174447-0.17889]&apos;</OUTCOME>
	<OUTCOME>&apos;(0.17889-0.211205]&apos;</OUTCOME>
	<OUTCOME>&apos;(0.211205-0.345216]&apos;</OUTCOME>
	<OUTCOME>&apos;(0.345216-0.412068]&apos;</OUTCOME>
	<OUTCOME>&apos;(0.412068-0.546852]&apos;</OUTCOME>
	<OUTCOME>&apos;(0.546852-0.603326]&apos;</OUTCOME>
	<OUTCOME>&apos;(0.603326-0.604571]&apos;</OUTCOME>
	<OUTCOME>&apos;(0.604571-inf)&apos;</OUTCOME>
	<PROPERTY>position = (180,270)</PROPERTY>
</VARIABLE>
<VARIABLE TYPE="nature">
	<NAME>V52</NAME>
	<OUTCOME>&apos;(-inf--0.714986]&apos;</OUTCOME>
	<OUTCOME>&apos;(-0.714986--0.468976]&apos;</OUTCOME>
	<OUTCOME>&apos;(-0.468976--0.435209]&apos;</OUTCOME>
	<OUTCOME>&apos;(-0.435209--0.396041]&apos;</OUTCOME>
	<OUTCOME>&apos;(-0.396041--0.325383]&apos;</OUTCOME>
	<OUTCOME>&apos;(-0.325383--0.292793]&apos;</OUTCOME>
	<OUTCOME>&apos;(-0.292793--0.205354]&apos;</OUTCOME>
	<OUTCOME>&apos;(-0.205354--0.166529]&apos;</OUTCOME>
	<OUTCOME>&apos;(-0.166529--0.124452]&apos;</OUTCOME>
	<OUTCOME>&apos;(-0.124452--0.093122]&apos;</OUTCOME>
	<OUTCOME>&apos;(-0.093122--0.044295]&apos;</OUTCOME>
	<OUTCOME>&apos;(-0.044295--0.021805]&apos;</OUTCOME>
	<OUTCOME>&apos;(-0.021805-0.014291]&apos;</OUTCOME>
	<OUTCOME>&apos;(0.014291-0.045581]&apos;</OUTCOME>
	<OUTCOME>&apos;(0.045581-0.103363]&apos;</OUTCOME>
	<OUTCOME>&apos;(0.103363-0.153799]&apos;</OUTCOME>
	<OUTCOME>&apos;(0.153799-0.18726]&apos;</OUTCOME>
	<OUTCOME>&apos;(0.18726-0.199825]&apos;</OUTCOME>
	<OUTCOME>&apos;(0.199825-0.228695]&apos;</OUTCOME>
	<OUTCOME>&apos;(0.228695-0.288116]&apos;</OUTCOME>
	<OUTCOME>&apos;(0.288116-0.300096]&apos;</OUTCOME>
	<OUTCOME>&apos;(0.300096-0.310298]&apos;</OUTCOME>
	<OUTCOME>&apos;(0.310298-0.322007]&apos;</OUTCOME>
	<OUTCOME>&apos;(0.322007-0.325769]&apos;</OUTCOME>
	<OUTCOME>&apos;(0.325769-0.338]&apos;</OUTCOME>
	<OUTCOME>&apos;(0.338-0.34055]&apos;</OUTCOME>
	<OUTCOME>&apos;(0.34055-0.352974]&apos;</OUTCOME>
	<OUTCOME>&apos;(0.352974-0.372471]&apos;</OUTCOME>
	<OUTCOME>&apos;(0.372471-0.394315]&apos;</OUTCOME>
	<OUTCOME>&apos;(0.394315-0.459456]&apos;</OUTCOME>
	<OUTCOME>&apos;(0.459456-0.476577]&apos;</OUTCOME>
	<OUTCOME>&apos;(0.476577-0.555503]&apos;</OUTCOME>
	<OUTCOME>&apos;(0.555503-0.563905]&apos;</OUTCOME>
	<OUTCOME>&apos;(0.563905-0.647226]&apos;</OUTCOME>
	<OUTCOME>&apos;(0.647226-0.718228]&apos;</OUTCOME>
	<OUTCOME>&apos;(0.718228-inf)&apos;</OUTCOME>
	<PROPERTY>position = (225,450)</PROPERTY>
</VARIABLE>
<VARIABLE TYPE="nature">
	<NAME>V53</NAME>
	<OUTCOME>&apos;(-inf-0.096185]&apos;</OUTCOME>
	<OUTCOME>&apos;(0.096185-0.592957]&apos;</OUTCOME>
	<OUTCOME>&apos;(0.592957-0.724492]&apos;</OUTCOME>
	<OUTCOME>&apos;(0.724492-0.775403]&apos;</OUTCOME>
	<OUTCOME>&apos;(0.775403-0.802723]&apos;</OUTCOME>
	<OUTCOME>&apos;(0.802723-0.835869]&apos;</OUTCOME>
	<OUTCOME>&apos;(0.835869-0.876177]&apos;</OUTCOME>
	<OUTCOME>&apos;(0.876177-0.906963]&apos;</OUTCOME>
	<OUTCOME>&apos;(0.906963-0.915164]&apos;</OUTCOME>
	<OUTCOME>&apos;(0.915164-0.950244]&apos;</OUTCOME>
	<OUTCOME>&apos;(0.950244-0.957757]&apos;</OUTCOME>
	<OUTCOME>&apos;(0.957757-0.970552]&apos;</OUTCOME>
	<OUTCOME>&apos;(0.970552-0.978341]&apos;</OUTCOME>
	<OUTCOME>&apos;(0.978341-0.984036]&apos;</OUTCOME>
	<OUTCOME>&apos;(0.984036-inf)&apos;</OUTCOME>
	<PROPERTY>position = (135,450)</PROPERTY>
</VARIABLE>
<VARIABLE TYPE="nature">
	<NAME>V54</NAME>
	<OUTCOME>&apos;(-inf--0.760609]&apos;</OUTCOME>
	<OUTCOME>&apos;(-0.760609--0.529905]&apos;</OUTCOME>
	<OUTCOME>&apos;(-0.529905--0.440644]&apos;</OUTCOME>
	<OUTCOME>&apos;(-0.440644--0.391891]&apos;</OUTCOME>
	<OUTCOME>&apos;(-0.391891--0.373814]&apos;</OUTCOME>
	<OUTCOME>&apos;(-0.373814--0.335047]&apos;</OUTCOME>
	<OUTCOME>&apos;(-0.335047--0.281006]&apos;</OUTCOME>
	<OUTCOME>&apos;(-0.281006--0.235289]&apos;</OUTCOME>
	<OUTCOME>&apos;(-0.235289--0.207452]&apos;</OUTCOME>
	<OUTCOME>&apos;(-0.207452--0.175256]&apos;</OUTCOME>
	<OUTCOME>&apos;(-0.175256--0.145929]&apos;</OUTCOME>
	<OUTCOME>&apos;(-0.145929--0.102826]&apos;</OUTCOME>
	<OUTCOME>&apos;(-0.102826--0.058026]&apos;</OUTCOME>
	<OUTCOME>&apos;(-0.058026--0.030146]&apos;</OUTCOME>
	<OUTCOME>&apos;(-0.030146-0.026302]&apos;</OUTCOME>
	<OUTCOME>&apos;(0.026302-0.111227]&apos;</OUTCOME>
	<OUTCOME>&apos;(0.111227-0.141643]&apos;</OUTCOME>
	<OUTCOME>&apos;(0.141643-0.188938]&apos;</OUTCOME>
	<OUTCOME>&apos;(0.188938-0.196012]&apos;</OUTCOME>
	<OUTCOME>&apos;(0.196012-0.196268]&apos;</OUTCOME>
	<OUTCOME>&apos;(0.196268-0.201854]&apos;</OUTCOME>
	<OUTCOME>&apos;(0.201854-0.228067]&apos;</OUTCOME>
	<OUTCOME>&apos;(0.228067-0.364103]&apos;</OUTCOME>
	<OUTCOME>&apos;(0.364103-0.374449]&apos;</OUTCOME>
	<OUTCOME>&apos;(0.374449-0.429982]&apos;</OUTCOME>
	<OUTCOME>&apos;(0.429982-0.565103]&apos;</OUTCOME>
	<OUTCOME>&apos;(0.565103-0.620528]&apos;</OUTCOME>
	<OUTCOME>&apos;(0.620528-0.621949]&apos;</OUTCOME>
	<OUTCOME>&apos;(0.621949-inf)&apos;</OUTCOME>
	<PROPERTY>position = (225,180)</PROPERTY>
</VARIABLE>
<VARIABLE TYPE="nature">
	<NAME>V70</NAME>
	<OUTCOME>&apos;(-inf--0.822473]&apos;</OUTCOME>
	<OUTCOME>&apos;(-0.822473--0.778387]&apos;</OUTCOME>
	<OUTCOME>&apos;(-0.778387--0.682585]&apos;</OUTCOME>
	<OUTCOME>&apos;(-0.682585--0.584545]&apos;</OUTCOME>
	<OUTCOME>&apos;(-0.584545--0.446836]&apos;</OUTCOME>
	<OUTCOME>&apos;(-0.446836--0.371478]&apos;</OUTCOME>
	<OUTCOME>&apos;(-0.371478--0.241406]&apos;</OUTCOME>
	<OUTCOME>&apos;(-0.241406--0.16063]&apos;</OUTCOME>
	<OUTCOME>&apos;(-0.16063--0.036952]&apos;</OUTCOME>
	<OUTCOME>&apos;(-0.036952-0.225576]&apos;</OUTCOME>
	<OUTCOME>&apos;(0.225576-inf)&apos;</OUTCOME>
	<PROPERTY>position = (45,360)</PROPERTY>
</VARIABLE>
<VARIABLE TYPE="nature">
	<NAME>V80</NAME>
	<OUTCOME>&apos;(-inf--0.99002]&apos;</OUTCOME>
	<OUTCOME>&apos;(-0.99002--0.930246]&apos;</OUTCOME>
	<OUTCOME>&apos;(-0.930246--0.542844]&apos;</OUTCOME>
	<OUTCOME>&apos;(-0.542844-0.566474]&apos;</OUTCOME>
	<OUTCOME>&apos;(0.566474-0.914754]&apos;</OUTCOME>
	<OUTCOME>&apos;(0.914754-0.987418]&apos;</OUTCOME>
	<OUTCOME>&apos;(0.987418-inf)&apos;</OUTCOME>
	<PROPERTY>position = (405,540)</PROPERTY>
</VARIABLE>
<VARIABLE TYPE="nature">
	<NAME>V105</NAME>
	<OUTCOME>&apos;(-inf--0.069858]&apos;</OUTCOME>
	<OUTCOME>&apos;(-0.069858-0.0145]&apos;</OUTCOME>
	<OUTCOME>&apos;(0.0145-0.028745]&apos;</OUTCOME>
	<OUTCOME>&apos;(0.028745-0.128167]&apos;</OUTCOME>
	<OUTCOME>&apos;(0.128167-0.22739]&apos;</OUTCOME>
	<OUTCOME>&apos;(0.22739-0.487538]&apos;</OUTCOME>
	<OUTCOME>&apos;(0.487538-0.561432]&apos;</OUTCOME>
	<OUTCOME>&apos;(0.561432-0.732523]&apos;</OUTCOME>
	<OUTCOME>&apos;(0.732523-0.830865]&apos;</OUTCOME>
	<OUTCOME>&apos;(0.830865-inf)&apos;</OUTCOME>
	<PROPERTY>position = (945,540)</PROPERTY>
</VARIABLE>
<VARIABLE TYPE="nature">
	<NAME>V108</NAME>
	<OUTCOME>&apos;(-inf--0.251476]&apos;</OUTCOME>
	<OUTCOME>&apos;(-0.251476--0.11394]&apos;</OUTCOME>
	<OUTCOME>&apos;(-0.11394--0.001435]&apos;</OUTCOME>
	<OUTCOME>&apos;(-0.001435-0.108663]&apos;</OUTCOME>
	<OUTCOME>&apos;(0.108663-0.280502]&apos;</OUTCOME>
	<OUTCOME>&apos;(0.280502-0.419026]&apos;</OUTCOME>
	<OUTCOME>&apos;(0.419026-inf)&apos;</OUTCOME>
	<PROPERTY>position = (0,360)</PROPERTY>
</VARIABLE>
<VARIABLE TYPE="nature">
	<NAME>V121</NAME>
	<OUTCOME>&apos;(-inf--0.468524]&apos;</OUTCOME>
	<OUTCOME>&apos;(-0.468524--0.2842]&apos;</OUTCOME>
	<OUTCOME>&apos;(-0.2842--0.129685]&apos;</OUTCOME>
	<OUTCOME>&apos;(-0.129685--0.084545]&apos;</OUTCOME>
	<OUTCOME>&apos;(-0.084545--0.05211]&apos;</OUTCOME>
	<OUTCOME>&apos;(-0.05211--0.040274]&apos;</OUTCOME>
	<OUTCOME>&apos;(-0.040274--0.030297]&apos;</OUTCOME>
	<OUTCOME>&apos;(-0.030297--0.025446]&apos;</OUTCOME>
	<OUTCOME>&apos;(-0.025446--0.019981]&apos;</OUTCOME>
	<OUTCOME>&apos;(-0.019981--0.010715]&apos;</OUTCOME>
	<OUTCOME>&apos;(-0.010715-0.001687]&apos;</OUTCOME>
	<OUTCOME>&apos;(0.001687-0.067715]&apos;</OUTCOME>
	<OUTCOME>&apos;(0.067715-0.243678]&apos;</OUTCOME>
	<OUTCOME>&apos;(0.243678-0.530849]&apos;</OUTCOME>
	<OUTCOME>&apos;(0.530849-inf)&apos;</OUTCOME>
	<PROPERTY>position = (810,360)</PROPERTY>
</VARIABLE>
<VARIABLE TYPE="nature">
	<NAME>V158</NAME>
	<OUTCOME>&apos;(-inf--0.820039]&apos;</OUTCOME>
	<OUTCOME>&apos;(-0.820039--0.607864]&apos;</OUTCOME>
	<OUTCOME>&apos;(-0.607864--0.40478]&apos;</OUTCOME>
	<OUTCOME>&apos;(-0.40478-0.171113]&apos;</OUTCOME>
	<OUTCOME>&apos;(0.171113-0.425406]&apos;</OUTCOME>
	<OUTCOME>&apos;(0.425406-0.576623]&apos;</OUTCOME>
	<OUTCOME>&apos;(0.576623-0.836248]&apos;</OUTCOME>
	<OUTCOME>&apos;(0.836248-inf)&apos;</OUTCOME>
	<PROPERTY>position = (1035,630)</PROPERTY>
</VARIABLE>
<VARIABLE TYPE="nature">
	<NAME>V159</NAME>
	<OUTCOME>&apos;(-inf--0.842023]&apos;</OUTCOME>
	<OUTCOME>&apos;(-0.842023--0.670343]&apos;</OUTCOME>
	<OUTCOME>&apos;(-0.670343--0.336008]&apos;</OUTCOME>
	<OUTCOME>&apos;(-0.336008--0.186046]&apos;</OUTCOME>
	<OUTCOME>&apos;(-0.186046-0.272023]&apos;</OUTCOME>
	<OUTCOME>&apos;(0.272023-0.468688]&apos;</OUTCOME>
	<OUTCOME>&apos;(0.468688-0.683871]&apos;</OUTCOME>
	<OUTCOME>&apos;(0.683871-inf)&apos;</OUTCOME>
	<PROPERTY>position = (990,540)</PROPERTY>
</VARIABLE>
<VARIABLE TYPE="nature">
	<NAME>V160</NAME>
	<OUTCOME>&apos;(-inf--0.666366]&apos;</OUTCOME>
	<OUTCOME>&apos;(-0.666366--0.569249]&apos;</OUTCOME>
	<OUTCOME>&apos;(-0.569249--0.457379]&apos;</OUTCOME>
	<OUTCOME>&apos;(-0.457379--0.349079]&apos;</OUTCOME>
	<OUTCOME>&apos;(-0.349079--0.165187]&apos;</OUTCOME>
	<OUTCOME>&apos;(-0.165187-0.09762]&apos;</OUTCOME>
	<OUTCOME>&apos;(0.09762-0.278968]&apos;</OUTCOME>
	<OUTCOME>&apos;(0.278968-0.674588]&apos;</OUTCOME>
	<OUTCOME>&apos;(0.674588-0.797172]&apos;</OUTCOME>
	<OUTCOME>&apos;(0.797172-inf)&apos;</OUTCOME>
	<PROPERTY>position = (450,450)</PROPERTY>
</VARIABLE>
<VARIABLE TYPE="nature">
	<NAME>V303</NAME>
	<OUTCOME>&apos;(-inf--0.999985]&apos;</OUTCOME>
	<OUTCOME>&apos;(-0.999985--0.999904]&apos;</OUTCOME>
	<OUTCOME>&apos;(-0.999904--0.999484]&apos;</OUTCOME>
	<OUTCOME>&apos;(-0.999484--0.979572]&apos;</OUTCOME>
	<OUTCOME>&apos;(-0.979572--0.944334]&apos;</OUTCOME>
	<OUTCOME>&apos;(-0.944334--0.897812]&apos;</OUTCOME>
	<OUTCOME>&apos;(-0.897812--0.800669]&apos;</OUTCOME>
	<OUTCOME>&apos;(-0.800669--0.716584]&apos;</OUTCOME>
	<OUTCOME>&apos;(-0.716584--0.62823]&apos;</OUTCOME>
	<OUTCOME>&apos;(-0.62823--0.486602]&apos;</OUTCOME>
	<OUTCOME>&apos;(-0.486602--0.364068]&apos;</OUTCOME>
	<OUTCOME>&apos;(-0.364068--0.222995]&apos;</OUTCOME>
	<OUTCOME>&apos;(-0.222995-inf)&apos;</OUTCOME>
	<PROPERTY>position = (495,180)</PROPERTY>
</VARIABLE>
<VARIABLE TYPE="nature">
	<NAME>V370</NAME>
	<OUTCOME>&apos;(-inf--0.94]&apos;</OUTCOME>
	<OUTCOME>&apos;(-0.94--0.9]&apos;</OUTCOME>
	<OUTCOME>&apos;(-0.9--0.86]&apos;</OUTCOME>
	<OUTCOME>&apos;(-0.86--0.82]&apos;</OUTCOME>
	<OUTCOME>&apos;(-0.82--0.78]&apos;</OUTCOME>
	<OUTCOME>&apos;(-0.78--0.74]&apos;</OUTCOME>
	<OUTCOME>&apos;(-0.74--0.66]&apos;</OUTCOME>
	<OUTCOME>&apos;(-0.66--0.62]&apos;</OUTCOME>
	<OUTCOME>&apos;(-0.62--0.54]&apos;</OUTCOME>
	<OUTCOME>&apos;(-0.54--0.5]&apos;</OUTCOME>
	<OUTCOME>&apos;(-0.5--0.46]&apos;</OUTCOME>
	<OUTCOME>&apos;(-0.46--0.22]&apos;</OUTCOME>
	<OUTCOME>&apos;(-0.22--0.1]&apos;</OUTCOME>
	<OUTCOME>&apos;(-0.1-0.06]&apos;</OUTCOME>
	<OUTCOME>&apos;(0.06-inf)&apos;</OUTCOME>
	<PROPERTY>position = (270,270)</PROPERTY>
</VARIABLE>
<VARIABLE TYPE="nature">
	<NAME>V412</NAME>
	<OUTCOME>&apos;(-inf--0.996699]&apos;</OUTCOME>
	<OUTCOME>&apos;(-0.996699--0.992717]&apos;</OUTCOME>
	<OUTCOME>&apos;(-0.992717--0.98824]&apos;</OUTCOME>
	<OUTCOME>&apos;(-0.98824--0.978641]&apos;</OUTCOME>
	<OUTCOME>&apos;(-0.978641--0.936546]&apos;</OUTCOME>
	<OUTCOME>&apos;(-0.936546--0.910638]&apos;</OUTCOME>
	<OUTCOME>&apos;(-0.910638--0.844297]&apos;</OUTCOME>
	<OUTCOME>&apos;(-0.844297--0.719001]&apos;</OUTCOME>
	<OUTCOME>&apos;(-0.719001-inf)&apos;</OUTCOME>
	<PROPERTY>position = (900,450)</PROPERTY>
</VARIABLE>
<VARIABLE TYPE="nature">
	<NAME>V449</NAME>
	<OUTCOME>&apos;(-inf--0.966666]&apos;</OUTCOME>
	<OUTCOME>&apos;(-0.966666--0.9]&apos;</OUTCOME>
	<OUTCOME>&apos;(-0.9--0.833333]&apos;</OUTCOME>
	<OUTCOME>&apos;(-0.833333--0.766667]&apos;</OUTCOME>
	<OUTCOME>&apos;(-0.766667--0.7]&apos;</OUTCOME>
	<OUTCOME>&apos;(-0.7--0.633333]&apos;</OUTCOME>
	<OUTCOME>&apos;(-0.633333--0.566666]&apos;</OUTCOME>
	<OUTCOME>&apos;(-0.566666--0.366667]&apos;</OUTCOME>
	<OUTCOME>&apos;(-0.366667--0.233333]&apos;</OUTCOME>
	<OUTCOME>&apos;(-0.233333-inf)&apos;</OUTCOME>
	<PROPERTY>position = (540,450)</PROPERTY>
</VARIABLE>
<VARIABLE TYPE="nature">
	<NAME>V451</NAME>
	<OUTCOME>&apos;(-inf--0.965517]&apos;</OUTCOME>
	<OUTCOME>&apos;(-0.965517--0.896551]&apos;</OUTCOME>
	<OUTCOME>&apos;(-0.896551--0.827586]&apos;</OUTCOME>
	<OUTCOME>&apos;(-0.827586--0.75862]&apos;</OUTCOME>
	<OUTCOME>&apos;(-0.75862--0.689655]&apos;</OUTCOME>
	<OUTCOME>&apos;(-0.689655--0.62069]&apos;</OUTCOME>
	<OUTCOME>&apos;(-0.62069--0.551724]&apos;</OUTCOME>
	<OUTCOME>&apos;(-0.551724--0.482758]&apos;</OUTCOME>
	<OUTCOME>&apos;(-0.482758--0.206897]&apos;</OUTCOME>
	<OUTCOME>&apos;(-0.206897-inf)&apos;</OUTCOME>
	<PROPERTY>position = (495,360)</PROPERTY>
</VARIABLE>
<VARIABLE TYPE="nature">
	<NAME>V452</NAME>
	<OUTCOME>&apos;(-inf--0.534893]&apos;</OUTCOME>
	<OUTCOME>&apos;(-0.534893--0.390331]&apos;</OUTCOME>
	<OUTCOME>&apos;(-0.390331--0.256123]&apos;</OUTCOME>
	<OUTCOME>&apos;(-0.256123--0.091788]&apos;</OUTCOME>
	<OUTCOME>&apos;(-0.091788-0.152538]&apos;</OUTCOME>
	<OUTCOME>&apos;(0.152538-0.329371]&apos;</OUTCOME>
	<OUTCOME>&apos;(0.329371-inf)&apos;</OUTCOME>
	<PROPERTY>position = (675,360)</PROPERTY>
</VARIABLE>
<VARIABLE TYPE="nature">
	<NAME>V505</NAME>
	<OUTCOME>&apos;(-inf--0.993097]&apos;</OUTCOME>
	<OUTCOME>&apos;(-0.993097--0.983678]&apos;</OUTCOME>
	<OUTCOME>&apos;(-0.983678--0.952534]&apos;</OUTCOME>
	<OUTCOME>&apos;(-0.952534--0.696124]&apos;</OUTCOME>
	<OUTCOME>&apos;(-0.696124--0.649411]&apos;</OUTCOME>
	<OUTCOME>&apos;(-0.649411--0.522005]&apos;</OUTCOME>
	<OUTCOME>&apos;(-0.522005--0.413836]&apos;</OUTCOME>
	<OUTCOME>&apos;(-0.413836--0.166047]&apos;</OUTCOME>
	<OUTCOME>&apos;(-0.166047--0.085113]&apos;</OUTCOME>
	<OUTCOME>&apos;(-0.085113-0.01998]&apos;</OUTCOME>
	<OUTCOME>&apos;(0.01998-0.112411]&apos;</OUTCOME>
	<OUTCOME>&apos;(0.112411-0.220837]&apos;</OUTCOME>
	<OUTCOME>&apos;(0.220837-inf)&apos;</OUTCOME>
	<PROPERTY>position = (675,270)</PROPERTY>
</VARIABLE>
<VARIABLE TYPE="nature">
	<NAME>V519</NAME>
	<OUTCOME>&apos;(-inf--0.976518]&apos;</OUTCOME>
	<OUTCOME>&apos;(-0.976518--0.865861]&apos;</OUTCOME>
	<OUTCOME>&apos;(-0.865861--0.788472]&apos;</OUTCOME>
	<OUTCOME>&apos;(-0.788472--0.71542]&apos;</OUTCOME>
	<OUTCOME>&apos;(-0.71542--0.586639]&apos;</OUTCOME>
	<OUTCOME>&apos;(-0.586639--0.487625]&apos;</OUTCOME>
	<OUTCOME>&apos;(-0.487625--0.385736]&apos;</OUTCOME>
	<OUTCOME>&apos;(-0.385736--0.304021]&apos;</OUTCOME>
	<OUTCOME>&apos;(-0.304021--0.135854]&apos;</OUTCOME>
	<OUTCOME>&apos;(-0.135854-0.414386]&apos;</OUTCOME>
	<OUTCOME>&apos;(0.414386-inf)&apos;</OUTCOME>
	<PROPERTY>position = (900,360)</PROPERTY>
</VARIABLE>
<VARIABLE TYPE="nature">
	<NAME>V538</NAME>
	<OUTCOME>&apos;(-inf--0.974359]&apos;</OUTCOME>
	<OUTCOME>&apos;(-0.974359--0.871795]&apos;</OUTCOME>
	<OUTCOME>&apos;(-0.871795--0.820513]&apos;</OUTCOME>
	<OUTCOME>&apos;(-0.820513--0.769231]&apos;</OUTCOME>
	<OUTCOME>&apos;(-0.769231--0.666667]&apos;</OUTCOME>
	<OUTCOME>&apos;(-0.666667--0.615385]&apos;</OUTCOME>
	<OUTCOME>&apos;(-0.615385--0.25641]&apos;</OUTCOME>
	<OUTCOME>&apos;(-0.25641-inf)&apos;</OUTCOME>
	<PROPERTY>position = (495,450)</PROPERTY>
</VARIABLE>
<VARIABLE TYPE="nature">
	<NAME>V557</NAME>
	<OUTCOME>&apos;(-inf--0.912737]&apos;</OUTCOME>
	<OUTCOME>&apos;(-0.912737--0.767303]&apos;</OUTCOME>
	<OUTCOME>&apos;(-0.767303--0.695176]&apos;</OUTCOME>
	<OUTCOME>&apos;(-0.695176--0.561594]&apos;</OUTCOME>
	<OUTCOME>&apos;(-0.561594--0.436628]&apos;</OUTCOME>
	<OUTCOME>&apos;(-0.436628-0.261573]&apos;</OUTCOME>
	<OUTCOME>&apos;(0.261573-0.56223]&apos;</OUTCOME>
	<OUTCOME>&apos;(0.56223-0.732136]&apos;</OUTCOME>
	<OUTCOME>&apos;(0.732136-0.868185]&apos;</OUTCOME>
	<OUTCOME>&apos;(0.868185-0.921978]&apos;</OUTCOME>
	<OUTCOME>&apos;(0.921978-inf)&apos;</OUTCOME>
	<PROPERTY>position = (810,450)</PROPERTY>
</VARIABLE>
<VARIABLE TYPE="nature">
	<NAME>V558</NAME>
	<OUTCOME>&apos;(-inf--0.588847]&apos;</OUTCOME>
	<OUTCOME>&apos;(-0.588847--0.319955]&apos;</OUTCOME>
	<OUTCOME>&apos;(-0.319955-0.397201]&apos;</OUTCOME>
	<OUTCOME>&apos;(0.397201-0.582204]&apos;</OUTCOME>
	<OUTCOME>&apos;(0.582204-inf)&apos;</OUTCOME>
	<PROPERTY>position = (720,450)</PROPERTY>
</VARIABLE>
<VARIABLE TYPE="nature">
	<NAME>V559</NAME>
	<OUTCOME>&apos;(-inf--0.983011]&apos;</OUTCOME>
	<OUTCOME>&apos;(-0.983011--0.921426]&apos;</OUTCOME>
	<OUTCOME>&apos;(-0.921426--0.900246]&apos;</OUTCOME>
	<OUTCOME>&apos;(-0.900246--0.870258]&apos;</OUTCOME>
	<OUTCOME>&apos;(-0.870258--0.845636]&apos;</OUTCOME>
	<OUTCOME>&apos;(-0.845636--0.83465]&apos;</OUTCOME>
	<OUTCOME>&apos;(-0.83465--0.81172]&apos;</OUTCOME>
	<OUTCOME>&apos;(-0.81172--0.789106]&apos;</OUTCOME>
	<OUTCOME>&apos;(-0.789106--0.770513]&apos;</OUTCOME>
	<OUTCOME>&apos;(-0.770513--0.751937]&apos;</OUTCOME>
	<OUTCOME>&apos;(-0.751937--0.635966]&apos;</OUTCOME>
	<OUTCOME>&apos;(-0.635966--0.612389]&apos;</OUTCOME>
	<OUTCOME>&apos;(-0.612389--0.561671]&apos;</OUTCOME>
	<OUTCOME>&apos;(-0.561671--0.45801]&apos;</OUTCOME>
	<OUTCOME>&apos;(-0.45801--0.446169]&apos;</OUTCOME>
	<OUTCOME>&apos;(-0.446169--0.378555]&apos;</OUTCOME>
	<OUTCOME>&apos;(-0.378555--0.243885]&apos;</OUTCOME>
	<OUTCOME>&apos;(-0.243885-0.136399]&apos;</OUTCOME>
	<OUTCOME>&apos;(0.136399-inf)&apos;</OUTCOME>
	<PROPERTY>position = (180,360)</PROPERTY>
</VARIABLE>
<VARIABLE TYPE="nature">
	<NAME>Class</NAME>
	<OUTCOME>1</OUTCOME>
	<OUTCOME>2</OUTCOME>
	<OUTCOME>3</OUTCOME>
	<OUTCOME>4</OUTCOME>
	<OUTCOME>5</OUTCOME>
	<OUTCOME>6</OUTCOME>
	<PROPERTY>position = (540,0)</PROPERTY>
</VARIABLE>
<DEFINITION>
<FOR>V38</FOR>
	<GIVEN>Class</GIVEN>
<TABLE>
2.892681515765114E-4 2.892681515765114E-4 8.678044547295343E-4 0.01822389354932022 0.11368238356956899 0.19525600231414522 0.1946774660109922 0.27104425802719123 0.14550188024298524 0.05409314434480764 0.0054960948799537175 2.892681515765114E-4 2.892681515765114E-4 
3.224766204450177E-4 0.0016123831022250886 0.10029022895840052 0.14479200257981295 0.3047404063205418 0.2292808771364076 0.09255079006772009 0.07384714608190907 0.03257013866494679 0.015156401160915834 0.00419219606578523 3.224766204450177E-4 3.224766204450177E-4 
0.0010619469026548673 0.07469026548672567 0.2686725663716814 0.21699115044247788 0.24106194690265487 0.10088495575221239 0.03150442477876106 0.0215929203539823 0.008141592920353982 0.014513274336283187 0.018761061946902656 0.0017699115044247787 3.5398230088495576E-4 
0.04569666386319036 0.05242500700869078 0.08270255116344268 0.05803195962994113 0.1438183347350715 0.1376506868516961 0.08887019904681806 0.11970843846369499 0.11802635267731988 0.058592654892066165 0.058592654892066165 0.020465377067563777 0.015419119708438464 
0.00130718954248366 0.0049673202614379085 0.012287581699346406 0.02065359477124183 0.0677124183006536 0.07660130718954249 0.06562091503267974 0.1649673202614379 0.17437908496732027 0.15294117647058825 0.1419607843137255 0.0677124183006536 0.04888888888888889 
0.026403486285567802 0.020763906690592155 0.035631889259164315 0.02896693155601128 0.07459625736990515 0.09971802102025122 0.05767751858497821 0.12022558318379903 0.12894129710330685 0.08536272750576775 0.10484491156113818 0.0797231479107921 0.13714432196872597 
</TABLE>
</DEFINITION>
<DEFINITION>
<FOR>V42</FOR>
	<GIVEN>Class</GIVEN>
	<GIVEN>V54</GIVEN>
<TABLE>
0.03333333333333333 0.03333333333333333 0.03333333333333333 0.03333333333333333 0.03333333333333333 0.03333333333333333 0.03333333333333333 0.03333333333333333 0.03333333333333333 0.03333333333333333 0.03333333333333333 0.03333333333333333 0.03333333333333333 0.03333333333333333 0.03333333333333333 0.03333333333333333 0.03333333333333333 0.03333333333333333 0.03333333333333333 0.03333333333333333 0.03333333333333333 0.03333333333333333 0.03333333333333333 0.03333333333333333 0.03333333333333333 0.03333333333333333 0.03333333333333333 0.03333333333333333 0.03333333333333333 0.03333333333333333 
0.03333333333333333 0.03333333333333333 0.03333333333333333 0.03333333333333333 0.03333333333333333 0.03333333333333333 0.03333333333333333 0.03333333333333333 0.03333333333333333 0.03333333333333333 0.03333333333333333 0.03333333333333333 0.03333333333333333 0.03333333333333333 0.03333333333333333 0.03333333333333333 0.03333333333333333 0.03333333333333333 0.03333333333333333 0.03333333333333333 0.03333333333333333 0.03333333333333333 0.03333333333333333 0.03333333333333333 0.03333333333333333 0.03333333333333333 0.03333333333333333 0.03333333333333333 0.03333333333333333 0.03333333333333333 
0.03333333333333333 0.03333333333333333 0.03333333333333333 0.03333333333333333 0.03333333333333333 0.03333333333333333 0.03333333333333333 0.03333333333333333 0.03333333333333333 0.03333333333333333 0.03333333333333333 0.03333333333333333 0.03333333333333333 0.03333333333333333 0.03333333333333333 0.03333333333333333 0.03333333333333333 0.03333333333333333 0.03333333333333333 0.03333333333333333 0.03333333333333333 0.03333333333333333 0.03333333333333333 0.03333333333333333 0.03333333333333333 0.03333333333333333 0.03333333333333333 0.03333333333333333 0.03333333333333333 0.03333333333333333 
0.03333333333333333 0.03333333333333333 0.03333333333333333 0.03333333333333333 0.03333333333333333 0.03333333333333333 0.03333333333333333 0.03333333333333333 0.03333333333333333 0.03333333333333333 0.03333333333333333 0.03333333333333333 0.03333333333333333 0.03333333333333333 0.03333333333333333 0.03333333333333333 0.03333333333333333 0.03333333333333333 0.03333333333333333 0.03333333333333333 0.03333333333333333 0.03333333333333333 0.03333333333333333 0.03333333333333333 0.03333333333333333 0.03333333333333333 0.03333333333333333 0.03333333333333333 0.03333333333333333 0.03333333333333333 
0.03333333333333333 0.03333333333333333 0.03333333333333333 0.03333333333333333 0.03333333333333333 0.03333333333333333 0.03333333333333333 0.03333333333333333 0.03333333333333333 0.03333333333333333 0.03333333333333333 0.03333333333333333 0.03333333333333333 0.03333333333333333 0.03333333333333333 0.03333333333333333 0.03333333333333333 0.03333333333333333 0.03333333333333333 0.03333333333333333 0.03333333333333333 0.03333333333333333 0.03333333333333333 0.03333333333333333 0.03333333333333333 0.03333333333333333 0.03333333333333333 0.03333333333333333 0.03333333333333333 0.03333333333333333 
0.00510204081632653 0.00510204081632653 0.00510204081632653 0.00510204081632653 0.00510204081632653 0.015306122448979591 0.4642857142857143 0.3826530612244898 0.00510204081632653 0.00510204081632653 0.00510204081632653 0.00510204081632653 0.00510204081632653 0.00510204081632653 0.00510204081632653 0.00510204081632653 0.00510204081632653 0.00510204081632653 0.00510204081632653 0.00510204081632653 0.00510204081632653 0.00510204081632653 0.00510204081632653 0.00510204081632653 0.00510204081632653 0.00510204081632653 0.00510204081632653 0.00510204081632653 0.00510204081632653 0.00510204081632653 
0.0035971223021582736 0.0035971223021582736 0.0035971223021582736 0.0035971223021582736 0.0035971223021582736 0.0035971223021582736 0.0035971223021582736 0.7949640287769785 0.08273381294964029 0.025179856115107913 0.0035971223021582736 0.0035971223021582736 0.0035971223021582736 0.0035971223021582736 0.0035971223021582736 0.0035971223021582736 0.0035971223021582736 0.0035971223021582736 0.0035971223021582736 0.0035971223021582736 0.0035971223021582736 0.0035971223021582736 0.0035971223021582736 0.0035971223021582736 0.0035971223021582736 0.0035971223021582736 0.0035971223021582736 0.0035971223021582736 0.0035971223021582736 0.0035971223021582736 
0.0015290519877675841 0.0015290519877675841 0.0015290519877675841 0.0015290519877675841 0.0015290519877675841 0.0015290519877675841 0.0015290519877675841 0.0015290519877675841 0.10550458715596331 0.8516819571865444 0.0015290519877675841 0.0015290519877675841 0.0015290519877675841 0.0015290519877675841 0.0015290519877675841 0.0015290519877675841 0.0015290519877675841 0.0015290519877675841 0.0015290519877675841 0.0015290519877675841 0.0015290519877675841 0.0015290519877675841 0.0015290519877675841 0.0015290519877675841 0.0015290519877675841 0.0015290519877675841 0.0015290519877675841 0.0015290519877675841 0.0015290519877675841 0.0015290519877675841 
0.0026455026455026454 0.0026455026455026454 0.0026455026455026454 0.0026455026455026454 0.0026455026455026454 0.0026455026455026454 0.0026455026455026454 0.0026455026455026454 0.0026455026455026454 0.917989417989418 0.0026455026455026454 0.007936507936507936 0.0026455026455026454 0.0026455026455026454 0.0026455026455026454 0.0026455026455026454 0.0026455026455026454 0.0026455026455026454 0.0026455026455026454 0.0026455026455026454 0.0026455026455026454 0.0026455026455026454 0.0026455026455026454 0.0026455026455026454 0.0026455026455026454 0.0026455026455026454 0.0026455026455026454 0.0026455026455026454 0.0026455026455026454 0.0026455026455026454 
0.002074688796680498 0.002074688796680498 0.002074688796680498 0.002074688796680498 0.002074688796680498 0.002074688796680498 0.002074688796680498 0.002074688796680498 0.002074688796680498 0.6784232365145229 0.22199170124481327 0.03941908713692946 0.006224066390041493 0.002074688796680498 0.002074688796680498 0.002074688796680498 0.002074688796680498 0.002074688796680498 0.002074688796680498 0.002074688796680498 0.002074688796680498 0.002074688796680498 0.002074688796680498 0.002074688796680498 0.002074688796680498 0.002074688796680498 0.002074688796680498 0.002074688796680498 0.002074688796680498 0.002074688796680498 
0.0034965034965034965 0.0034965034965034965 0.0034965034965034965 0.0034965034965034965 0.0034965034965034965 0.0034965034965034965 0.0034965034965034965 0.0034965034965034965 0.0034965034965034965 0.0034965034965034965 0.017482517482517484 0.6608391608391608 0.22727272727272727 0.0034965034965034965 0.0034965034965034965 0.0034965034965034965 0.0034965034965034965 0.0034965034965034965 0.0034965034965034965 0.0034965034965034965 0.0034965034965034965 0.0034965034965034965 0.0034965034965034965 0.0034965034965034965 0.0034965034965034965 0.0034965034965034965 0.0034965034965034965 0.0034965034965034965 0.0034965034965034965 0.0034965034965034965 
0.0013333333333333333 0.0013333333333333333 0.0013333333333333333 0.0013333333333333333 0.0013333333333333333 0.0013333333333333333 0.0013333333333333333 0.0013333333333333333 0.0013333333333333333 0.0013333333333333333 0.0013333333333333333 0.006666666666666667 0.94 0.017333333333333333 0.0013333333333333333 0.0013333333333333333 0.0013333333333333333 0.0013333333333333333 0.0013333333333333333 0.0013333333333333333 0.0013333333333333333 0.0013333333333333333 0.0013333333333333333 0.0013333333333333333 0.0013333333333333333 0.0013333333333333333 0.0013333333333333333 0.0013333333333333333 0.0013333333333333333 0.0013333333333333333 
0.002631578947368421 0.002631578947368421 0.002631578947368421 0.002631578947368421 0.002631578947368421 0.002631578947368421 0.002631578947368421 0.002631578947368421 0.002631578947368421 0.002631578947368421 0.002631578947368421 0.002631578947368421 0.07631578947368421 0.5921052631578947 0.26052631578947366 0.002631578947368421 0.002631578947368421 0.002631578947368421 0.002631578947368421 0.002631578947368421 0.002631578947368421 0.002631578947368421 0.002631578947368421 0.002631578947368421 0.002631578947368421 0.002631578947368421 0.002631578947368421 0.002631578947368421 0.002631578947368421 0.002631578947368421 
0.00684931506849315 0.00684931506849315 0.00684931506849315 0.00684931506849315 0.00684931506849315 0.00684931506849315 0.00684931506849315 0.00684931506849315 0.00684931506849315 0.00684931506849315 0.00684931506849315 0.00684931506849315 0.00684931506849315 0.00684931506849315 0.7328767123287672 0.07534246575342465 0.00684931506849315 0.00684931506849315 0.00684931506849315 0.00684931506849315 0.00684931506849315 0.00684931506849315 0.00684931506849315 0.00684931506849315 0.00684931506849315 0.00684931506849315 0.00684931506849315 0.00684931506849315 0.00684931506849315 0.00684931506849315 
0.023809523809523808 0.023809523809523808 0.023809523809523808 0.023809523809523808 0.023809523809523808 0.023809523809523808 0.023809523809523808 0.023809523809523808 0.023809523809523808 0.023809523809523808 0.023809523809523808 0.023809523809523808 0.023809523809523808 0.023809523809523808 0.023809523809523808 0.2619047619047619 0.023809523809523808 0.023809523809523808 0.07142857142857142 0.023809523809523808 0.023809523809523808 0.023809523809523808 0.023809523809523808 0.023809523809523808 0.023809523809523808 0.023809523809523808 0.023809523809523808 0.023809523809523808 0.023809523809523808 0.023809523809523808 
0.005747126436781609 0.005747126436781609 0.005747126436781609 0.005747126436781609 0.005747126436781609 0.005747126436781609 0.005747126436781609 0.005747126436781609 0.005747126436781609 0.005747126436781609 0.005747126436781609 0.005747126436781609 0.005747126436781609 0.005747126436781609 0.005747126436781609 0.005747126436781609 0.005747126436781609 0.005747126436781609 0.5804597701149425 0.017241379310344827 0.2471264367816092 0.005747126436781609 0.005747126436781609 0.005747126436781609 0.005747126436781609 0.005747126436781609 0.005747126436781609 0.005747126436781609 0.005747126436781609 0.005747126436781609 
0.02631578947368421 0.02631578947368421 0.02631578947368421 0.02631578947368421 0.02631578947368421 0.02631578947368421 0.02631578947368421 0.02631578947368421 0.02631578947368421 0.02631578947368421 0.02631578947368421 0.02631578947368421 0.02631578947368421 0.02631578947368421 0.02631578947368421 0.02631578947368421 0.02631578947368421 0.02631578947368421 0.02631578947368421 0.02631578947368421 0.23684210526315788 0.02631578947368421 0.02631578947368421 0.02631578947368421 0.02631578947368421 0.02631578947368421 0.02631578947368421 0.02631578947368421 0.02631578947368421 0.02631578947368421 
0.03333333333333333 0.03333333333333333 0.03333333333333333 0.03333333333333333 0.03333333333333333 0.03333333333333333 0.03333333333333333 0.03333333333333333 0.03333333333333333 0.03333333333333333 0.03333333333333333 0.03333333333333333 0.03333333333333333 0.03333333333333333 0.03333333333333333 0.03333333333333333 0.03333333333333333 0.03333333333333333 0.03333333333333333 0.03333333333333333 0.03333333333333333 0.03333333333333333 0.03333333333333333 0.03333333333333333 0.03333333333333333 0.03333333333333333 0.03333333333333333 0.03333333333333333 0.03333333333333333 0.03333333333333333 
0.03333333333333333 0.03333333333333333 0.03333333333333333 0.03333333333333333 0.03333333333333333 0.03333333333333333 0.03333333333333333 0.03333333333333333 0.03333333333333333 0.03333333333333333 0.03333333333333333 0.03333333333333333 0.03333333333333333 0.03333333333333333 0.03333333333333333 0.03333333333333333 0.03333333333333333 0.03333333333333333 0.03333333333333333 0.03333333333333333 0.03333333333333333 0.03333333333333333 0.03333333333333333 0.03333333333333333 0.03333333333333333 0.03333333333333333 0.03333333333333333 0.03333333333333333 0.03333333333333333 0.03333333333333333 
0.03333333333333333 0.03333333333333333 0.03333333333333333 0.03333333333333333 0.03333333333333333 0.03333333333333333 0.03333333333333333 0.03333333333333333 0.03333333333333333 0.03333333333333333 0.03333333333333333 0.03333333333333333 0.03333333333333333 0.03333333333333333 0.03333333333333333 0.03333333333333333 0.03333333333333333 0.03333333333333333 0.03333333333333333 0.03333333333333333 0.03333333333333333 0.03333333333333333 0.03333333333333333 0.03333333333333333 0.03333333333333333 0.03333333333333333 0.03333333333333333 0.03333333333333333 0.03333333333333333 0.03333333333333333 
0.03333333333333333 0.03333333333333333 0.03333333333333333 0.03333333333333333 0.03333333333333333 0.03333333333333333 0.03333333333333333 0.03333333333333333 0.03333333333333333 0.03333333333333333 0.03333333333333333 0.03333333333333333 0.03333333333333333 0.03333333333333333 0.03333333333333333 0.03333333333333333 0.03333333333333333 0.03333333333333333 0.03333333333333333 0.03333333333333333 0.03333333333333333 0.03333333333333333 0.03333333333333333 0.03333333333333333 0.03333333333333333 0.03333333333333333 0.03333333333333333 0.03333333333333333 0.03333333333333333 0.03333333333333333 
0.03333333333333333 0.03333333333333333 0.03333333333333333 0.03333333333333333 0.03333333333333333 0.03333333333333333 0.03333333333333333 0.03333333333333333 0.03333333333333333 0.03333333333333333 0.03333333333333333 0.03333333333333333 0.03333333333333333 0.03333333333333333 0.03333333333333333 0.03333333333333333 0.03333333333333333 0.03333333333333333 0.03333333333333333 0.03333333333333333 0.03333333333333333 0.03333333333333333 0.03333333333333333 0.03333333333333333 0.03333333333333333 0.03333333333333333 0.03333333333333333 0.03333333333333333 0.03333333333333333 0.03333333333333333 
0.03333333333333333 0.03333333333333333 0.03333333333333333 0.03333333333333333 0.03333333333333333 0.03333333333333333 0.03333333333333333 0.03333333333333333 0.03333333333333333 0.03333333333333333 0.03333333333333333 0.03333333333333333 0.03333333333333333 0.03333333333333333 0.03333333333333333 0.03333333333333333 0.03333333333333333 0.03333333333333333 0.03333333333333333 0.03333333333333333 0.03333333333333333 0.03333333333333333 0.03333333333333333 0.03333333333333333 0.03333333333333333 0.03333333333333333 0.03333333333333333 0.03333333333333333 0.03333333333333333 0.03333333333333333 
0.03333333333333333 0.03333333333333333 0.03333333333333333 0.03333333333333333 0.03333333333333333 0.03333333333333333 0.03333333333333333 0.03333333333333333 0.03333333333333333 0.03333333333333333 0.03333333333333333 0.03333333333333333 0.03333333333333333 0.03333333333333333 0.03333333333333333 0.03333333333333333 0.03333333333333333 0.03333333333333333 0.03333333333333333 0.03333333333333333 0.03333333333333333 0.03333333333333333 0.03333333333333333 0.03333333333333333 0.03333333333333333 0.03333333333333333 0.03333333333333333 0.03333333333333333 0.03333333333333333 0.03333333333333333 
0.03333333333333333 0.03333333333333333 0.03333333333333333 0.03333333333333333 0.03333333333333333 0.03333333333333333 0.03333333333333333 0.03333333333333333 0.03333333333333333 0.03333333333333333 0.03333333333333333 0.03333333333333333 0.03333333333333333 0.03333333333333333 0.03333333333333333 0.03333333333333333 0.03333333333333333 0.03333333333333333 0.03333333333333333 0.03333333333333333 0.03333333333333333 0.03333333333333333 0.03333333333333333 0.03333333333333333 0.03333333333333333 0.03333333333333333 0.03333333333333333 0.03333333333333333 0.03333333333333333 0.03333333333333333 
0.03333333333333333 0.03333333333333333 0.03333333333333333 0.03333333333333333 0.03333333333333333 0.03333333333333333 0.03333333333333333 0.03333333333333333 0.03333333333333333 0.03333333333333333 0.03333333333333333 0.03333333333333333 0.03333333333333333 0.03333333333333333 0.03333333333333333 0.03333333333333333 0.03333333333333333 0.03333333333333333 0.03333333333333333 0.03333333333333333 0.03333333333333333 0.03333333333333333 0.03333333333333333 0.03333333333333333 0.03333333333333333 0.03333333333333333 0.03333333333333333 0.03333333333333333 0.03333333333333333 0.03333333333333333 
0.03333333333333333 0.03333333333333333 0.03333333333333333 0.03333333333333333 0.03333333333333333 0.03333333333333333 0.03333333333333333 0.03333333333333333 0.03333333333333333 0.03333333333333333 0.03333333333333333 0.03333333333333333 0.03333333333333333 0.03333333333333333 0.03333333333333333 0.03333333333333333 0.03333333333333333 0.03333333333333333 0.03333333333333333 0.03333333333333333 0.03333333333333333 0.03333333333333333 0.03333333333333333 0.03333333333333333 0.03333333333333333 0.03333333333333333 0.03333333333333333 0.03333333333333333 0.03333333333333333 0.03333333333333333 
0.03333333333333333 0.03333333333333333 0.03333333333333333 0.03333333333333333 0.03333333333333333 0.03333333333333333 0.03333333333333333 0.03333333333333333 0.03333333333333333 0.03333333333333333 0.03333333333333333 0.03333333333333333 0.03333333333333333 0.03333333333333333 0.03333333333333333 0.03333333333333333 0.03333333333333333 0.03333333333333333 0.03333333333333333 0.03333333333333333 0.03333333333333333 0.03333333333333333 0.03333333333333333 0.03333333333333333 0.03333333333333333 0.03333333333333333 0.03333333333333333 0.03333333333333333 0.03333333333333333 0.03333333333333333 
0.03333333333333333 0.03333333333333333 0.03333333333333333 0.03333333333333333 0.03333333333333333 0.03333333333333333 0.03333333333333333 0.03333333333333333 0.03333333333333333 0.03333333333333333 0.03333333333333333 0.03333333333333333 0.03333333333333333 0.03333333333333333 0.03333333333333333 0.03333333333333333 0.03333333333333333 0.03333333333333333 0.03333333333333333 0.03333333333333333 0.03333333333333333 0.03333333333333333 0.03333333333333333 0.03333333333333333 0.03333333333333333 0.03333333333333333 0.03333333333333333 0.03333333333333333 0.03333333333333333 0.03333333333333333 
0.03333333333333333 0.03333333333333333 0.03333333333333333 0.03333333333333333 0.03333333333333333 0.03333333333333333 0.03333333333333333 0.03333333333333333 0.03333333333333333 0.03333333333333333 0.03333333333333333 0.03333333333333333 0.03333333333333333 0.03333333333333333 0.03333333333333333 0.03333333333333333 0.03333333333333333 0.03333333333333333 0.03333333333333333 0.03333333333333333 0.03333333333333333 0.03333333333333333 0.03333333333333333 0.03333333333333333 0.03333333333333333 0.03333333333333333 0.03333333333333333 0.03333333333333333 0.03333333333333333 0.03333333333333333 
0.03333333333333333 0.03333333333333333 0.03333333333333333 0.03333333333333333 0.03333333333333333 0.03333333333333333 0.03333333333333333 0.03333333333333333 0.03333333333333333 0.03333333333333333 0.03333333333333333 0.03333333333333333 0.03333333333333333 0.03333333333333333 0.03333333333333333 0.03333333333333333 0.03333333333333333 0.03333333333333333 0.03333333333333333 0.03333333333333333 0.03333333333333333 0.03333333333333333 0.03333333333333333 0.03333333333333333 0.03333333333333333 0.03333333333333333 0.03333333333333333 0.03333333333333333 0.03333333333333333 0.03333333333333333 
0.0056179775280898875 0.0056179775280898875 0.5337078651685393 0.28651685393258425 0.0056179775280898875 0.0056179775280898875 0.028089887640449437 0.0056179775280898875 0.0056179775280898875 0.0056179775280898875 0.0056179775280898875 0.0056179775280898875 0.0056179775280898875 0.0056179775280898875 0.0056179775280898875 0.0056179775280898875 0.0056179775280898875 0.0056179775280898875 0.0056179775280898875 0.0056179775280898875 0.0056179775280898875 0.0056179775280898875 0.0056179775280898875 0.0056179775280898875 0.0056179775280898875 0.0056179775280898875 0.0056179775280898875 0.0056179775280898875 0.0056179775280898875 0.0056179775280898875 
0.0048543689320388345 0.0048543689320388345 0.0048543689320388345 0.7427184466019418 0.043689320388349516 0.03398058252427184 0.024271844660194174 0.03398058252427184 0.0048543689320388345 0.0048543689320388345 0.0048543689320388345 0.0048543689320388345 0.0048543689320388345 0.0048543689320388345 0.0048543689320388345 0.0048543689320388345 0.0048543689320388345 0.0048543689320388345 0.0048543689320388345 0.0048543689320388345 0.0048543689320388345 0.0048543689320388345 0.0048543689320388345 0.0048543689320388345 0.0048543689320388345 0.0048543689320388345 0.0048543689320388345 0.0048543689320388345 0.0048543689320388345 0.0048543689320388345 
0.0058823529411764705 0.0058823529411764705 0.0058823529411764705 0.14705882352941177 0.22941176470588234 0.2647058823529412 0.1588235294117647 0.052941176470588235 0.0058823529411764705 0.0058823529411764705 0.0058823529411764705 0.0058823529411764705 0.0058823529411764705 0.0058823529411764705 0.0058823529411764705 0.0058823529411764705 0.0058823529411764705 0.0058823529411764705 0.0058823529411764705 0.0058823529411764705 0.0058823529411764705 0.0058823529411764705 0.0058823529411764705 0.0058823529411764705 0.0058823529411764705 0.0058823529411764705 0.0058823529411764705 0.0058823529411764705 0.0058823529411764705 0.0058823529411764705 
0.002976190476190476 0.002976190476190476 0.002976190476190476 0.002976190476190476 0.008928571428571428 0.11011904761904762 0.2648809523809524 0.5327380952380952 0.008928571428571428 0.002976190476190476 0.002976190476190476 0.002976190476190476 0.002976190476190476 0.002976190476190476 0.002976190476190476 0.002976190476190476 0.002976190476190476 0.002976190476190476 0.002976190476190476 0.002976190476190476 0.002976190476190476 0.002976190476190476 0.002976190476190476 0.002976190476190476 0.002976190476190476 0.002976190476190476 0.002976190476190476 0.002976190476190476 0.002976190476190476 0.002976190476190476 
0.001141552511415525 0.001141552511415525 0.001141552511415525 0.001141552511415525 0.001141552511415525 0.001141552511415525 0.001141552511415525 0.7408675799086758 0.12442922374429223 0.10159817351598173 0.003424657534246575 0.001141552511415525 0.001141552511415525 0.001141552511415525 0.001141552511415525 0.001141552511415525 0.001141552511415525 0.001141552511415525 0.001141552511415525 0.001141552511415525 0.001141552511415525 0.001141552511415525 0.001141552511415525 0.001141552511415525 0.001141552511415525 0.001141552511415525 0.001141552511415525 0.001141552511415525 0.001141552511415525 0.001141552511415525 
0.0023148148148148147 0.0023148148148148147 0.0023148148148148147 0.0023148148148148147 0.0023148148148148147 0.0023148148148148147 0.0023148148148148147 0.0023148148148148147 0.03935185185185185 0.8726851851851852 0.011574074074074073 0.006944444444444444 0.011574074074074073 0.0023148148148148147 0.0023148148148148147 0.0023148148148148147 0.0023148148148148147 0.0023148148148148147 0.0023148148148148147 0.0023148148148148147 0.0023148148148148147 0.0023148148148148147 0.0023148148148148147 0.0023148148148148147 0.0023148148148148147 0.0023148148148148147 0.0023148148148148147 0.0023148148148148147 0.0023148148148148147 0.0023148148148148147 
0.001718213058419244 0.001718213058419244 0.001718213058419244 0.001718213058419244 0.001718213058419244 0.001718213058419244 0.001718213058419244 0.001718213058419244 0.001718213058419244 0.8539518900343642 0.06357388316151202 0.03264604810996564 0.005154639175257732 0.001718213058419244 0.001718213058419244 0.001718213058419244 0.001718213058419244 0.001718213058419244 0.001718213058419244 0.001718213058419244 0.001718213058419244 0.001718213058419244 0.001718213058419244 0.001718213058419244 0.001718213058419244 0.001718213058419244 0.001718213058419244 0.001718213058419244 0.001718213058419244 0.001718213058419244 
0.003355704697986577 0.003355704697986577 0.003355704697986577 0.003355704697986577 0.003355704697986577 0.003355704697986577 0.003355704697986577 0.003355704697986577 0.003355704697986577 0.2181208053691275 0.3926174496644295 0.23154362416107382 0.07046979865771812 0.003355704697986577 0.003355704697986577 0.003355704697986577 0.003355704697986577 0.003355704697986577 0.003355704697986577 0.003355704697986577 0.003355704697986577 0.003355704697986577 0.003355704697986577 0.003355704697986577 0.003355704697986577 0.003355704697986577 0.003355704697986577 0.003355704697986577 0.003355704697986577 0.003355704697986577 
0.010869565217391304 0.010869565217391304 0.010869565217391304 0.010869565217391304 0.010869565217391304 0.010869565217391304 0.010869565217391304 0.010869565217391304 0.010869565217391304 0.010869565217391304 0.010869565217391304 0.3804347826086957 0.31521739130434784 0.010869565217391304 0.010869565217391304 0.010869565217391304 0.010869565217391304 0.010869565217391304 0.010869565217391304 0.010869565217391304 0.010869565217391304 0.010869565217391304 0.010869565217391304 0.010869565217391304 0.010869565217391304 0.010869565217391304 0.010869565217391304 0.010869565217391304 0.010869565217391304 0.010869565217391304 
0.013513513513513514 0.013513513513513514 0.013513513513513514 0.013513513513513514 0.013513513513513514 0.013513513513513514 0.013513513513513514 0.013513513513513514 0.013513513513513514 0.013513513513513514 0.013513513513513514 0.013513513513513514 0.5 0.0945945945945946 0.04054054054054054 0.013513513513513514 0.013513513513513514 0.013513513513513514 0.013513513513513514 0.013513513513513514 0.013513513513513514 0.013513513513513514 0.013513513513513514 0.013513513513513514 0.013513513513513514 0.013513513513513514 0.013513513513513514 0.013513513513513514 0.013513513513513514 0.013513513513513514 
0.03125 0.03125 0.03125 0.03125 0.03125 0.03125 0.03125 0.03125 0.03125 0.03125 0.03125 0.03125 0.03125 0.03125 0.09375 0.03125 0.03125 0.03125 0.03125 0.03125 0.03125 0.03125 0.03125 0.03125 0.03125 0.03125 0.03125 0.03125 0.03125 0.03125 
0.03333333333333333 0.03333333333333333 0.03333333333333333 0.03333333333333333 0.03333333333333333 0.03333333333333333 0.03333333333333333 0.03333333333333333 0.03333333333333333 0.03333333333333333 0.03333333333333333 0.03333333333333333 0.03333333333333333 0.03333333333333333 0.03333333333333333 0.03333333333333333 0.03333333333333333 0.03333333333333333 0.03333333333333333 0.03333333333333333 0.03333333333333333 0.03333333333333333 0.03333333333333333 0.03333333333333333 0.03333333333333333 0.03333333333333333 0.03333333333333333 0.03333333333333333 0.03333333333333333 0.03333333333333333 
0.029411764705882353 0.029411764705882353 0.029411764705882353 0.029411764705882353 0.029411764705882353 0.029411764705882353 0.029411764705882353 0.029411764705882353 0.029411764705882353 0.029411764705882353 0.029411764705882353 0.029411764705882353 0.029411764705882353 0.029411764705882353 0.029411764705882353 0.029411764705882353 0.029411764705882353 0.029411764705882353 0.14705882352941177 0.029411764705882353 0.029411764705882353 0.029411764705882353 0.029411764705882353 0.029411764705882353 0.029411764705882353 0.029411764705882353 0.029411764705882353 0.029411764705882353 0.029411764705882353 0.029411764705882353 
0.012195121951219513 0.012195121951219513 0.012195121951219513 0.012195121951219513 0.012195121951219513 0.012195121951219513 0.012195121951219513 0.012195121951219513 0.012195121951219513 0.012195121951219513 0.012195121951219513 0.012195121951219513 0.012195121951219513 0.012195121951219513 0.012195121951219513 0.012195121951219513 0.012195121951219513 0.012195121951219513 0.06097560975609756 0.18292682926829268 0.3048780487804878 0.13414634146341464 0.012195121951219513 0.012195121951219513 0.012195121951219513 0.012195121951219513 0.012195121951219513 0.012195121951219513 0.012195121951219513 0.012195121951219513 
0.023809523809523808 0.023809523809523808 0.023809523809523808 0.023809523809523808 0.023809523809523808 0.023809523809523808 0.023809523809523808 0.023809523809523808 0.023809523809523808 0.023809523809523808 0.023809523809523808 0.023809523809523808 0.023809523809523808 0.023809523809523808 0.023809523809523808 0.023809523809523808 0.023809523809523808 0.023809523809523808 0.023809523809523808 0.023809523809523808 0.023809523809523808 0.30952380952380953 0.023809523809523808 0.023809523809523808 0.023809523809523808 0.023809523809523808 0.023809523809523808 0.023809523809523808 0.023809523809523808 0.023809523809523808 
0.00980392156862745 0.00980392156862745 0.00980392156862745 0.00980392156862745 0.00980392156862745 0.00980392156862745 0.00980392156862745 0.00980392156862745 0.00980392156862745 0.00980392156862745 0.00980392156862745 0.00980392156862745 0.00980392156862745 0.00980392156862745 0.00980392156862745 0.00980392156862745 0.00980392156862745 0.00980392156862745 0.00980392156862745 0.00980392156862745 0.00980392156862745 0.5980392156862745 0.029411764705882353 0.10784313725490197 0.00980392156862745 0.00980392156862745 0.00980392156862745 0.00980392156862745 0.00980392156862745 0.00980392156862745 
0.03333333333333333 0.03333333333333333 0.03333333333333333 0.03333333333333333 0.03333333333333333 0.03333333333333333 0.03333333333333333 0.03333333333333333 0.03333333333333333 0.03333333333333333 0.03333333333333333 0.03333333333333333 0.03333333333333333 0.03333333333333333 0.03333333333333333 0.03333333333333333 0.03333333333333333 0.03333333333333333 0.03333333333333333 0.03333333333333333 0.03333333333333333 0.03333333333333333 0.03333333333333333 0.03333333333333333 0.03333333333333333 0.03333333333333333 0.03333333333333333 0.03333333333333333 0.03333333333333333 0.03333333333333333 
0.03333333333333333 0.03333333333333333 0.03333333333333333 0.03333333333333333 0.03333333333333333 0.03333333333333333 0.03333333333333333 0.03333333333333333 0.03333333333333333 0.03333333333333333 0.03333333333333333 0.03333333333333333 0.03333333333333333 0.03333333333333333 0.03333333333333333 0.03333333333333333 0.03333333333333333 0.03333333333333333 0.03333333333333333 0.03333333333333333 0.03333333333333333 0.03333333333333333 0.03333333333333333 0.03333333333333333 0.03333333333333333 0.03333333333333333 0.03333333333333333 0.03333333333333333 0.03333333333333333 0.03333333333333333 
0.03333333333333333 0.03333333333333333 0.03333333333333333 0.03333333333333333 0.03333333333333333 0.03333333333333333 0.03333333333333333 0.03333333333333333 0.03333333333333333 0.03333333333333333 0.03333333333333333 0.03333333333333333 0.03333333333333333 0.03333333333333333 0.03333333333333333 0.03333333333333333 0.03333333333333333 0.03333333333333333 0.03333333333333333 0.03333333333333333 0.03333333333333333 0.03333333333333333 0.03333333333333333 0.03333333333333333 0.03333333333333333 0.03333333333333333 0.03333333333333333 0.03333333333333333 0.03333333333333333 0.03333333333333333 
0.03125 0.03125 0.03125 0.03125 0.03125 0.03125 0.03125 0.03125 0.03125 0.03125 0.03125 0.03125 0.03125 0.03125 0.03125 0.03125 0.03125 0.03125 0.03125 0.03125 0.03125 0.03125 0.03125 0.09375 0.03125 0.03125 0.03125 0.03125 0.03125 0.03125 
0.03333333333333333 0.03333333333333333 0.03333333333333333 0.03333333333333333 0.03333333333333333 0.03333333333333333 0.03333333333333333 0.03333333333333333 0.03333333333333333 0.03333333333333333 0.03333333333333333 0.03333333333333333 0.03333333333333333 0.03333333333333333 0.03333333333333333 0.03333333333333333 0.03333333333333333 0.03333333333333333 0.03333333333333333 0.03333333333333333 0.03333333333333333 0.03333333333333333 0.03333333333333333 0.03333333333333333 0.03333333333333333 0.03333333333333333 0.03333333333333333 0.03333333333333333 0.03333333333333333 0.03333333333333333 
0.03333333333333333 0.03333333333333333 0.03333333333333333 0.03333333333333333 0.03333333333333333 0.03333333333333333 0.03333333333333333 0.03333333333333333 0.03333333333333333 0.03333333333333333 0.03333333333333333 0.03333333333333333 0.03333333333333333 0.03333333333333333 0.03333333333333333 0.03333333333333333 0.03333333333333333 0.03333333333333333 0.03333333333333333 0.03333333333333333 0.03333333333333333 0.03333333333333333 0.03333333333333333 0.03333333333333333 0.03333333333333333 0.03333333333333333 0.03333333333333333 0.03333333333333333 0.03333333333333333 0.03333333333333333 
0.03333333333333333 0.03333333333333333 0.03333333333333333 0.03333333333333333 0.03333333333333333 0.03333333333333333 0.03333333333333333 0.03333333333333333 0.03333333333333333 0.03333333333333333 0.03333333333333333 0.03333333333333333 0.03333333333333333 0.03333333333333333 0.03333333333333333 0.03333333333333333 0.03333333333333333 0.03333333333333333 0.03333333333333333 0.03333333333333333 0.03333333333333333 0.03333333333333333 0.03333333333333333 0.03333333333333333 0.03333333333333333 0.03333333333333333 0.03333333333333333 0.03333333333333333 0.03333333333333333 0.03333333333333333 
0.03333333333333333 0.03333333333333333 0.03333333333333333 0.03333333333333333 0.03333333333333333 0.03333333333333333 0.03333333333333333 0.03333333333333333 0.03333333333333333 0.03333333333333333 0.03333333333333333 0.03333333333333333 0.03333333333333333 0.03333333333333333 0.03333333333333333 0.03333333333333333 0.03333333333333333 0.03333333333333333 0.03333333333333333 0.03333333333333333 0.03333333333333333 0.03333333333333333 0.03333333333333333 0.03333333333333333 0.03333333333333333 0.03333333333333333 0.03333333333333333 0.03333333333333333 0.03333333333333333 0.03333333333333333 
0.03333333333333333 0.03333333333333333 0.03333333333333333 0.03333333333333333 0.03333333333333333 0.03333333333333333 0.03333333333333333 0.03333333333333333 0.03333333333333333 0.03333333333333333 0.03333333333333333 0.03333333333333333 0.03333333333333333 0.03333333333333333 0.03333333333333333 0.03333333333333333 0.03333333333333333 0.03333333333333333 0.03333333333333333 0.03333333333333333 0.03333333333333333 0.03333333333333333 0.03333333333333333 0.03333333333333333 0.03333333333333333 0.03333333333333333 0.03333333333333333 0.03333333333333333 0.03333333333333333 0.03333333333333333 
0.03333333333333333 0.03333333333333333 0.03333333333333333 0.03333333333333333 0.03333333333333333 0.03333333333333333 0.03333333333333333 0.03333333333333333 0.03333333333333333 0.03333333333333333 0.03333333333333333 0.03333333333333333 0.03333333333333333 0.03333333333333333 0.03333333333333333 0.03333333333333333 0.03333333333333333 0.03333333333333333 0.03333333333333333 0.03333333333333333 0.03333333333333333 0.03333333333333333 0.03333333333333333 0.03333333333333333 0.03333333333333333 0.03333333333333333 0.03333333333333333 0.03333333333333333 0.03333333333333333 0.03333333333333333 
0.03333333333333333 0.03333333333333333 0.03333333333333333 0.03333333333333333 0.03333333333333333 0.03333333333333333 0.03333333333333333 0.03333333333333333 0.03333333333333333 0.03333333333333333 0.03333333333333333 0.03333333333333333 0.03333333333333333 0.03333333333333333 0.03333333333333333 0.03333333333333333 0.03333333333333333 0.03333333333333333 0.03333333333333333 0.03333333333333333 0.03333333333333333 0.03333333333333333 0.03333333333333333 0.03333333333333333 0.03333333333333333 0.03333333333333333 0.03333333333333333 0.03333333333333333 0.03333333333333333 0.03333333333333333 
0.03333333333333333 0.03333333333333333 0.03333333333333333 0.03333333333333333 0.03333333333333333 0.03333333333333333 0.03333333333333333 0.03333333333333333 0.03333333333333333 0.03333333333333333 0.03333333333333333 0.03333333333333333 0.03333333333333333 0.03333333333333333 0.03333333333333333 0.03333333333333333 0.03333333333333333 0.03333333333333333 0.03333333333333333 0.03333333333333333 0.03333333333333333 0.03333333333333333 0.03333333333333333 0.03333333333333333 0.03333333333333333 0.03333333333333333 0.03333333333333333 0.03333333333333333 0.03333333333333333 0.03333333333333333 
0.03333333333333333 0.03333333333333333 0.03333333333333333 0.03333333333333333 0.03333333333333333 0.03333333333333333 0.03333333333333333 0.03333333333333333 0.03333333333333333 0.03333333333333333 0.03333333333333333 0.03333333333333333 0.03333333333333333 0.03333333333333333 0.03333333333333333 0.03333333333333333 0.03333333333333333 0.03333333333333333 0.03333333333333333 0.03333333333333333 0.03333333333333333 0.03333333333333333 0.03333333333333333 0.03333333333333333 0.03333333333333333 0.03333333333333333 0.03333333333333333 0.03333333333333333 0.03333333333333333 0.03333333333333333 
0.03125 0.03125 0.03125 0.03125 0.03125 0.03125 0.03125 0.09375 0.03125 0.03125 0.03125 0.03125 0.03125 0.03125 0.03125 0.03125 0.03125 0.03125 0.03125 0.03125 0.03125 0.03125 0.03125 0.03125 0.03125 0.03125 0.03125 0.03125 0.03125 0.03125 
0.027777777777777776 0.027777777777777776 0.027777777777777776 0.027777777777777776 0.08333333333333333 0.027777777777777776 0.1388888888888889 0.027777777777777776 0.027777777777777776 0.027777777777777776 0.027777777777777776 0.027777777777777776 0.027777777777777776 0.027777777777777776 0.027777777777777776 0.027777777777777776 0.027777777777777776 0.027777777777777776 0.027777777777777776 0.027777777777777776 0.027777777777777776 0.027777777777777776 0.027777777777777776 0.027777777777777776 0.027777777777777776 0.027777777777777776 0.027777777777777776 0.027777777777777776 0.027777777777777776 0.027777777777777776 
0.029411764705882353 0.029411764705882353 0.029411764705882353 0.029411764705882353 0.029411764705882353 0.029411764705882353 0.08823529411764706 0.029411764705882353 0.029411764705882353 0.08823529411764706 0.029411764705882353 0.029411764705882353 0.029411764705882353 0.029411764705882353 0.029411764705882353 0.029411764705882353 0.029411764705882353 0.029411764705882353 0.029411764705882353 0.029411764705882353 0.029411764705882353 0.029411764705882353 0.029411764705882353 0.029411764705882353 0.029411764705882353 0.029411764705882353 0.029411764705882353 0.029411764705882353 0.029411764705882353 0.029411764705882353 
0.008771929824561403 0.008771929824561403 0.008771929824561403 0.008771929824561403 0.008771929824561403 0.008771929824561403 0.09649122807017543 0.6578947368421053 0.008771929824561403 0.008771929824561403 0.008771929824561403 0.008771929824561403 0.008771929824561403 0.008771929824561403 0.008771929824561403 0.008771929824561403 0.008771929824561403 0.008771929824561403 0.008771929824561403 0.008771929824561403 0.008771929824561403 0.008771929824561403 0.008771929824561403 0.008771929824561403 0.008771929824561403 0.008771929824561403 0.008771929824561403 0.008771929824561403 0.008771929824561403 0.008771929824561403 
0.005747126436781609 0.005747126436781609 0.005747126436781609 0.005747126436781609 0.005747126436781609 0.005747126436781609 0.005747126436781609 0.5344827586206896 0.08620689655172414 0.22413793103448276 0.005747126436781609 0.005747126436781609 0.005747126436781609 0.005747126436781609 0.005747126436781609 0.005747126436781609 0.005747126436781609 0.005747126436781609 0.005747126436781609 0.005747126436781609 0.005747126436781609 0.005747126436781609 0.005747126436781609 0.005747126436781609 0.005747126436781609 0.005747126436781609 0.005747126436781609 0.005747126436781609 0.005747126436781609 0.005747126436781609 
0.0029239766081871343 0.0029239766081871343 0.0029239766081871343 0.0029239766081871343 0.0029239766081871343 0.0029239766081871343 0.0029239766081871343 0.0029239766081871343 0.014619883040935672 0.8859649122807017 0.02046783625730994 0.0029239766081871343 0.0029239766081871343 0.0029239766081871343 0.0029239766081871343 0.0029239766081871343 0.0029239766081871343 0.0029239766081871343 0.0029239766081871343 0.0029239766081871343 0.0029239766081871343 0.0029239766081871343 0.0029239766081871343 0.0029239766081871343 0.0029239766081871343 0.0029239766081871343 0.0029239766081871343 0.0029239766081871343 0.0029239766081871343 0.0029239766081871343 
0.002403846153846154 0.002403846153846154 0.002403846153846154 0.002403846153846154 0.002403846153846154 0.002403846153846154 0.002403846153846154 0.002403846153846154 0.002403846153846154 0.8245192307692307 0.0889423076923077 0.01201923076923077 0.01201923076923077 0.002403846153846154 0.002403846153846154 0.002403846153846154 0.002403846153846154 0.002403846153846154 0.002403846153846154 0.002403846153846154 0.002403846153846154 0.002403846153846154 0.002403846153846154 0.002403846153846154 0.002403846153846154 0.002403846153846154 0.002403846153846154 0.002403846153846154 0.002403846153846154 0.002403846153846154 
0.0022624434389140274 0.0022624434389140274 0.0022624434389140274 0.0022624434389140274 0.0022624434389140274 0.0022624434389140274 0.0022624434389140274 0.0022624434389140274 0.0022624434389140274 0.22850678733031674 0.45475113122171945 0.21945701357466063 0.029411764705882353 0.006787330316742082 0.006787330316742082 0.0022624434389140274 0.0022624434389140274 0.0022624434389140274 0.0022624434389140274 0.0022624434389140274 0.0022624434389140274 0.0022624434389140274 0.0022624434389140274 0.0022624434389140274 0.0022624434389140274 0.0022624434389140274 0.0022624434389140274 0.0022624434389140274 0.0022624434389140274 0.0022624434389140274 
0.0031847133757961785 0.0031847133757961785 0.0031847133757961785 0.0031847133757961785 0.0031847133757961785 0.0031847133757961785 0.0031847133757961785 0.0031847133757961785 0.0031847133757961785 0.0031847133757961785 0.01592356687898089 0.4681528662420382 0.3853503184713376 0.041401273885350316 0.009554140127388535 0.0031847133757961785 0.0031847133757961785 0.0031847133757961785 0.0031847133757961785 0.0031847133757961785 0.0031847133757961785 0.0031847133757961785 0.0031847133757961785 0.0031847133757961785 0.0031847133757961785 0.0031847133757961785 0.0031847133757961785 0.0031847133757961785 0.0031847133757961785 0.0031847133757961785 
0.00273224043715847 0.00273224043715847 0.00273224043715847 0.00273224043715847 0.00273224043715847 0.00273224043715847 0.00273224043715847 0.00273224043715847 0.00273224043715847 0.00273224043715847 0.00273224043715847 0.00273224043715847 0.6857923497267759 0.21584699453551912 0.02459016393442623 0.00273224043715847 0.00273224043715847 0.00273224043715847 0.00273224043715847 0.00273224043715847 0.00273224043715847 0.00273224043715847 0.00273224043715847 0.00273224043715847 0.00273224043715847 0.00273224043715847 0.00273224043715847 0.00273224043715847 0.00273224043715847 0.00273224043715847 
0.002066115702479339 0.002066115702479339 0.002066115702479339 0.002066115702479339 0.002066115702479339 0.002066115702479339 0.002066115702479339 0.002066115702479339 0.002066115702479339 0.002066115702479339 0.002066115702479339 0.002066115702479339 0.014462809917355372 0.4731404958677686 0.44008264462809915 0.014462809917355372 0.006198347107438017 0.002066115702479339 0.002066115702479339 0.002066115702479339 0.002066115702479339 0.002066115702479339 0.002066115702479339 0.002066115702479339 0.002066115702479339 0.002066115702479339 0.002066115702479339 0.002066115702479339 0.002066115702479339 0.002066115702479339 
0.0049504950495049506 0.0049504950495049506 0.0049504950495049506 0.0049504950495049506 0.0049504950495049506 0.0049504950495049506 0.0049504950495049506 0.0049504950495049506 0.0049504950495049506 0.0049504950495049506 0.0049504950495049506 0.0049504950495049506 0.0049504950495049506 0.0049504950495049506 0.6485148514851485 0.21287128712871287 0.0049504950495049506 0.0049504950495049506 0.0049504950495049506 0.0049504950495049506 0.0049504950495049506 0.0049504950495049506 0.0049504950495049506 0.0049504950495049506 0.0049504950495049506 0.0049504950495049506 0.0049504950495049506 0.0049504950495049506 0.0049504950495049506 0.0049504950495049506 
0.00625 0.00625 0.00625 0.00625 0.00625 0.00625 0.00625 0.00625 0.00625 0.00625 0.00625 0.00625 0.00625 0.00625 0.00625 0.18125 0.25625 0.34375 0.05625 0.00625 0.00625 0.00625 0.00625 0.00625 0.00625 0.00625 0.00625 0.00625 0.00625 0.00625 
0.008771929824561403 0.008771929824561403 0.008771929824561403 0.008771929824561403 0.008771929824561403 0.008771929824561403 0.008771929824561403 0.008771929824561403 0.008771929824561403 0.008771929824561403 0.008771929824561403 0.008771929824561403 0.008771929824561403 0.008771929824561403 0.008771929824561403 0.008771929824561403 0.008771929824561403 0.008771929824561403 0.30701754385964913 0.07894736842105263 0.37719298245614036 0.008771929824561403 0.008771929824561403 0.008771929824561403 0.008771929824561403 0.008771929824561403 0.008771929824561403 0.008771929824561403 0.008771929824561403 0.008771929824561403 
0.03125 0.03125 0.03125 0.03125 0.03125 0.03125 0.03125 0.03125 0.03125 0.03125 0.03125 0.03125 0.03125 0.03125 0.03125 0.03125 0.03125 0.03125 0.03125 0.03125 0.09375 0.03125 0.03125 0.03125 0.03125 0.03125 0.03125 0.03125 0.03125 0.03125 
0.03333333333333333 0.03333333333333333 0.03333333333333333 0.03333333333333333 0.03333333333333333 0.03333333333333333 0.03333333333333333 0.03333333333333333 0.03333333333333333 0.03333333333333333 0.03333333333333333 0.03333333333333333 0.03333333333333333 0.03333333333333333 0.03333333333333333 0.03333333333333333 0.03333333333333333 0.03333333333333333 0.03333333333333333 0.03333333333333333 0.03333333333333333 0.03333333333333333 0.03333333333333333 0.03333333333333333 0.03333333333333333 0.03333333333333333 0.03333333333333333 0.03333333333333333 0.03333333333333333 0.03333333333333333 
0.03333333333333333 0.03333333333333333 0.03333333333333333 0.03333333333333333 0.03333333333333333 0.03333333333333333 0.03333333333333333 0.03333333333333333 0.03333333333333333 0.03333333333333333 0.03333333333333333 0.03333333333333333 0.03333333333333333 0.03333333333333333 0.03333333333333333 0.03333333333333333 0.03333333333333333 0.03333333333333333 0.03333333333333333 0.03333333333333333 0.03333333333333333 0.03333333333333333 0.03333333333333333 0.03333333333333333 0.03333333333333333 0.03333333333333333 0.03333333333333333 0.03333333333333333 0.03333333333333333 0.03333333333333333 
0.03333333333333333 0.03333333333333333 0.03333333333333333 0.03333333333333333 0.03333333333333333 0.03333333333333333 0.03333333333333333 0.03333333333333333 0.03333333333333333 0.03333333333333333 0.03333333333333333 0.03333333333333333 0.03333333333333333 0.03333333333333333 0.03333333333333333 0.03333333333333333 0.03333333333333333 0.03333333333333333 0.03333333333333333 0.03333333333333333 0.03333333333333333 0.03333333333333333 0.03333333333333333 0.03333333333333333 0.03333333333333333 0.03333333333333333 0.03333333333333333 0.03333333333333333 0.03333333333333333 0.03333333333333333 
0.03333333333333333 0.03333333333333333 0.03333333333333333 0.03333333333333333 0.03333333333333333 0.03333333333333333 0.03333333333333333 0.03333333333333333 0.03333333333333333 0.03333333333333333 0.03333333333333333 0.03333333333333333 0.03333333333333333 0.03333333333333333 0.03333333333333333 0.03333333333333333 0.03333333333333333 0.03333333333333333 0.03333333333333333 0.03333333333333333 0.03333333333333333 0.03333333333333333 0.03333333333333333 0.03333333333333333 0.03333333333333333 0.03333333333333333 0.03333333333333333 0.03333333333333333 0.03333333333333333 0.03333333333333333 
0.03333333333333333 0.03333333333333333 0.03333333333333333 0.03333333333333333 0.03333333333333333 0.03333333333333333 0.03333333333333333 0.03333333333333333 0.03333333333333333 0.03333333333333333 0.03333333333333333 0.03333333333333333 0.03333333333333333 0.03333333333333333 0.03333333333333333 0.03333333333333333 0.03333333333333333 0.03333333333333333 0.03333333333333333 0.03333333333333333 0.03333333333333333 0.03333333333333333 0.03333333333333333 0.03333333333333333 0.03333333333333333 0.03333333333333333 0.03333333333333333 0.03333333333333333 0.03333333333333333 0.03333333333333333 
0.03333333333333333 0.03333333333333333 0.03333333333333333 0.03333333333333333 0.03333333333333333 0.03333333333333333 0.03333333333333333 0.03333333333333333 0.03333333333333333 0.03333333333333333 0.03333333333333333 0.03333333333333333 0.03333333333333333 0.03333333333333333 0.03333333333333333 0.03333333333333333 0.03333333333333333 0.03333333333333333 0.03333333333333333 0.03333333333333333 0.03333333333333333 0.03333333333333333 0.03333333333333333 0.03333333333333333 0.03333333333333333 0.03333333333333333 0.03333333333333333 0.03333333333333333 0.03333333333333333 0.03333333333333333 
0.03333333333333333 0.03333333333333333 0.03333333333333333 0.03333333333333333 0.03333333333333333 0.03333333333333333 0.03333333333333333 0.03333333333333333 0.03333333333333333 0.03333333333333333 0.03333333333333333 0.03333333333333333 0.03333333333333333 0.03333333333333333 0.03333333333333333 0.03333333333333333 0.03333333333333333 0.03333333333333333 0.03333333333333333 0.03333333333333333 0.03333333333333333 0.03333333333333333 0.03333333333333333 0.03333333333333333 0.03333333333333333 0.03333333333333333 0.03333333333333333 0.03333333333333333 0.03333333333333333 0.03333333333333333 
0.03333333333333333 0.03333333333333333 0.03333333333333333 0.03333333333333333 0.03333333333333333 0.03333333333333333 0.03333333333333333 0.03333333333333333 0.03333333333333333 0.03333333333333333 0.03333333333333333 0.03333333333333333 0.03333333333333333 0.03333333333333333 0.03333333333333333 0.03333333333333333 0.03333333333333333 0.03333333333333333 0.03333333333333333 0.03333333333333333 0.03333333333333333 0.03333333333333333 0.03333333333333333 0.03333333333333333 0.03333333333333333 0.03333333333333333 0.03333333333333333 0.03333333333333333 0.03333333333333333 0.03333333333333333 
0.03333333333333333 0.03333333333333333 0.03333333333333333 0.03333333333333333 0.03333333333333333 0.03333333333333333 0.03333333333333333 0.03333333333333333 0.03333333333333333 0.03333333333333333 0.03333333333333333 0.03333333333333333 0.03333333333333333 0.03333333333333333 0.03333333333333333 0.03333333333333333 0.03333333333333333 0.03333333333333333 0.03333333333333333 0.03333333333333333 0.03333333333333333 0.03333333333333333 0.03333333333333333 0.03333333333333333 0.03333333333333333 0.03333333333333333 0.03333333333333333 0.03333333333333333 0.03333333333333333 0.03333333333333333 
0.03333333333333333 0.03333333333333333 0.03333333333333333 0.03333333333333333 0.03333333333333333 0.03333333333333333 0.03333333333333333 0.03333333333333333 0.03333333333333333 0.03333333333333333 0.03333333333333333 0.03333333333333333 0.03333333333333333 0.03333333333333333 0.03333333333333333 0.03333333333333333 0.03333333333333333 0.03333333333333333 0.03333333333333333 0.03333333333333333 0.03333333333333333 0.03333333333333333 0.03333333333333333 0.03333333333333333 0.03333333333333333 0.03333333333333333 0.03333333333333333 0.03333333333333333 0.03333333333333333 0.03333333333333333 
0.03333333333333333 0.03333333333333333 0.03333333333333333 0.03333333333333333 0.03333333333333333 0.03333333333333333 0.03333333333333333 0.03333333333333333 0.03333333333333333 0.03333333333333333 0.03333333333333333 0.03333333333333333 0.03333333333333333 0.03333333333333333 0.03333333333333333 0.03333333333333333 0.03333333333333333 0.03333333333333333 0.03333333333333333 0.03333333333333333 0.03333333333333333 0.03333333333333333 0.03333333333333333 0.03333333333333333 0.03333333333333333 0.03333333333333333 0.03333333333333333 0.03333333333333333 0.03333333333333333 0.03333333333333333 
0.03333333333333333 0.03333333333333333 0.03333333333333333 0.03333333333333333 0.03333333333333333 0.03333333333333333 0.03333333333333333 0.03333333333333333 0.03333333333333333 0.03333333333333333 0.03333333333333333 0.03333333333333333 0.03333333333333333 0.03333333333333333 0.03333333333333333 0.03333333333333333 0.03333333333333333 0.03333333333333333 0.03333333333333333 0.03333333333333333 0.03333333333333333 0.03333333333333333 0.03333333333333333 0.03333333333333333 0.03333333333333333 0.03333333333333333 0.03333333333333333 0.03333333333333333 0.03333333333333333 0.03333333333333333 
0.03333333333333333 0.03333333333333333 0.03333333333333333 0.03333333333333333 0.03333333333333333 0.03333333333333333 0.03333333333333333 0.03333333333333333 0.03333333333333333 0.03333333333333333 0.03333333333333333 0.03333333333333333 0.03333333333333333 0.03333333333333333 0.03333333333333333 0.03333333333333333 0.03333333333333333 0.03333333333333333 0.03333333333333333 0.03333333333333333 0.03333333333333333 0.03333333333333333 0.03333333333333333 0.03333333333333333 0.03333333333333333 0.03333333333333333 0.03333333333333333 0.03333333333333333 0.03333333333333333 0.03333333333333333 
0.015625 0.515625 0.046875 0.015625 0.015625 0.015625 0.015625 0.015625 0.015625 0.015625 0.015625 0.015625 0.015625 0.015625 0.015625 0.015625 0.015625 0.015625 0.015625 0.015625 0.015625 0.015625 0.015625 0.015625 0.015625 0.015625 0.015625 0.015625 0.015625 0.015625 
0.03125 0.03125 0.03125 0.03125 0.03125 0.03125 0.03125 0.03125 0.03125 0.03125 0.03125 0.03125 0.03125 0.09375 0.03125 0.03125 0.03125 0.03125 0.03125 0.03125 0.03125 0.03125 0.03125 0.03125 0.03125 0.03125 0.03125 0.03125 0.03125 0.03125 
0.03333333333333333 0.03333333333333333 0.03333333333333333 0.03333333333333333 0.03333333333333333 0.03333333333333333 0.03333333333333333 0.03333333333333333 0.03333333333333333 0.03333333333333333 0.03333333333333333 0.03333333333333333 0.03333333333333333 0.03333333333333333 0.03333333333333333 0.03333333333333333 0.03333333333333333 0.03333333333333333 0.03333333333333333 0.03333333333333333 0.03333333333333333 0.03333333333333333 0.03333333333333333 0.03333333333333333 0.03333333333333333 0.03333333333333333 0.03333333333333333 0.03333333333333333 0.03333333333333333 0.03333333333333333 
0.023809523809523808 0.023809523809523808 0.023809523809523808 0.21428571428571427 0.023809523809523808 0.023809523809523808 0.023809523809523808 0.07142857142857142 0.023809523809523808 0.023809523809523808 0.023809523809523808 0.07142857142857142 0.023809523809523808 0.023809523809523808 0.023809523809523808 0.023809523809523808 0.023809523809523808 0.023809523809523808 0.023809523809523808 0.023809523809523808 0.023809523809523808 0.023809523809523808 0.023809523809523808 0.023809523809523808 0.023809523809523808 0.023809523809523808 0.023809523809523808 0.023809523809523808 0.023809523809523808 0.023809523809523808 
0.029411764705882353 0.029411764705882353 0.029411764705882353 0.029411764705882353 0.029411764705882353 0.029411764705882353 0.029411764705882353 0.029411764705882353 0.029411764705882353 0.08823529411764706 0.029411764705882353 0.029411764705882353 0.029411764705882353 0.029411764705882353 0.029411764705882353 0.029411764705882353 0.08823529411764706 0.029411764705882353 0.029411764705882353 0.029411764705882353 0.029411764705882353 0.029411764705882353 0.029411764705882353 0.029411764705882353 0.029411764705882353 0.029411764705882353 0.029411764705882353 0.029411764705882353 0.029411764705882353 0.029411764705882353 
0.022727272727272728 0.022727272727272728 0.022727272727272728 0.022727272727272728 0.022727272727272728 0.022727272727272728 0.022727272727272728 0.1590909090909091 0.1590909090909091 0.06818181818181818 0.022727272727272728 0.022727272727272728 0.022727272727272728 0.022727272727272728 0.022727272727272728 0.022727272727272728 0.022727272727272728 0.022727272727272728 0.022727272727272728 0.022727272727272728 0.022727272727272728 0.022727272727272728 0.022727272727272728 0.022727272727272728 0.022727272727272728 0.022727272727272728 0.022727272727272728 0.022727272727272728 0.022727272727272728 0.022727272727272728 
0.018518518518518517 0.018518518518518517 0.018518518518518517 0.018518518518518517 0.018518518518518517 0.018518518518518517 0.018518518518518517 0.018518518518518517 0.3148148148148148 0.018518518518518517 0.018518518518518517 0.018518518518518517 0.018518518518518517 0.05555555555555555 0.05555555555555555 0.018518518518518517 0.018518518518518517 0.018518518518518517 0.05555555555555555 0.018518518518518517 0.05555555555555555 0.018518518518518517 0.018518518518518517 0.018518518518518517 0.018518518518518517 0.018518518518518517 0.018518518518518517 0.018518518518518517 0.018518518518518517 0.018518518518518517 
0.020833333333333332 0.020833333333333332 0.020833333333333332 0.020833333333333332 0.020833333333333332 0.020833333333333332 0.020833333333333332 0.020833333333333332 0.020833333333333332 0.1875 0.0625 0.0625 0.0625 0.020833333333333332 0.020833333333333332 0.020833333333333332 0.020833333333333332 0.020833333333333332 0.020833333333333332 0.020833333333333332 0.020833333333333332 0.0625 0.020833333333333332 0.020833333333333332 0.0625 0.020833333333333332 0.020833333333333332 0.020833333333333332 0.020833333333333332 0.020833333333333332 
0.013888888888888888 0.013888888888888888 0.013888888888888888 0.013888888888888888 0.013888888888888888 0.013888888888888888 0.013888888888888888 0.013888888888888888 0.013888888888888888 0.4583333333333333 0.06944444444444445 0.013888888888888888 0.013888888888888888 0.041666666666666664 0.013888888888888888 0.013888888888888888 0.013888888888888888 0.013888888888888888 0.041666666666666664 0.013888888888888888 0.013888888888888888 0.013888888888888888 0.013888888888888888 0.013888888888888888 0.041666666666666664 0.013888888888888888 0.013888888888888888 0.013888888888888888 0.013888888888888888 0.013888888888888888 
0.023809523809523808 0.023809523809523808 0.023809523809523808 0.023809523809523808 0.023809523809523808 0.023809523809523808 0.023809523809523808 0.023809523809523808 0.023809523809523808 0.023809523809523808 0.023809523809523808 0.023809523809523808 0.11904761904761904 0.07142857142857142 0.07142857142857142 0.023809523809523808 0.07142857142857142 0.023809523809523808 0.023809523809523808 0.023809523809523808 0.023809523809523808 0.07142857142857142 0.023809523809523808 0.023809523809523808 0.023809523809523808 0.023809523809523808 0.023809523809523808 0.023809523809523808 0.023809523809523808 0.023809523809523808 
0.004901960784313725 0.004901960784313725 0.004901960784313725 0.004901960784313725 0.004901960784313725 0.004901960784313725 0.004901960784313725 0.004901960784313725 0.004901960784313725 0.004901960784313725 0.004901960784313725 0.004901960784313725 0.6813725490196079 0.06372549019607843 0.06372549019607843 0.024509803921568627 0.004901960784313725 0.024509803921568627 0.014705882352941176 0.004901960784313725 0.004901960784313725 0.004901960784313725 0.004901960784313725 0.004901960784313725 0.014705882352941176 0.004901960784313725 0.004901960784313725 0.004901960784313725 0.004901960784313725 0.004901960784313725 
0.0056179775280898875 0.0056179775280898875 0.0056179775280898875 0.0056179775280898875 0.0056179775280898875 0.0056179775280898875 0.0056179775280898875 0.0056179775280898875 0.0056179775280898875 0.0056179775280898875 0.0056179775280898875 0.0056179775280898875 0.11797752808988764 0.3202247191011236 0.2752808988764045 0.05056179775280899 0.028089887640449437 0.0056179775280898875 0.016853932584269662 0.0056179775280898875 0.0056179775280898875 0.028089887640449437 0.0056179775280898875 0.0056179775280898875 0.028089887640449437 0.016853932584269662 0.0056179775280898875 0.0056179775280898875 0.0056179775280898875 0.0056179775280898875 
0.00423728813559322 0.00423728813559322 0.00423728813559322 0.00423728813559322 0.00423728813559322 0.00423728813559322 0.00423728813559322 0.00423728813559322 0.00423728813559322 0.00423728813559322 0.00423728813559322 0.00423728813559322 0.00423728813559322 0.00423728813559322 0.690677966101695 0.08898305084745763 0.029661016949152543 0.012711864406779662 0.046610169491525424 0.00423728813559322 0.012711864406779662 0.012711864406779662 0.00423728813559322 0.00423728813559322 0.00423728813559322 0.00423728813559322 0.012711864406779662 0.00423728813559322 0.00423728813559322 0.00423728813559322 
0.0016339869281045752 0.0016339869281045752 0.0016339869281045752 0.0016339869281045752 0.0016339869281045752 0.0016339869281045752 0.0016339869281045752 0.0016339869281045752 0.0016339869281045752 0.0016339869281045752 0.0016339869281045752 0.0016339869281045752 0.0016339869281045752 0.0016339869281045752 0.011437908496732025 0.4526143790849673 0.18137254901960784 0.2173202614379085 0.08986928104575163 0.0016339869281045752 0.0016339869281045752 0.004901960784313725 0.0016339869281045752 0.0016339869281045752 0.004901960784313725 0.0016339869281045752 0.0016339869281045752 0.0016339869281045752 0.0016339869281045752 0.0016339869281045752 
0.0015723270440251573 0.0015723270440251573 0.0015723270440251573 0.0015723270440251573 0.0015723270440251573 0.0015723270440251573 0.0015723270440251573 0.0015723270440251573 0.0015723270440251573 0.0015723270440251573 0.0015723270440251573 0.0015723270440251573 0.0015723270440251573 0.0015723270440251573 0.0015723270440251573 0.0015723270440251573 0.0015723270440251573 0.0330188679245283 0.470125786163522 0.1871069182389937 0.21855345911949686 0.029874213836477988 0.0047169811320754715 0.0110062893081761 0.007861635220125786 0.0015723270440251573 0.0047169811320754715 0.0015723270440251573 0.0015723270440251573 0.0015723270440251573 
0.002840909090909091 0.002840909090909091 0.002840909090909091 0.002840909090909091 0.002840909090909091 0.002840909090909091 0.002840909090909091 0.002840909090909091 0.002840909090909091 0.002840909090909091 0.002840909090909091 0.002840909090909091 0.002840909090909091 0.002840909090909091 0.002840909090909091 0.002840909090909091 0.002840909090909091 0.002840909090909091 0.002840909090909091 0.002840909090909091 0.5767045454545454 0.33238636363636365 0.002840909090909091 0.002840909090909091 0.014204545454545454 0.002840909090909091 0.002840909090909091 0.002840909090909091 0.002840909090909091 0.002840909090909091 
0.006756756756756757 0.006756756756756757 0.006756756756756757 0.006756756756756757 0.006756756756756757 0.006756756756756757 0.006756756756756757 0.006756756756756757 0.006756756756756757 0.006756756756756757 0.006756756756756757 0.006756756756756757 0.006756756756756757 0.006756756756756757 0.006756756756756757 0.006756756756756757 0.006756756756756757 0.006756756756756757 0.006756756756756757 0.006756756756756757 0.006756756756756757 0.7094594594594594 0.02027027027027027 0.033783783783783786 0.0472972972972973 0.02027027027027027 0.006756756756756757 0.006756756756756757 0.006756756756756757 0.006756756756756757 
0.010638297872340425 0.010638297872340425 0.010638297872340425 0.010638297872340425 0.010638297872340425 0.010638297872340425 0.010638297872340425 0.010638297872340425 0.010638297872340425 0.010638297872340425 0.010638297872340425 0.010638297872340425 0.010638297872340425 0.010638297872340425 0.010638297872340425 0.010638297872340425 0.010638297872340425 0.010638297872340425 0.010638297872340425 0.010638297872340425 0.010638297872340425 0.5 0.09574468085106383 0.11702127659574468 0.010638297872340425 0.010638297872340425 0.010638297872340425 0.010638297872340425 0.010638297872340425 0.010638297872340425 
0.03333333333333333 0.03333333333333333 0.03333333333333333 0.03333333333333333 0.03333333333333333 0.03333333333333333 0.03333333333333333 0.03333333333333333 0.03333333333333333 0.03333333333333333 0.03333333333333333 0.03333333333333333 0.03333333333333333 0.03333333333333333 0.03333333333333333 0.03333333333333333 0.03333333333333333 0.03333333333333333 0.03333333333333333 0.03333333333333333 0.03333333333333333 0.03333333333333333 0.03333333333333333 0.03333333333333333 0.03333333333333333 0.03333333333333333 0.03333333333333333 0.03333333333333333 0.03333333333333333 0.03333333333333333 
0.008333333333333333 0.008333333333333333 0.008333333333333333 0.008333333333333333 0.008333333333333333 0.008333333333333333 0.008333333333333333 0.008333333333333333 0.008333333333333333 0.008333333333333333 0.008333333333333333 0.008333333333333333 0.008333333333333333 0.008333333333333333 0.008333333333333333 0.008333333333333333 0.008333333333333333 0.008333333333333333 0.008333333333333333 0.008333333333333333 0.008333333333333333 0.09166666666666666 0.575 0.075 0.041666666666666664 0.008333333333333333 0.008333333333333333 0.008333333333333333 0.008333333333333333 0.008333333333333333 
0.008771929824561403 0.008771929824561403 0.008771929824561403 0.008771929824561403 0.008771929824561403 0.008771929824561403 0.008771929824561403 0.008771929824561403 0.008771929824561403 0.008771929824561403 0.008771929824561403 0.008771929824561403 0.008771929824561403 0.008771929824561403 0.008771929824561403 0.008771929824561403 0.008771929824561403 0.008771929824561403 0.008771929824561403 0.008771929824561403 0.008771929824561403 0.008771929824561403 0.06140350877192982 0.5701754385964912 0.11403508771929824 0.02631578947368421 0.008771929824561403 0.008771929824561403 0.008771929824561403 0.008771929824561403 
0.0016339869281045752 0.0016339869281045752 0.0016339869281045752 0.0016339869281045752 0.0016339869281045752 0.0016339869281045752 0.0016339869281045752 0.0016339869281045752 0.0016339869281045752 0.0016339869281045752 0.0016339869281045752 0.0016339869281045752 0.0016339869281045752 0.0016339869281045752 0.0016339869281045752 0.0016339869281045752 0.0016339869281045752 0.0016339869281045752 0.0016339869281045752 0.0016339869281045752 0.0016339869281045752 0.0016339869281045752 0.0016339869281045752 0.011437908496732025 0.9068627450980392 0.027777777777777776 0.011437908496732025 0.0016339869281045752 0.0016339869281045752 0.0016339869281045752 
0.03125 0.03125 0.03125 0.03125 0.03125 0.03125 0.03125 0.03125 0.03125 0.03125 0.03125 0.03125 0.03125 0.03125 0.03125 0.03125 0.03125 0.03125 0.03125 0.03125 0.03125 0.03125 0.03125 0.03125 0.09375 0.03125 0.03125 0.03125 0.03125 0.03125 
0.005813953488372093 0.005813953488372093 0.005813953488372093 0.005813953488372093 0.005813953488372093 0.005813953488372093 0.005813953488372093 0.005813953488372093 0.005813953488372093 0.005813953488372093 0.005813953488372093 0.005813953488372093 0.005813953488372093 0.005813953488372093 0.005813953488372093 0.005813953488372093 0.005813953488372093 0.005813953488372093 0.005813953488372093 0.005813953488372093 0.005813953488372093 0.005813953488372093 0.005813953488372093 0.005813953488372093 0.005813953488372093 0.7848837209302325 0.05232558139534884 0.005813953488372093 0.005813953488372093 0.005813953488372093 
0.0036496350364963502 0.0036496350364963502 0.0036496350364963502 0.0036496350364963502 0.0036496350364963502 0.0036496350364963502 0.0036496350364963502 0.0036496350364963502 0.0036496350364963502 0.0036496350364963502 0.0036496350364963502 0.0036496350364963502 0.0036496350364963502 0.0036496350364963502 0.0036496350364963502 0.0036496350364963502 0.0036496350364963502 0.0036496350364963502 0.0036496350364963502 0.0036496350364963502 0.0036496350364963502 0.0036496350364963502 0.0036496350364963502 0.0036496350364963502 0.0036496350364963502 0.0036496350364963502 0.8795620437956204 0.01824817518248175 0.0036496350364963502 0.0036496350364963502 
0.022727272727272728 0.022727272727272728 0.022727272727272728 0.022727272727272728 0.022727272727272728 0.022727272727272728 0.022727272727272728 0.022727272727272728 0.022727272727272728 0.022727272727272728 0.022727272727272728 0.022727272727272728 0.022727272727272728 0.022727272727272728 0.022727272727272728 0.022727272727272728 0.022727272727272728 0.022727272727272728 0.022727272727272728 0.022727272727272728 0.022727272727272728 0.022727272727272728 0.022727272727272728 0.022727272727272728 0.022727272727272728 0.022727272727272728 0.022727272727272728 0.3409090909090909 0.022727272727272728 0.022727272727272728 
0.022727272727272728 0.022727272727272728 0.022727272727272728 0.022727272727272728 0.022727272727272728 0.022727272727272728 0.022727272727272728 0.022727272727272728 0.022727272727272728 0.022727272727272728 0.022727272727272728 0.022727272727272728 0.022727272727272728 0.022727272727272728 0.022727272727272728 0.022727272727272728 0.022727272727272728 0.022727272727272728 0.022727272727272728 0.022727272727272728 0.022727272727272728 0.022727272727272728 0.022727272727272728 0.022727272727272728 0.022727272727272728 0.022727272727272728 0.022727272727272728 0.022727272727272728 0.3409090909090909 0.022727272727272728 
0.03333333333333333 0.03333333333333333 0.03333333333333333 0.03333333333333333 0.03333333333333333 0.03333333333333333 0.03333333333333333 0.03333333333333333 0.03333333333333333 0.03333333333333333 0.03333333333333333 0.03333333333333333 0.03333333333333333 0.03333333333333333 0.03333333333333333 0.03333333333333333 0.03333333333333333 0.03333333333333333 0.03333333333333333 0.03333333333333333 0.03333333333333333 0.03333333333333333 0.03333333333333333 0.03333333333333333 0.03333333333333333 0.03333333333333333 0.03333333333333333 0.03333333333333333 0.03333333333333333 0.03333333333333333 
0.03333333333333333 0.03333333333333333 0.03333333333333333 0.03333333333333333 0.03333333333333333 0.03333333333333333 0.03333333333333333 0.03333333333333333 0.03333333333333333 0.03333333333333333 0.03333333333333333 0.03333333333333333 0.03333333333333333 0.03333333333333333 0.03333333333333333 0.03333333333333333 0.03333333333333333 0.03333333333333333 0.03333333333333333 0.03333333333333333 0.03333333333333333 0.03333333333333333 0.03333333333333333 0.03333333333333333 0.03333333333333333 0.03333333333333333 0.03333333333333333 0.03333333333333333 0.03333333333333333 0.03333333333333333 
0.03125 0.03125 0.09375 0.03125 0.03125 0.03125 0.03125 0.03125 0.03125 0.03125 0.03125 0.03125 0.03125 0.03125 0.03125 0.03125 0.03125 0.03125 0.03125 0.03125 0.03125 0.03125 0.03125 0.03125 0.03125 0.03125 0.03125 0.03125 0.03125 0.03125 
0.02 0.02 0.1 0.18 0.06 0.02 0.06 0.06 0.02 0.02 0.06 0.02 0.02 0.02 0.02 0.02 0.02 0.02 0.02 0.02 0.02 0.02 0.02 0.02 0.02 0.02 0.02 0.02 0.02 0.02 
0.008771929824561403 0.008771929824561403 0.008771929824561403 0.6578947368421053 0.008771929824561403 0.008771929824561403 0.043859649122807015 0.043859649122807015 0.008771929824561403 0.02631578947368421 0.008771929824561403 0.008771929824561403 0.008771929824561403 0.008771929824561403 0.008771929824561403 0.008771929824561403 0.008771929824561403 0.008771929824561403 0.008771929824561403 0.008771929824561403 0.008771929824561403 0.008771929824561403 0.008771929824561403 0.008771929824561403 0.008771929824561403 0.008771929824561403 0.008771929824561403 0.008771929824561403 0.008771929824561403 0.008771929824561403 
0.020833333333333332 0.020833333333333332 0.020833333333333332 0.2708333333333333 0.14583333333333334 0.020833333333333332 0.020833333333333332 0.020833333333333332 0.020833333333333332 0.020833333333333332 0.020833333333333332 0.020833333333333332 0.020833333333333332 0.020833333333333332 0.020833333333333332 0.020833333333333332 0.020833333333333332 0.020833333333333332 0.020833333333333332 0.020833333333333332 0.020833333333333332 0.020833333333333332 0.020833333333333332 0.020833333333333332 0.020833333333333332 0.020833333333333332 0.020833333333333332 0.020833333333333332 0.020833333333333332 0.020833333333333332 
0.010869565217391304 0.010869565217391304 0.010869565217391304 0.010869565217391304 0.14130434782608695 0.010869565217391304 0.22826086956521738 0.31521739130434784 0.010869565217391304 0.03260869565217391 0.010869565217391304 0.010869565217391304 0.010869565217391304 0.010869565217391304 0.010869565217391304 0.010869565217391304 0.010869565217391304 0.010869565217391304 0.010869565217391304 0.010869565217391304 0.010869565217391304 0.010869565217391304 0.010869565217391304 0.010869565217391304 0.010869565217391304 0.010869565217391304 0.010869565217391304 0.010869565217391304 0.010869565217391304 0.010869565217391304 
0.0025252525252525255 0.0025252525252525255 0.0025252525252525255 0.0025252525252525255 0.0025252525252525255 0.0025252525252525255 0.0025252525252525255 0.8308080808080808 0.012626262626262626 0.06818181818181818 0.007575757575757576 0.0025252525252525255 0.017676767676767676 0.0025252525252525255 0.0025252525252525255 0.0025252525252525255 0.0025252525252525255 0.0025252525252525255 0.0025252525252525255 0.0025252525252525255 0.0025252525252525255 0.0025252525252525255 0.0025252525252525255 0.0025252525252525255 0.0025252525252525255 0.0025252525252525255 0.0025252525252525255 0.0025252525252525255 0.0025252525252525255 0.0025252525252525255 
0.002631578947368421 0.002631578947368421 0.002631578947368421 0.002631578947368421 0.002631578947368421 0.002631578947368421 0.002631578947368421 0.02368421052631579 0.05 0.8236842105263158 0.018421052631578946 0.013157894736842105 0.002631578947368421 0.002631578947368421 0.007894736842105263 0.002631578947368421 0.002631578947368421 0.002631578947368421 0.002631578947368421 0.002631578947368421 0.002631578947368421 0.002631578947368421 0.002631578947368421 0.002631578947368421 0.002631578947368421 0.002631578947368421 0.002631578947368421 0.002631578947368421 0.002631578947368421 0.002631578947368421 
0.0033333333333333335 0.0033333333333333335 0.0033333333333333335 0.0033333333333333335 0.0033333333333333335 0.0033333333333333335 0.0033333333333333335 0.0033333333333333335 0.0033333333333333335 0.8566666666666667 0.016666666666666666 0.03666666666666667 0.0033333333333333335 0.0033333333333333335 0.0033333333333333335 0.0033333333333333335 0.0033333333333333335 0.0033333333333333335 0.0033333333333333335 0.0033333333333333335 0.0033333333333333335 0.0033333333333333335 0.0033333333333333335 0.0033333333333333335 0.0033333333333333335 0.0033333333333333335 0.0033333333333333335 0.0033333333333333335 0.0033333333333333335 0.0033333333333333335 
0.001953125 0.001953125 0.001953125 0.001953125 0.001953125 0.001953125 0.001953125 0.001953125 0.001953125 0.556640625 0.283203125 0.087890625 0.017578125 0.001953125 0.001953125 0.005859375 0.001953125 0.001953125 0.001953125 0.001953125 0.001953125 0.001953125 0.001953125 0.001953125 0.001953125 0.001953125 0.001953125 0.001953125 0.001953125 0.001953125 
0.00141643059490085 0.00141643059490085 0.00141643059490085 0.00141643059490085 0.00141643059490085 0.00141643059490085 0.00141643059490085 0.00141643059490085 0.00141643059490085 0.00141643059490085 0.08073654390934844 0.8087818696883853 0.06657223796033994 0.00424929178470255 0.00141643059490085 0.00424929178470255 0.00141643059490085 0.00141643059490085 0.00141643059490085 0.00141643059490085 0.00141643059490085 0.00141643059490085 0.00141643059490085 0.00141643059490085 0.00141643059490085 0.00141643059490085 0.00141643059490085 0.00141643059490085 0.00141643059490085 0.00141643059490085 
0.0018248175182481751 0.0018248175182481751 0.0018248175182481751 0.0018248175182481751 0.0018248175182481751 0.0018248175182481751 0.0018248175182481751 0.0018248175182481751 0.0018248175182481751 0.0018248175182481751 0.0018248175182481751 0.06751824817518248 0.8448905109489051 0.020072992700729927 0.016423357664233577 0.005474452554744526 0.0018248175182481751 0.0018248175182481751 0.0018248175182481751 0.0018248175182481751 0.0018248175182481751 0.0018248175182481751 0.0018248175182481751 0.0018248175182481751 0.0018248175182481751 0.0018248175182481751 0.0018248175182481751 0.0018248175182481751 0.0018248175182481751 0.0018248175182481751 
0.0022522522522522522 0.0022522522522522522 0.0022522522522522522 0.0022522522522522522 0.0022522522522522522 0.0022522522522522522 0.0022522522522522522 0.0022522522522522522 0.0022522522522522522 0.0022522522522522522 0.0022522522522522522 0.0022522522522522522 0.13288288288288289 0.6193693693693694 0.17792792792792791 0.006756756756756757 0.006756756756756757 0.0022522522522522522 0.0022522522522522522 0.0022522522522522522 0.0022522522522522522 0.0022522522522522522 0.0022522522522522522 0.0022522522522522522 0.0022522522522522522 0.0022522522522522522 0.0022522522522522522 0.0022522522522522522 0.0022522522522522522 0.0022522522522522522 
0.00684931506849315 0.00684931506849315 0.00684931506849315 0.00684931506849315 0.00684931506849315 0.00684931506849315 0.00684931506849315 0.00684931506849315 0.00684931506849315 0.00684931506849315 0.00684931506849315 0.00684931506849315 0.00684931506849315 0.00684931506849315 0.6506849315068494 0.13013698630136986 0.03424657534246575 0.00684931506849315 0.00684931506849315 0.00684931506849315 0.00684931506849315 0.00684931506849315 0.00684931506849315 0.00684931506849315 0.00684931506849315 0.00684931506849315 0.00684931506849315 0.00684931506849315 0.00684931506849315 0.00684931506849315 
0.004032258064516129 0.004032258064516129 0.004032258064516129 0.004032258064516129 0.004032258064516129 0.004032258064516129 0.004032258064516129 0.004032258064516129 0.004032258064516129 0.004032258064516129 0.004032258064516129 0.004032258064516129 0.004032258064516129 0.004032258064516129 0.020161290322580645 0.18951612903225806 0.5282258064516129 0.13306451612903225 0.028225806451612902 0.004032258064516129 0.004032258064516129 0.004032258064516129 0.004032258064516129 0.004032258064516129 0.004032258064516129 0.004032258064516129 0.004032258064516129 0.004032258064516129 0.004032258064516129 0.004032258064516129 
