<?xml version="1.0"?>
<!-- DTD for the XMLBIF 0.3 format -->
<!DOCTYPE BIF [
	<!ELEMENT BIF ( NETWORK )*>
	      <!ATTLIST BIF VERSION CDATA #REQUIRED>
	<!ELEMENT NETWORK ( NAME, ( PROPERTY | VARIABLE | DEFINITION )* )>
	<!ELEMENT NAME (#PCDATA)>
	<!ELEMENT VARIABLE ( NAME, ( OUTCOME |  PROPERTY )* ) >
	      <!ATTLIST VARIABLE TYPE (nature|decision|utility) "nature">
	<!ELEMENT OUTCOME (#PCDATA)>
	<!ELEMENT DEFINITION ( FOR | GIVEN | TABLE | PROPERTY )* >
	<!ELEMENT FOR (#PCDATA)>
	<!ELEMENT GIVEN (#PCDATA)>
	<!ELEMENT TABLE (#PCDATA)>
	<!ELEMENT PROPERTY (#PCDATA)>
]>


<BIF VERSION="0.3">
<NETWORK>
<NAME>R_data_frame-weka.filters.supervised.attribute.Discretize-Rfirst-last-precision6-weka.filters.unsupervised.attribute.ReplaceMissingValues</NAME>
<VARIABLE TYPE="nature">
	<NAME>V1</NAME>
	<OUTCOME>&apos;(-inf--6.25855]&apos;</OUTCOME>
	<OUTCOME>&apos;(-6.25855--4.0793]&apos;</OUTCOME>
	<OUTCOME>&apos;(-4.0793--2.8126]&apos;</OUTCOME>
	<OUTCOME>&apos;(-2.8126--1.5459]&apos;</OUTCOME>
	<OUTCOME>&apos;(-1.5459-2.89435]&apos;</OUTCOME>
	<OUTCOME>&apos;(2.89435-inf)&apos;</OUTCOME>
	<PROPERTY>position = (0,90)</PROPERTY>
</VARIABLE>
<VARIABLE TYPE="nature">
	<NAME>V2</NAME>
	<OUTCOME>&apos;(-inf-3.69795]&apos;</OUTCOME>
	<OUTCOME>&apos;(3.69795-9.06435]&apos;</OUTCOME>
	<OUTCOME>&apos;(9.06435-9.21415]&apos;</OUTCOME>
	<OUTCOME>&apos;(9.21415-9.40485]&apos;</OUTCOME>
	<OUTCOME>&apos;(9.40485-9.7113]&apos;</OUTCOME>
	<OUTCOME>&apos;(9.7113-9.902]&apos;</OUTCOME>
	<OUTCOME>&apos;(9.902-10.2085]&apos;</OUTCOME>
	<OUTCOME>&apos;(10.2085-12.197]&apos;</OUTCOME>
	<OUTCOME>&apos;(12.197-inf)&apos;</OUTCOME>
	<PROPERTY>position = (45,90)</PROPERTY>
</VARIABLE>
<VARIABLE TYPE="nature">
	<NAME>V3</NAME>
	<OUTCOME>&apos;(-inf--3.31655]&apos;</OUTCOME>
	<OUTCOME>&apos;(-3.31655--2.1997]&apos;</OUTCOME>
	<OUTCOME>&apos;(-2.1997--1.58675]&apos;</OUTCOME>
	<OUTCOME>&apos;(-1.58675--0.4018]&apos;</OUTCOME>
	<OUTCOME>&apos;(-0.4018-1.28715]&apos;</OUTCOME>
	<OUTCOME>&apos;(1.28715-2.43125]&apos;</OUTCOME>
	<OUTCOME>&apos;(2.43125-3.085]&apos;</OUTCOME>
	<OUTCOME>&apos;(3.085-6.25855]&apos;</OUTCOME>
	<OUTCOME>&apos;(6.25855-inf)&apos;</OUTCOME>
	<PROPERTY>position = (90,90)</PROPERTY>
</VARIABLE>
<VARIABLE TYPE="nature">
	<NAME>Class</NAME>
	<OUTCOME>0</OUTCOME>
	<OUTCOME>1</OUTCOME>
	<PROPERTY>position = (45,0)</PROPERTY>
</VARIABLE>
<DEFINITION>
<FOR>V1</FOR>
	<GIVEN>Class</GIVEN>
<TABLE>
0.06967542780142039 0.10779083277759827 0.11409527476229435 0.1658852000302503 0.49996562463476174 0.04258763999367493 
1.287001287001287E-4 0.011196911196911196 0.051351351351351354 0.1731016731016731 0.7383526383526383 0.025868725868725868 
</TABLE>
</DEFINITION>
<DEFINITION>
<FOR>V2</FOR>
	<GIVEN>Class</GIVEN>
<TABLE>
0.03177282242900701 0.5184267245083514 0.03191719747412421 0.035361573550491736 0.05635095510967347 0.027200946000295625 0.03503844844951514 0.1578672368335115 0.10606409564502989 
0.002701659590891548 0.33899395342853467 0.03717998198893606 0.07397401260774476 0.22706805609159914 0.05879325871606844 0.05158883314035765 0.14550366653801622 0.06419657789785153 
</TABLE>
</DEFINITION>
<DEFINITION>
<FOR>V3</FOR>
	<GIVEN>Class</GIVEN>
<TABLE>
0.05985720620537694 0.07366221051944079 0.06449095765342426 0.2285560089237528 0.297642905513408 0.08517096411592628 0.03276969774053055 0.07642596138311293 0.08142408794502748 
0.0096487842531841 0.028946352759552298 0.04412710665122861 0.2365881898880741 0.42570436125048244 0.15939791586260132 0.024829538144860414 0.015309404348385437 0.05544834684163129 
</TABLE>
</DEFINITION>
<DEFINITION>
<FOR>Class</FOR>
<TABLE>
0.974001058038076 0.02599894196192402 
</TABLE>
</DEFINITION>
</NETWORK>
</BIF>
