<?xml version="1.0"?>
<!-- DTD for the XMLBIF 0.3 format -->
<!DOCTYPE BIF [
	<!ELEMENT BIF ( NETWORK )*>
	      <!ATTLIST BIF VERSION CDATA #REQUIRED>
	<!ELEMENT NETWORK ( NAME, ( PROPERTY | VARIABLE | DEFINITION )* )>
	<!ELEMENT NAME (#PCDATA)>
	<!ELEMENT VARIABLE ( NAME, ( OUTCOME |  PROPERTY )* ) >
	      <!ATTLIST VARIABLE TYPE (nature|decision|utility) "nature">
	<!ELEMENT OUTCOME (#PCDATA)>
	<!ELEMENT DEFINITION ( FOR | GIVEN | TABLE | PROPERTY )* >
	<!ELEMENT FOR (#PCDATA)>
	<!ELEMENT GIVEN (#PCDATA)>
	<!ELEMENT TABLE (#PCDATA)>
	<!ELEMENT PROPERTY (#PCDATA)>
]>


<BIF VERSION="0.3">
<NETWORK>
<NAME>R_data_frame-weka.filters.supervised.attribute.Discretize-Rfirst-last-precision6-weka.filters.unsupervised.attribute.ReplaceMissingValues</NAME>
<VARIABLE TYPE="nature">
	<NAME>V1</NAME>
	<OUTCOME>&apos;(-inf--9.364]&apos;</OUTCOME>
	<OUTCOME>&apos;(-9.364--8.17905]&apos;</OUTCOME>
	<OUTCOME>&apos;(-8.17905--5.45495]&apos;</OUTCOME>
	<OUTCOME>&apos;(-5.45495--2.547]&apos;</OUTCOME>
	<OUTCOME>&apos;(-2.547--2.1248]&apos;</OUTCOME>
	<OUTCOME>&apos;(-2.1248--1.35525]&apos;</OUTCOME>
	<OUTCOME>&apos;(-1.35525-inf)&apos;</OUTCOME>
	<PROPERTY>position = (0,90)</PROPERTY>
</VARIABLE>
<VARIABLE TYPE="nature">
	<NAME>V2</NAME>
	<OUTCOME>&apos;(-inf--0.020431]&apos;</OUTCOME>
	<OUTCOME>&apos;(-0.020431-2.04985]&apos;</OUTCOME>
	<OUTCOME>&apos;(2.04985-4.2291]&apos;</OUTCOME>
	<OUTCOME>&apos;(4.2291-5.346]&apos;</OUTCOME>
	<OUTCOME>&apos;(5.346-6.4901]&apos;</OUTCOME>
	<OUTCOME>&apos;(6.4901-9.02345]&apos;</OUTCOME>
	<OUTCOME>&apos;(9.02345-9.25505]&apos;</OUTCOME>
	<OUTCOME>&apos;(9.25505-11.4755]&apos;</OUTCOME>
	<OUTCOME>&apos;(11.4755-14.8805]&apos;</OUTCOME>
	<OUTCOME>&apos;(14.8805-inf)&apos;</OUTCOME>
	<PROPERTY>position = (45,90)</PROPERTY>
</VARIABLE>
<VARIABLE TYPE="nature">
	<NAME>V3</NAME>
	<OUTCOME>&apos;(-inf--5.346]&apos;</OUTCOME>
	<OUTCOME>&apos;(-5.346--2.7377]&apos;</OUTCOME>
	<OUTCOME>&apos;(-2.7377--1.5527]&apos;</OUTCOME>
	<OUTCOME>&apos;(-1.5527--0.86489]&apos;</OUTCOME>
	<OUTCOME>&apos;(-0.86489-0.44266]&apos;</OUTCOME>
	<OUTCOME>&apos;(0.44266-2.04985]&apos;</OUTCOME>
	<OUTCOME>&apos;(2.04985-7.79765]&apos;</OUTCOME>
	<OUTCOME>&apos;(7.79765-9.9769]&apos;</OUTCOME>
	<OUTCOME>&apos;(9.9769-inf)&apos;</OUTCOME>
	<PROPERTY>position = (90,90)</PROPERTY>
</VARIABLE>
<VARIABLE TYPE="nature">
	<NAME>Class</NAME>
	<OUTCOME>0</OUTCOME>
	<OUTCOME>1</OUTCOME>
	<PROPERTY>position = (45,0)</PROPERTY>
</VARIABLE>
<DEFINITION>
<FOR>V1</FOR>
	<GIVEN>Class</GIVEN>
<TABLE>
0.011988230115792647 0.014587586168653152 0.061632464917357806 0.21288032911313437 0.04751969445436051 0.12738577563051715 0.5240059196001844 
9.857072449482504E-5 0.010349926071956629 0.22148841793987187 0.46357811729916215 0.0637752587481518 0.08013799901429275 0.16057171020206998 
</TABLE>
</DEFINITION>
<DEFINITION>
<FOR>V2</FOR>
	<GIVEN>Class</GIVEN>
<TABLE>
0.008487675714642194 0.007780658219424959 0.024139102226411954 0.05119291873457731 0.09364169462389442 0.3521120414783597 0.046715141264868164 0.2652736573599135 0.13787880888346687 0.012778301494440902 
9.854158454867954E-5 0.0030547891210090656 0.0862238864800946 0.0948955459203784 0.0948955459203784 0.23521876231769806 0.06612140323216398 0.23876625936145054 0.17648797792668505 0.00423728813559322 
</TABLE>
</DEFINITION>
<DEFINITION>
<FOR>V3</FOR>
	<GIVEN>Class</GIVEN>
<TABLE>
0.008660994333443084 0.07742908139393834 0.1062020205520994 0.11964233108635002 0.2842462786143795 0.18876392811963885 0.16500944426152805 0.038882631223248476 0.011163290415374219 
0.0038435005420321276 0.2283433527150882 0.19325909135705135 0.164087907755987 0.2370158667586479 0.08918892283433527 0.0351828126539864 0.045037942248940574 0.004040603133931211 
</TABLE>
</DEFINITION>
<DEFINITION>
<FOR>Class</FOR>
<TABLE>
0.9660523795812044 0.03394762041879558 
</TABLE>
</DEFINITION>
</NETWORK>
</BIF>
